<?xml version="1.0"?>
<MethodSetup Method="BDT::bdt">
<GeneralInfo>
<Info name="TMVA Release" value=""/>
<Info name="ROOT Release" value=""/>
<Info name="Creator" value="mlglue"/>
<Info name="Date" value=""/>
<Info name="Host" value=""/>
<Info name="Dir" value=""/>
<Info name="Training events" value="-1"/>
<Info name="TrainingTime" value="-1"/>
<Info name="AnalysisType" value="Classification"/>
</GeneralInfo>
<Options>
<Option name="NTrees" modified="Yes">496</Option>
<Option name="MaxDepth" modified="Yes">2</Option>
<Option name="BoostType" modified="Yes">Grad</Option>
<Option name="Shrinkage" modified="Yes">0.174041047896</Option>
<Option name="UseNvars" modified="Yes">23</Option>
</Options>
<Variables NVar="23">
<Variable VarIndex="0" Expression="leptonPairMass_sel" Label="leptonPairMass_sel" Title="leptonPairMass_sel" Unit="" Internal="leptonPairMass_sel" Type="F" Min="0.0000000000000000000000000000000000000000000000000000000000000000E+00" Max="0.0000000000000000000000000000000000000000000000000000000000000000E+00"/>
<Variable VarIndex="1" Expression="dihiggsVisMass_sel" Label="dihiggsVisMass_sel" Title="dihiggsVisMass_sel" Unit="" Internal="dihiggsVisMass_sel" Type="F" Min="0.0000000000000000000000000000000000000000000000000000000000000000E+00" Max="0.0000000000000000000000000000000000000000000000000000000000000000E+00"/>
<Variable VarIndex="2" Expression="met_LD" Label="met_LD" Title="met_LD" Unit="" Internal="met_LD" Type="F" Min="0.0000000000000000000000000000000000000000000000000000000000000000E+00" Max="0.0000000000000000000000000000000000000000000000000000000000000000E+00"/>
<Variable VarIndex="3" Expression="dR_ll" Label="dR_ll" Title="dR_ll" Unit="" Internal="dR_ll" Type="F" Min="0.0000000000000000000000000000000000000000000000000000000000000000E+00" Max="0.0000000000000000000000000000000000000000000000000000000000000000E+00"/>
<Variable VarIndex="4" Expression="dR_l_Wjets_min" Label="dR_l_Wjets_min" Title="dR_l_Wjets_min" Unit="" Internal="dR_l_Wjets_min" Type="F" Min="0.0000000000000000000000000000000000000000000000000000000000000000E+00" Max="0.0000000000000000000000000000000000000000000000000000000000000000E+00"/>
<Variable VarIndex="5" Expression="dR_l_leadWjet_min" Label="dR_l_leadWjet_min" Title="dR_l_leadWjet_min" Unit="" Internal="dR_l_leadWjet_min" Type="F" Min="0.0000000000000000000000000000000000000000000000000000000000000000E+00" Max="0.0000000000000000000000000000000000000000000000000000000000000000E+00"/>
<Variable VarIndex="6" Expression="dR_l_Wjets_max" Label="dR_l_Wjets_max" Title="dR_l_Wjets_max" Unit="" Internal="dR_l_Wjets_max" Type="F" Min="0.0000000000000000000000000000000000000000000000000000000000000000E+00" Max="0.0000000000000000000000000000000000000000000000000000000000000000E+00"/>
<Variable VarIndex="7" Expression="dR_l_leadWjet_max" Label="dR_l_leadWjet_max" Title="dR_l_leadWjet_max" Unit="" Internal="dR_l_leadWjet_max" Type="F" Min="0.0000000000000000000000000000000000000000000000000000000000000000E+00" Max="0.0000000000000000000000000000000000000000000000000000000000000000E+00"/>
<Variable VarIndex="8" Expression="dR_2j_fromW1" Label="dR_2j_fromW1" Title="dR_2j_fromW1" Unit="" Internal="dR_2j_fromW1" Type="F" Min="0.0000000000000000000000000000000000000000000000000000000000000000E+00" Max="0.0000000000000000000000000000000000000000000000000000000000000000E+00"/>
<Variable VarIndex="9" Expression="mT_lep1" Label="mT_lep1" Title="mT_lep1" Unit="" Internal="mT_lep1" Type="F" Min="0.0000000000000000000000000000000000000000000000000000000000000000E+00" Max="0.0000000000000000000000000000000000000000000000000000000000000000E+00"/>
<Variable VarIndex="10" Expression="SM" Label="SM" Title="SM" Unit="" Internal="SM" Type="F" Min="0.0000000000000000000000000000000000000000000000000000000000000000E+00" Max="0.0000000000000000000000000000000000000000000000000000000000000000E+00"/>
<Variable VarIndex="11" Expression="BM1" Label="BM1" Title="BM1" Unit="" Internal="BM1" Type="F" Min="0.0000000000000000000000000000000000000000000000000000000000000000E+00" Max="0.0000000000000000000000000000000000000000000000000000000000000000E+00"/>
<Variable VarIndex="12" Expression="BM2" Label="BM2" Title="BM2" Unit="" Internal="BM2" Type="F" Min="0.0000000000000000000000000000000000000000000000000000000000000000E+00" Max="0.0000000000000000000000000000000000000000000000000000000000000000E+00"/>
<Variable VarIndex="13" Expression="BM3" Label="BM3" Title="BM3" Unit="" Internal="BM3" Type="F" Min="0.0000000000000000000000000000000000000000000000000000000000000000E+00" Max="0.0000000000000000000000000000000000000000000000000000000000000000E+00"/>
<Variable VarIndex="14" Expression="BM4" Label="BM4" Title="BM4" Unit="" Internal="BM4" Type="F" Min="0.0000000000000000000000000000000000000000000000000000000000000000E+00" Max="0.0000000000000000000000000000000000000000000000000000000000000000E+00"/>
<Variable VarIndex="15" Expression="BM5" Label="BM5" Title="BM5" Unit="" Internal="BM5" Type="F" Min="0.0000000000000000000000000000000000000000000000000000000000000000E+00" Max="0.0000000000000000000000000000000000000000000000000000000000000000E+00"/>
<Variable VarIndex="16" Expression="BM6" Label="BM6" Title="BM6" Unit="" Internal="BM6" Type="F" Min="0.0000000000000000000000000000000000000000000000000000000000000000E+00" Max="0.0000000000000000000000000000000000000000000000000000000000000000E+00"/>
<Variable VarIndex="17" Expression="BM7" Label="BM7" Title="BM7" Unit="" Internal="BM7" Type="F" Min="0.0000000000000000000000000000000000000000000000000000000000000000E+00" Max="0.0000000000000000000000000000000000000000000000000000000000000000E+00"/>
<Variable VarIndex="18" Expression="BM8" Label="BM8" Title="BM8" Unit="" Internal="BM8" Type="F" Min="0.0000000000000000000000000000000000000000000000000000000000000000E+00" Max="0.0000000000000000000000000000000000000000000000000000000000000000E+00"/>
<Variable VarIndex="19" Expression="BM9" Label="BM9" Title="BM9" Unit="" Internal="BM9" Type="F" Min="0.0000000000000000000000000000000000000000000000000000000000000000E+00" Max="0.0000000000000000000000000000000000000000000000000000000000000000E+00"/>
<Variable VarIndex="20" Expression="BM10" Label="BM10" Title="BM10" Unit="" Internal="BM10" Type="F" Min="0.0000000000000000000000000000000000000000000000000000000000000000E+00" Max="0.0000000000000000000000000000000000000000000000000000000000000000E+00"/>
<Variable VarIndex="21" Expression="BM11" Label="BM11" Title="BM11" Unit="" Internal="BM11" Type="F" Min="0.0000000000000000000000000000000000000000000000000000000000000000E+00" Max="0.0000000000000000000000000000000000000000000000000000000000000000E+00"/>
<Variable VarIndex="22" Expression="BM12" Label="BM12" Title="BM12" Unit="" Internal="BM12" Type="F" Min="0.0000000000000000000000000000000000000000000000000000000000000000E+00" Max="0.0000000000000000000000000000000000000000000000000000000000000000E+00"/>

</Variables>
<Classes NClass="2">
<Class Name="Background" Index="0"/>
<Class Name="Signal" Index="1"/>

</Classes>
<Targets NTrgt="0">

</Targets>
<Transformations NTransformations="0"/>
<MVAPdfs/>
<Weights NTrees="496" AnalysisType="1"><BinaryTree type="DecisionTree" boostWeight="0.0" itree="0">
    <Node pos="c" depth="1" NCoef="0" IVar="5" Cut="8.58729303000000055E-01" cType="1" res="0.00000000000000000E+00" rms="0.0" purity="0.00000000E+00" nType="0">
        <Node pos="l" depth="2" NCoef="0" IVar="0" Cut="1.28487717000000004E+02" cType="1" res="0.00000000000000000E+00" rms="0.0" purity="0.00000000E+00" nType="0">
            <Node pos="l" depth="3" NCoef="0" IVar="-1" Cut="0.00000000000000000E+00" cType="1" res="9.75833385999999997E-02" rms="0.0e-00" purity="0.00000000E+00" nType="-99">
            </Node>
            <Node pos="r" depth="3" NCoef="0" IVar="-1" Cut="0.00000000000000000E+00" cType="1" res="2.93452233000000007E-01" rms="0.0e-00" purity="0.00000000E+00" nType="-99">
            </Node>
        </Node>
        <Node pos="r" depth="2" NCoef="0" IVar="9" Cut="2.46021041999999994E+02" cType="1" res="0.00000000000000000E+00" rms="0.0" purity="0.00000000E+00" nType="0">
            <Node pos="l" depth="3" NCoef="0" IVar="-1" Cut="0.00000000000000000E+00" cType="1" res="-8.29930006999999997E-02" rms="0.0e-00" purity="0.00000000E+00" nType="-99">
            </Node>
            <Node pos="r" depth="3" NCoef="0" IVar="-1" Cut="0.00000000000000000E+00" cType="1" res="2.03099235999999989E-01" rms="0.0e-00" purity="0.00000000E+00" nType="-99">
            </Node>
        </Node>
    </Node>
</BinaryTree>
<BinaryTree type="DecisionTree" boostWeight="0.0" itree="1">
    <Node pos="c" depth="1" NCoef="0" IVar="4" Cut="6.95152699999999957E-01" cType="1" res="0.00000000000000000E+00" rms="0.0" purity="0.00000000E+00" nType="0">
        <Node pos="l" depth="2" NCoef="0" IVar="8" Cut="8.14572811000000008E-01" cType="1" res="0.00000000000000000E+00" rms="0.0" purity="0.00000000E+00" nType="0">
            <Node pos="l" depth="3" NCoef="0" IVar="-1" Cut="0.00000000000000000E+00" cType="1" res="2.59157061999999994E-01" rms="0.0e-00" purity="0.00000000E+00" nType="-99">
            </Node>
            <Node pos="r" depth="3" NCoef="0" IVar="-1" Cut="0.00000000000000000E+00" cType="1" res="7.34325573000000065E-02" rms="0.0e-00" purity="0.00000000E+00" nType="-99">
            </Node>
        </Node>
        <Node pos="r" depth="2" NCoef="0" IVar="4" Cut="1.29168737000000000E+00" cType="1" res="0.00000000000000000E+00" rms="0.0" purity="0.00000000E+00" nType="0">
            <Node pos="l" depth="3" NCoef="0" IVar="-1" Cut="0.00000000000000000E+00" cType="1" res="-1.86126976999999999E-02" rms="0.0e-00" purity="0.00000000E+00" nType="-99">
            </Node>
            <Node pos="r" depth="3" NCoef="0" IVar="-1" Cut="0.00000000000000000E+00" cType="1" res="-1.69947132000000001E-01" rms="0.0e-00" purity="0.00000000E+00" nType="-99">
            </Node>
        </Node>
    </Node>
</BinaryTree>
<BinaryTree type="DecisionTree" boostWeight="0.0" itree="2">
    <Node pos="c" depth="1" NCoef="0" IVar="4" Cut="9.14940654999999992E-01" cType="1" res="0.00000000000000000E+00" rms="0.0" purity="0.00000000E+00" nType="0">
        <Node pos="l" depth="2" NCoef="0" IVar="8" Cut="8.42526196999999977E-01" cType="1" res="0.00000000000000000E+00" rms="0.0" purity="0.00000000E+00" nType="0">
            <Node pos="l" depth="3" NCoef="0" IVar="-1" Cut="0.00000000000000000E+00" cType="1" res="2.07696362999999995E-01" rms="0.0e-00" purity="0.00000000E+00" nType="-99">
            </Node>
            <Node pos="r" depth="3" NCoef="0" IVar="-1" Cut="0.00000000000000000E+00" cType="1" res="3.87531518999999977E-02" rms="0.0e-00" purity="0.00000000E+00" nType="-99">
            </Node>
        </Node>
        <Node pos="r" depth="2" NCoef="0" IVar="4" Cut="1.41197657999999993E+00" cType="1" res="0.00000000000000000E+00" rms="0.0" purity="0.00000000E+00" nType="0">
            <Node pos="l" depth="3" NCoef="0" IVar="-1" Cut="0.00000000000000000E+00" cType="1" res="-5.35580888000000005E-02" rms="0.0e-00" purity="0.00000000E+00" nType="-99">
            </Node>
            <Node pos="r" depth="3" NCoef="0" IVar="-1" Cut="0.00000000000000000E+00" cType="1" res="-1.52890949999999998E-01" rms="0.0e-00" purity="0.00000000E+00" nType="-99">
            </Node>
        </Node>
    </Node>
</BinaryTree>
<BinaryTree type="DecisionTree" boostWeight="0.0" itree="3">
    <Node pos="c" depth="1" NCoef="0" IVar="2" Cut="1.21921683999999999E+02" cType="1" res="0.00000000000000000E+00" rms="0.0" purity="0.00000000E+00" nType="0">
        <Node pos="l" depth="2" NCoef="0" IVar="5" Cut="1.33371829999999991E+00" cType="1" res="0.00000000000000000E+00" rms="0.0" purity="0.00000000E+00" nType="0">
            <Node pos="l" depth="3" NCoef="0" IVar="-1" Cut="0.00000000000000000E+00" cType="1" res="3.86041178999999984E-02" rms="0.0e-00" purity="0.00000000E+00" nType="-99">
            </Node>
            <Node pos="r" depth="3" NCoef="0" IVar="-1" Cut="0.00000000000000000E+00" cType="1" res="-8.23959410000000003E-02" rms="0.0e-00" purity="0.00000000E+00" nType="-99">
            </Node>
        </Node>
        <Node pos="r" depth="2" NCoef="0" IVar="5" Cut="7.06421256000000053E-01" cType="1" res="0.00000000000000000E+00" rms="0.0" purity="0.00000000E+00" nType="0">
            <Node pos="l" depth="3" NCoef="0" IVar="-1" Cut="0.00000000000000000E+00" cType="1" res="2.29996129999999993E-01" rms="0.0e-00" purity="0.00000000E+00" nType="-99">
            </Node>
            <Node pos="r" depth="3" NCoef="0" IVar="-1" Cut="0.00000000000000000E+00" cType="1" res="8.49447697000000057E-02" rms="0.0e-00" purity="0.00000000E+00" nType="-99">
            </Node>
        </Node>
    </Node>
</BinaryTree>
<BinaryTree type="DecisionTree" boostWeight="0.0" itree="4">
    <Node pos="c" depth="1" NCoef="0" IVar="8" Cut="6.27501368999999976E-01" cType="1" res="0.00000000000000000E+00" rms="0.0" purity="0.00000000E+00" nType="0">
        <Node pos="l" depth="2" NCoef="0" IVar="0" Cut="1.43134368999999992E+02" cType="1" res="0.00000000000000000E+00" rms="0.0" purity="0.00000000E+00" nType="0">
            <Node pos="l" depth="3" NCoef="0" IVar="-1" Cut="0.00000000000000000E+00" cType="1" res="6.17787800999999998E-02" rms="0.0e-00" purity="0.00000000E+00" nType="-99">
            </Node>
            <Node pos="r" depth="3" NCoef="0" IVar="-1" Cut="0.00000000000000000E+00" cType="1" res="1.93715870000000012E-01" rms="0.0e-00" purity="0.00000000E+00" nType="-99">
            </Node>
        </Node>
        <Node pos="r" depth="2" NCoef="0" IVar="0" Cut="2.93932922000000019E+02" cType="1" res="0.00000000000000000E+00" rms="0.0" purity="0.00000000E+00" nType="0">
            <Node pos="l" depth="3" NCoef="0" IVar="-1" Cut="0.00000000000000000E+00" cType="1" res="-4.20362203999999975E-02" rms="0.0e-00" purity="0.00000000E+00" nType="-99">
            </Node>
            <Node pos="r" depth="3" NCoef="0" IVar="-1" Cut="0.00000000000000000E+00" cType="1" res="1.31035581000000012E-01" rms="0.0e-00" purity="0.00000000E+00" nType="-99">
            </Node>
        </Node>
    </Node>
</BinaryTree>
<BinaryTree type="DecisionTree" boostWeight="0.0" itree="5">
    <Node pos="c" depth="1" NCoef="0" IVar="4" Cut="1.00679779000000003E+00" cType="1" res="0.00000000000000000E+00" rms="0.0" purity="0.00000000E+00" nType="0">
        <Node pos="l" depth="2" NCoef="0" IVar="4" Cut="4.91082459999999998E-01" cType="1" res="0.00000000000000000E+00" rms="0.0" purity="0.00000000E+00" nType="0">
            <Node pos="l" depth="3" NCoef="0" IVar="-1" Cut="0.00000000000000000E+00" cType="1" res="1.70648411000000000E-01" rms="0.0e-00" purity="0.00000000E+00" nType="-99">
            </Node>
            <Node pos="r" depth="3" NCoef="0" IVar="-1" Cut="0.00000000000000000E+00" cType="1" res="3.58172879000000013E-02" rms="0.0e-00" purity="0.00000000E+00" nType="-99">
            </Node>
        </Node>
        <Node pos="r" depth="2" NCoef="0" IVar="4" Cut="1.80981361999999990E+00" cType="1" res="0.00000000000000000E+00" rms="0.0" purity="0.00000000E+00" nType="0">
            <Node pos="l" depth="3" NCoef="0" IVar="-1" Cut="0.00000000000000000E+00" cType="1" res="-6.30526914999999938E-02" rms="0.0e-00" purity="0.00000000E+00" nType="-99">
            </Node>
            <Node pos="r" depth="3" NCoef="0" IVar="-1" Cut="0.00000000000000000E+00" cType="1" res="-1.38692557999999994E-01" rms="0.0e-00" purity="0.00000000E+00" nType="-99">
            </Node>
        </Node>
    </Node>
</BinaryTree>
<BinaryTree type="DecisionTree" boostWeight="0.0" itree="6">
    <Node pos="c" depth="1" NCoef="0" IVar="0" Cut="2.30695938000000012E+02" cType="1" res="0.00000000000000000E+00" rms="0.0" purity="0.00000000E+00" nType="0">
        <Node pos="l" depth="2" NCoef="0" IVar="12" Cut="1.00000000000000000E+00" cType="1" res="0.00000000000000000E+00" rms="0.0" purity="0.00000000E+00" nType="0">
            <Node pos="l" depth="3" NCoef="0" IVar="-1" Cut="0.00000000000000000E+00" cType="1" res="-8.85352306000000006E-03" rms="0.0e-00" purity="0.00000000E+00" nType="-99">
            </Node>
            <Node pos="r" depth="3" NCoef="0" IVar="-1" Cut="0.00000000000000000E+00" cType="1" res="-1.75687537000000005E-01" rms="0.0e-00" purity="0.00000000E+00" nType="-99">
            </Node>
        </Node>
        <Node pos="r" depth="2" NCoef="0" IVar="0" Cut="3.61893341000000021E+02" cType="1" res="0.00000000000000000E+00" rms="0.0" purity="0.00000000E+00" nType="0">
            <Node pos="l" depth="3" NCoef="0" IVar="-1" Cut="0.00000000000000000E+00" cType="1" res="8.63763094000000037E-02" rms="0.0e-00" purity="0.00000000E+00" nType="-99">
            </Node>
            <Node pos="r" depth="3" NCoef="0" IVar="-1" Cut="0.00000000000000000E+00" cType="1" res="1.82536528000000003E-01" rms="0.0e-00" purity="0.00000000E+00" nType="-99">
            </Node>
        </Node>
    </Node>
</BinaryTree>
<BinaryTree type="DecisionTree" boostWeight="0.0" itree="7">
    <Node pos="c" depth="1" NCoef="0" IVar="2" Cut="1.44708632999999992E+02" cType="1" res="0.00000000000000000E+00" rms="0.0" purity="0.00000000E+00" nType="0">
        <Node pos="l" depth="2" NCoef="0" IVar="5" Cut="1.51504743000000008E+00" cType="1" res="0.00000000000000000E+00" rms="0.0" purity="0.00000000E+00" nType="0">
            <Node pos="l" depth="3" NCoef="0" IVar="-1" Cut="0.00000000000000000E+00" cType="1" res="2.54434701000000006E-02" rms="0.0e-00" purity="0.00000000E+00" nType="-99">
            </Node>
            <Node pos="r" depth="3" NCoef="0" IVar="-1" Cut="0.00000000000000000E+00" cType="1" res="-5.69728799000000022E-02" rms="0.0e-00" purity="0.00000000E+00" nType="-99">
            </Node>
        </Node>
        <Node pos="r" depth="2" NCoef="0" IVar="0" Cut="1.42211471999999986E+02" cType="1" res="0.00000000000000000E+00" rms="0.0" purity="0.00000000E+00" nType="0">
            <Node pos="l" depth="3" NCoef="0" IVar="-1" Cut="0.00000000000000000E+00" cType="1" res="6.38383700999999998E-02" rms="0.0e-00" purity="0.00000000E+00" nType="-99">
            </Node>
            <Node pos="r" depth="3" NCoef="0" IVar="-1" Cut="0.00000000000000000E+00" cType="1" res="1.79442063000000013E-01" rms="0.0e-00" purity="0.00000000E+00" nType="-99">
            </Node>
        </Node>
    </Node>
</BinaryTree>
<BinaryTree type="DecisionTree" boostWeight="0.0" itree="8">
    <Node pos="c" depth="1" NCoef="0" IVar="4" Cut="6.89934731000000023E-01" cType="1" res="0.00000000000000000E+00" rms="0.0" purity="0.00000000E+00" nType="0">
        <Node pos="l" depth="2" NCoef="0" IVar="8" Cut="1.46964633000000000E+00" cType="1" res="0.00000000000000000E+00" rms="0.0" purity="0.00000000E+00" nType="0">
            <Node pos="l" depth="3" NCoef="0" IVar="-1" Cut="0.00000000000000000E+00" cType="1" res="1.43953130000000012E-01" rms="0.0e-00" purity="0.00000000E+00" nType="-99">
            </Node>
            <Node pos="r" depth="3" NCoef="0" IVar="-1" Cut="0.00000000000000000E+00" cType="1" res="3.51800806999999979E-02" rms="0.0e-00" purity="0.00000000E+00" nType="-99">
            </Node>
        </Node>
        <Node pos="r" depth="2" NCoef="0" IVar="4" Cut="1.15712272999999999E+00" cType="1" res="0.00000000000000000E+00" rms="0.0" purity="0.00000000E+00" nType="0">
            <Node pos="l" depth="3" NCoef="0" IVar="-1" Cut="0.00000000000000000E+00" cType="1" res="3.26381740000000016E-03" rms="0.0e-00" purity="0.00000000E+00" nType="-99">
            </Node>
            <Node pos="r" depth="3" NCoef="0" IVar="-1" Cut="0.00000000000000000E+00" cType="1" res="-8.03490429999999950E-02" rms="0.0e-00" purity="0.00000000E+00" nType="-99">
            </Node>
        </Node>
    </Node>
</BinaryTree>
<BinaryTree type="DecisionTree" boostWeight="0.0" itree="9">
    <Node pos="c" depth="1" NCoef="0" IVar="4" Cut="7.17543303999999993E-01" cType="1" res="0.00000000000000000E+00" rms="0.0" purity="0.00000000E+00" nType="0">
        <Node pos="l" depth="2" NCoef="0" IVar="4" Cut="4.06818210999999985E-01" cType="1" res="0.00000000000000000E+00" rms="0.0" purity="0.00000000E+00" nType="0">
            <Node pos="l" depth="3" NCoef="0" IVar="-1" Cut="0.00000000000000000E+00" cType="1" res="1.57939970000000013E-01" rms="0.0e-00" purity="0.00000000E+00" nType="-99">
            </Node>
            <Node pos="r" depth="3" NCoef="0" IVar="-1" Cut="0.00000000000000000E+00" cType="1" res="5.10301925000000017E-02" rms="0.0e-00" purity="0.00000000E+00" nType="-99">
            </Node>
        </Node>
        <Node pos="r" depth="2" NCoef="0" IVar="4" Cut="1.48573792000000005E+00" cType="1" res="0.00000000000000000E+00" rms="0.0" purity="0.00000000E+00" nType="0">
            <Node pos="l" depth="3" NCoef="0" IVar="-1" Cut="0.00000000000000000E+00" cType="1" res="-1.20215109000000007E-02" rms="0.0e-00" purity="0.00000000E+00" nType="-99">
            </Node>
            <Node pos="r" depth="3" NCoef="0" IVar="-1" Cut="0.00000000000000000E+00" cType="1" res="-8.46678092999999937E-02" rms="0.0e-00" purity="0.00000000E+00" nType="-99">
            </Node>
        </Node>
    </Node>
</BinaryTree>
<BinaryTree type="DecisionTree" boostWeight="0.0" itree="10">
    <Node pos="c" depth="1" NCoef="0" IVar="4" Cut="1.04370736999999991E+00" cType="1" res="0.00000000000000000E+00" rms="0.0" purity="0.00000000E+00" nType="0">
        <Node pos="l" depth="2" NCoef="0" IVar="1" Cut="4.93898682000000008E+02" cType="1" res="0.00000000000000000E+00" rms="0.0" purity="0.00000000E+00" nType="0">
            <Node pos="l" depth="3" NCoef="0" IVar="-1" Cut="0.00000000000000000E+00" cType="1" res="1.20453890000000001E-02" rms="0.0e-00" purity="0.00000000E+00" nType="-99">
            </Node>
            <Node pos="r" depth="3" NCoef="0" IVar="-1" Cut="0.00000000000000000E+00" cType="1" res="1.03285908999999995E-01" rms="0.0e-00" purity="0.00000000E+00" nType="-99">
            </Node>
        </Node>
        <Node pos="r" depth="2" NCoef="0" IVar="1" Cut="2.10507049999999992E+02" cType="1" res="0.00000000000000000E+00" rms="0.0" purity="0.00000000E+00" nType="0">
            <Node pos="l" depth="3" NCoef="0" IVar="-1" Cut="0.00000000000000000E+00" cType="1" res="1.90964993000000000E-02" rms="0.0e-00" purity="0.00000000E+00" nType="-99">
            </Node>
            <Node pos="r" depth="3" NCoef="0" IVar="-1" Cut="0.00000000000000000E+00" cType="1" res="-7.26562141999999994E-02" rms="0.0e-00" purity="0.00000000E+00" nType="-99">
            </Node>
        </Node>
    </Node>
</BinaryTree>
<BinaryTree type="DecisionTree" boostWeight="0.0" itree="11">
    <Node pos="c" depth="1" NCoef="0" IVar="2" Cut="1.85039749000000000E+02" cType="1" res="0.00000000000000000E+00" rms="0.0" purity="0.00000000E+00" nType="0">
        <Node pos="l" depth="2" NCoef="0" IVar="12" Cut="1.00000000000000000E+00" cType="1" res="0.00000000000000000E+00" rms="0.0" purity="0.00000000E+00" nType="0">
            <Node pos="l" depth="3" NCoef="0" IVar="-1" Cut="0.00000000000000000E+00" cType="1" res="-5.17643709000000039E-03" rms="0.0e-00" purity="0.00000000E+00" nType="-99">
            </Node>
            <Node pos="r" depth="3" NCoef="0" IVar="-1" Cut="0.00000000000000000E+00" cType="1" res="-1.46954133999999986E-01" rms="0.0e-00" purity="0.00000000E+00" nType="-99">
            </Node>
        </Node>
        <Node pos="r" depth="2" NCoef="0" IVar="3" Cut="2.52286196000000018E+00" cType="1" res="0.00000000000000000E+00" rms="0.0" purity="0.00000000E+00" nType="0">
            <Node pos="l" depth="3" NCoef="0" IVar="-1" Cut="0.00000000000000000E+00" cType="1" res="7.31827020999999966E-02" rms="0.0e-00" purity="0.00000000E+00" nType="-99">
            </Node>
            <Node pos="r" depth="3" NCoef="0" IVar="-1" Cut="0.00000000000000000E+00" cType="1" res="1.60668999000000007E-01" rms="0.0e-00" purity="0.00000000E+00" nType="-99">
            </Node>
        </Node>
    </Node>
</BinaryTree>
<BinaryTree type="DecisionTree" boostWeight="0.0" itree="12">
    <Node pos="c" depth="1" NCoef="0" IVar="1" Cut="6.82723999000000049E+02" cType="1" res="0.00000000000000000E+00" rms="0.0" purity="0.00000000E+00" nType="0">
        <Node pos="l" depth="2" NCoef="0" IVar="12" Cut="1.00000000000000000E+00" cType="1" res="0.00000000000000000E+00" rms="0.0" purity="0.00000000E+00" nType="0">
            <Node pos="l" depth="3" NCoef="0" IVar="-1" Cut="0.00000000000000000E+00" cType="1" res="-4.48579295000000027E-03" rms="0.0e-00" purity="0.00000000E+00" nType="-99">
            </Node>
            <Node pos="r" depth="3" NCoef="0" IVar="-1" Cut="0.00000000000000000E+00" cType="1" res="-1.62864878999999990E-01" rms="0.0e-00" purity="0.00000000E+00" nType="-99">
            </Node>
        </Node>
        <Node pos="r" depth="2" NCoef="0" IVar="12" Cut="1.00000000000000000E+00" cType="1" res="0.00000000000000000E+00" rms="0.0" purity="0.00000000E+00" nType="0">
            <Node pos="l" depth="3" NCoef="0" IVar="-1" Cut="0.00000000000000000E+00" cType="1" res="5.21205700999999993E-02" rms="0.0e-00" purity="0.00000000E+00" nType="-99">
            </Node>
            <Node pos="r" depth="3" NCoef="0" IVar="-1" Cut="0.00000000000000000E+00" cType="1" res="1.32771790000000001E-01" rms="0.0e-00" purity="0.00000000E+00" nType="-99">
            </Node>
        </Node>
    </Node>
</BinaryTree>
<BinaryTree type="DecisionTree" boostWeight="0.0" itree="13">
    <Node pos="c" depth="1" NCoef="0" IVar="4" Cut="5.77872335999999986E-01" cType="1" res="0.00000000000000000E+00" rms="0.0" purity="0.00000000E+00" nType="0">
        <Node pos="l" depth="2" NCoef="0" IVar="9" Cut="1.72481719999999996E+02" cType="1" res="0.00000000000000000E+00" rms="0.0" purity="0.00000000E+00" nType="0">
            <Node pos="l" depth="3" NCoef="0" IVar="-1" Cut="0.00000000000000000E+00" cType="1" res="5.60415386999999973E-02" rms="0.0e-00" purity="0.00000000E+00" nType="-99">
            </Node>
            <Node pos="r" depth="3" NCoef="0" IVar="-1" Cut="0.00000000000000000E+00" cType="1" res="1.61529481000000003E-01" rms="0.0e-00" purity="0.00000000E+00" nType="-99">
            </Node>
        </Node>
        <Node pos="r" depth="2" NCoef="0" IVar="6" Cut="3.46095323999999982E+00" cType="1" res="0.00000000000000000E+00" rms="0.0" purity="0.00000000E+00" nType="0">
            <Node pos="l" depth="3" NCoef="0" IVar="-1" Cut="0.00000000000000000E+00" cType="1" res="1.53466732999999996E-03" rms="0.0e-00" purity="0.00000000E+00" nType="-99">
            </Node>
            <Node pos="r" depth="3" NCoef="0" IVar="-1" Cut="0.00000000000000000E+00" cType="1" res="-6.83881640000000013E-02" rms="0.0e-00" purity="0.00000000E+00" nType="-99">
            </Node>
        </Node>
    </Node>
</BinaryTree>
<BinaryTree type="DecisionTree" boostWeight="0.0" itree="14">
    <Node pos="c" depth="1" NCoef="0" IVar="8" Cut="5.76768516999999981E-01" cType="1" res="0.00000000000000000E+00" rms="0.0" purity="0.00000000E+00" nType="0">
        <Node pos="l" depth="2" NCoef="0" IVar="1" Cut="3.95775055000000009E+02" cType="1" res="0.00000000000000000E+00" rms="0.0" purity="0.00000000E+00" nType="0">
            <Node pos="l" depth="3" NCoef="0" IVar="-1" Cut="0.00000000000000000E+00" cType="1" res="-1.11046293999999997E-02" rms="0.0e-00" purity="0.00000000E+00" nType="-99">
            </Node>
            <Node pos="r" depth="3" NCoef="0" IVar="-1" Cut="0.00000000000000000E+00" cType="1" res="9.61674824000000039E-02" rms="0.0e-00" purity="0.00000000E+00" nType="-99">
            </Node>
        </Node>
        <Node pos="r" depth="2" NCoef="0" IVar="15" Cut="1.00000000000000000E+00" cType="1" res="0.00000000000000000E+00" rms="0.0" purity="0.00000000E+00" nType="0">
            <Node pos="l" depth="3" NCoef="0" IVar="-1" Cut="0.00000000000000000E+00" cType="1" res="-3.27930831999999990E-03" rms="0.0e-00" purity="0.00000000E+00" nType="-99">
            </Node>
            <Node pos="r" depth="3" NCoef="0" IVar="-1" Cut="0.00000000000000000E+00" cType="1" res="-1.22882456000000001E-01" rms="0.0e-00" purity="0.00000000E+00" nType="-99">
            </Node>
        </Node>
    </Node>
</BinaryTree>
<BinaryTree type="DecisionTree" boostWeight="0.0" itree="15">
    <Node pos="c" depth="1" NCoef="0" IVar="9" Cut="2.89506011999999998E+02" cType="1" res="0.00000000000000000E+00" rms="0.0" purity="0.00000000E+00" nType="0">
        <Node pos="l" depth="2" NCoef="0" IVar="6" Cut="3.28600644999999991E+00" cType="1" res="0.00000000000000000E+00" rms="0.0" purity="0.00000000E+00" nType="0">
            <Node pos="l" depth="3" NCoef="0" IVar="-1" Cut="0.00000000000000000E+00" cType="1" res="1.57608277999999984E-02" rms="0.0e-00" purity="0.00000000E+00" nType="-99">
            </Node>
            <Node pos="r" depth="3" NCoef="0" IVar="-1" Cut="0.00000000000000000E+00" cType="1" res="-4.00046781000000032E-02" rms="0.0e-00" purity="0.00000000E+00" nType="-99">
            </Node>
        </Node>
        <Node pos="r" depth="2" NCoef="0" IVar="9" Cut="3.80523224000000027E+02" cType="1" res="0.00000000000000000E+00" rms="0.0" purity="0.00000000E+00" nType="0">
            <Node pos="l" depth="3" NCoef="0" IVar="-1" Cut="0.00000000000000000E+00" cType="1" res="1.00567958999999998E-01" rms="0.0e-00" purity="0.00000000E+00" nType="-99">
            </Node>
            <Node pos="r" depth="3" NCoef="0" IVar="-1" Cut="0.00000000000000000E+00" cType="1" res="1.76002026000000006E-01" rms="0.0e-00" purity="0.00000000E+00" nType="-99">
            </Node>
        </Node>
    </Node>
</BinaryTree>
<BinaryTree type="DecisionTree" boostWeight="0.0" itree="16">
    <Node pos="c" depth="1" NCoef="0" IVar="2" Cut="5.72249794000000023E+01" cType="1" res="0.00000000000000000E+00" rms="0.0" purity="0.00000000E+00" nType="0">
        <Node pos="l" depth="2" NCoef="0" IVar="6" Cut="3.24302672999999997E+00" cType="1" res="0.00000000000000000E+00" rms="0.0" purity="0.00000000E+00" nType="0">
            <Node pos="l" depth="3" NCoef="0" IVar="-1" Cut="0.00000000000000000E+00" cType="1" res="-9.49147715999999926E-03" rms="0.0e-00" purity="0.00000000E+00" nType="-99">
            </Node>
            <Node pos="r" depth="3" NCoef="0" IVar="-1" Cut="0.00000000000000000E+00" cType="1" res="-7.21073299999999973E-02" rms="0.0e-00" purity="0.00000000E+00" nType="-99">
            </Node>
        </Node>
        <Node pos="r" depth="2" NCoef="0" IVar="5" Cut="5.75368285000000035E-01" cType="1" res="0.00000000000000000E+00" rms="0.0" purity="0.00000000E+00" nType="0">
            <Node pos="l" depth="3" NCoef="0" IVar="-1" Cut="0.00000000000000000E+00" cType="1" res="1.08139232000000002E-01" rms="0.0e-00" purity="0.00000000E+00" nType="-99">
            </Node>
            <Node pos="r" depth="3" NCoef="0" IVar="-1" Cut="0.00000000000000000E+00" cType="1" res="1.75592097999999995E-02" rms="0.0e-00" purity="0.00000000E+00" nType="-99">
            </Node>
        </Node>
    </Node>
</BinaryTree>
<BinaryTree type="DecisionTree" boostWeight="0.0" itree="17">
    <Node pos="c" depth="1" NCoef="0" IVar="4" Cut="1.10835170999999999E+00" cType="1" res="0.00000000000000000E+00" rms="0.0" purity="0.00000000E+00" nType="0">
        <Node pos="l" depth="2" NCoef="0" IVar="4" Cut="3.93625765999999988E-01" cType="1" res="0.00000000000000000E+00" rms="0.0" purity="0.00000000E+00" nType="0">
            <Node pos="l" depth="3" NCoef="0" IVar="-1" Cut="0.00000000000000000E+00" cType="1" res="1.16357967000000007E-01" rms="0.0e-00" purity="0.00000000E+00" nType="-99">
            </Node>
            <Node pos="r" depth="3" NCoef="0" IVar="-1" Cut="0.00000000000000000E+00" cType="1" res="1.84981692999999989E-02" rms="0.0e-00" purity="0.00000000E+00" nType="-99">
            </Node>
        </Node>
        <Node pos="r" depth="2" NCoef="0" IVar="0" Cut="7.78816527999999977E+01" cType="1" res="0.00000000000000000E+00" rms="0.0" purity="0.00000000E+00" nType="0">
            <Node pos="l" depth="3" NCoef="0" IVar="-1" Cut="0.00000000000000000E+00" cType="1" res="1.11455861000000003E-02" rms="0.0e-00" purity="0.00000000E+00" nType="-99">
            </Node>
            <Node pos="r" depth="3" NCoef="0" IVar="-1" Cut="0.00000000000000000E+00" cType="1" res="-1.02249451000000005E-01" rms="0.0e-00" purity="0.00000000E+00" nType="-99">
            </Node>
        </Node>
    </Node>
</BinaryTree>
<BinaryTree type="DecisionTree" boostWeight="0.0" itree="18">
    <Node pos="c" depth="1" NCoef="0" IVar="6" Cut="3.92783833000000016E+00" cType="1" res="0.00000000000000000E+00" rms="0.0" purity="0.00000000E+00" nType="0">
        <Node pos="l" depth="2" NCoef="0" IVar="5" Cut="3.69013994999999984E-01" cType="1" res="0.00000000000000000E+00" rms="0.0" purity="0.00000000E+00" nType="0">
            <Node pos="l" depth="3" NCoef="0" IVar="-1" Cut="0.00000000000000000E+00" cType="1" res="1.28620996999999987E-01" rms="0.0e-00" purity="0.00000000E+00" nType="-99">
            </Node>
            <Node pos="r" depth="3" NCoef="0" IVar="-1" Cut="0.00000000000000000E+00" cType="1" res="4.76754502999999965E-03" rms="0.0e-00" purity="0.00000000E+00" nType="-99">
            </Node>
        </Node>
        <Node pos="r" depth="2" NCoef="0" IVar="6" Cut="4.38579892999999998E+00" cType="1" res="0.00000000000000000E+00" rms="0.0" purity="0.00000000E+00" nType="0">
            <Node pos="l" depth="3" NCoef="0" IVar="-1" Cut="0.00000000000000000E+00" cType="1" res="-4.11750861000000010E-02" rms="0.0e-00" purity="0.00000000E+00" nType="-99">
            </Node>
            <Node pos="r" depth="3" NCoef="0" IVar="-1" Cut="0.00000000000000000E+00" cType="1" res="-8.78027603000000045E-02" rms="0.0e-00" purity="0.00000000E+00" nType="-99">
            </Node>
        </Node>
    </Node>
</BinaryTree>
<BinaryTree type="DecisionTree" boostWeight="0.0" itree="19">
    <Node pos="c" depth="1" NCoef="0" IVar="4" Cut="1.39615047000000003E+00" cType="1" res="0.00000000000000000E+00" rms="0.0" purity="0.00000000E+00" nType="0">
        <Node pos="l" depth="2" NCoef="0" IVar="4" Cut="4.33966546999999980E-01" cType="1" res="0.00000000000000000E+00" rms="0.0" purity="0.00000000E+00" nType="0">
            <Node pos="l" depth="3" NCoef="0" IVar="-1" Cut="0.00000000000000000E+00" cType="1" res="8.68133754000000035E-02" rms="0.0e-00" purity="0.00000000E+00" nType="-99">
            </Node>
            <Node pos="r" depth="3" NCoef="0" IVar="-1" Cut="0.00000000000000000E+00" cType="1" res="9.43663808999999944E-03" rms="0.0e-00" purity="0.00000000E+00" nType="-99">
            </Node>
        </Node>
        <Node pos="r" depth="2" NCoef="0" IVar="0" Cut="7.46770705999999933E+01" cType="1" res="0.00000000000000000E+00" rms="0.0" purity="0.00000000E+00" nType="0">
            <Node pos="l" depth="3" NCoef="0" IVar="-1" Cut="0.00000000000000000E+00" cType="1" res="-3.11737135000000019E-03" rms="0.0e-00" purity="0.00000000E+00" nType="-99">
            </Node>
            <Node pos="r" depth="3" NCoef="0" IVar="-1" Cut="0.00000000000000000E+00" cType="1" res="-1.00136898000000002E-01" rms="0.0e-00" purity="0.00000000E+00" nType="-99">
            </Node>
        </Node>
    </Node>
</BinaryTree>
<BinaryTree type="DecisionTree" boostWeight="0.0" itree="20">
    <Node pos="c" depth="1" NCoef="0" IVar="0" Cut="7.04028244000000001E+01" cType="1" res="0.00000000000000000E+00" rms="0.0" purity="0.00000000E+00" nType="0">
        <Node pos="l" depth="2" NCoef="0" IVar="12" Cut="1.00000000000000000E+00" cType="1" res="0.00000000000000000E+00" rms="0.0" purity="0.00000000E+00" nType="0">
            <Node pos="l" depth="3" NCoef="0" IVar="-1" Cut="0.00000000000000000E+00" cType="1" res="3.77188026999999981E-02" rms="0.0e-00" purity="0.00000000E+00" nType="-99">
            </Node>
            <Node pos="r" depth="3" NCoef="0" IVar="-1" Cut="0.00000000000000000E+00" cType="1" res="-2.07626983999999987E-01" rms="0.0e-00" purity="0.00000000E+00" nType="-99">
            </Node>
        </Node>
        <Node pos="r" depth="2" NCoef="0" IVar="0" Cut="3.21461638999999991E+02" cType="1" res="0.00000000000000000E+00" rms="0.0" purity="0.00000000E+00" nType="0">
            <Node pos="l" depth="3" NCoef="0" IVar="-1" Cut="0.00000000000000000E+00" cType="1" res="-3.50357629000000032E-02" rms="0.0e-00" purity="0.00000000E+00" nType="-99">
            </Node>
            <Node pos="r" depth="3" NCoef="0" IVar="-1" Cut="0.00000000000000000E+00" cType="1" res="1.02026142000000000E-01" rms="0.0e-00" purity="0.00000000E+00" nType="-99">
            </Node>
        </Node>
    </Node>
</BinaryTree>
<BinaryTree type="DecisionTree" boostWeight="0.0" itree="21">
    <Node pos="c" depth="1" NCoef="0" IVar="4" Cut="1.91104137999999990E+00" cType="1" res="0.00000000000000000E+00" rms="0.0" purity="0.00000000E+00" nType="0">
        <Node pos="l" depth="2" NCoef="0" IVar="4" Cut="5.08384406999999983E-01" cType="1" res="0.00000000000000000E+00" rms="0.0" purity="0.00000000E+00" nType="0">
            <Node pos="l" depth="3" NCoef="0" IVar="-1" Cut="0.00000000000000000E+00" cType="1" res="6.03332817999999993E-02" rms="0.0e-00" purity="0.00000000E+00" nType="-99">
            </Node>
            <Node pos="r" depth="3" NCoef="0" IVar="-1" Cut="0.00000000000000000E+00" cType="1" res="9.69858782000000003E-04" rms="0.0e-00" purity="0.00000000E+00" nType="-99">
            </Node>
        </Node>
        <Node pos="r" depth="2" NCoef="0" IVar="17" Cut="1.00000000000000000E+00" cType="1" res="0.00000000000000000E+00" rms="0.0" purity="0.00000000E+00" nType="0">
            <Node pos="l" depth="3" NCoef="0" IVar="-1" Cut="0.00000000000000000E+00" cType="1" res="-7.41759986000000010E-02" rms="0.0e-00" purity="0.00000000E+00" nType="-99">
            </Node>
            <Node pos="r" depth="3" NCoef="0" IVar="-1" Cut="0.00000000000000000E+00" cType="1" res="2.75153406000000003E-02" rms="0.0e-00" purity="0.00000000E+00" nType="-99">
            </Node>
        </Node>
    </Node>
</BinaryTree>
<BinaryTree type="DecisionTree" boostWeight="0.0" itree="22">
    <Node pos="c" depth="1" NCoef="0" IVar="2" Cut="2.03823806999999988E+02" cType="1" res="0.00000000000000000E+00" rms="0.0" purity="0.00000000E+00" nType="0">
        <Node pos="l" depth="2" NCoef="0" IVar="4" Cut="2.07074594000000012E+00" cType="1" res="0.00000000000000000E+00" rms="0.0" purity="0.00000000E+00" nType="0">
            <Node pos="l" depth="3" NCoef="0" IVar="-1" Cut="0.00000000000000000E+00" cType="1" res="1.92748658999999988E-04" rms="0.0e-00" purity="0.00000000E+00" nType="-99">
            </Node>
            <Node pos="r" depth="3" NCoef="0" IVar="-1" Cut="0.00000000000000000E+00" cType="1" res="-7.26678072999999980E-02" rms="0.0e-00" purity="0.00000000E+00" nType="-99">
            </Node>
        </Node>
        <Node pos="r" depth="2" NCoef="0" IVar="4" Cut="5.71209489999999986E-01" cType="1" res="0.00000000000000000E+00" rms="0.0" purity="0.00000000E+00" nType="0">
            <Node pos="l" depth="3" NCoef="0" IVar="-1" Cut="0.00000000000000000E+00" cType="1" res="1.49489506999999994E-01" rms="0.0e-00" purity="0.00000000E+00" nType="-99">
            </Node>
            <Node pos="r" depth="3" NCoef="0" IVar="-1" Cut="0.00000000000000000E+00" cType="1" res="6.44787772999999981E-02" rms="0.0e-00" purity="0.00000000E+00" nType="-99">
            </Node>
        </Node>
    </Node>
</BinaryTree>
<BinaryTree type="DecisionTree" boostWeight="0.0" itree="23">
    <Node pos="c" depth="1" NCoef="0" IVar="2" Cut="5.80487365999999980E+01" cType="1" res="0.00000000000000000E+00" rms="0.0" purity="0.00000000E+00" nType="0">
        <Node pos="l" depth="2" NCoef="0" IVar="12" Cut="1.00000000000000000E+00" cType="1" res="0.00000000000000000E+00" rms="0.0" purity="0.00000000E+00" nType="0">
            <Node pos="l" depth="3" NCoef="0" IVar="-1" Cut="0.00000000000000000E+00" cType="1" res="-1.90066025000000006E-02" rms="0.0e-00" purity="0.00000000E+00" nType="-99">
            </Node>
            <Node pos="r" depth="3" NCoef="0" IVar="-1" Cut="0.00000000000000000E+00" cType="1" res="-1.87037288999999995E-01" rms="0.0e-00" purity="0.00000000E+00" nType="-99">
            </Node>
        </Node>
        <Node pos="r" depth="2" NCoef="0" IVar="2" Cut="2.74809691999999984E+02" cType="1" res="0.00000000000000000E+00" rms="0.0" purity="0.00000000E+00" nType="0">
            <Node pos="l" depth="3" NCoef="0" IVar="-1" Cut="0.00000000000000000E+00" cType="1" res="1.61975734000000017E-02" rms="0.0e-00" purity="0.00000000E+00" nType="-99">
            </Node>
            <Node pos="r" depth="3" NCoef="0" IVar="-1" Cut="0.00000000000000000E+00" cType="1" res="1.23525038000000004E-01" rms="0.0e-00" purity="0.00000000E+00" nType="-99">
            </Node>
        </Node>
    </Node>
</BinaryTree>
<BinaryTree type="DecisionTree" boostWeight="0.0" itree="24">
    <Node pos="c" depth="1" NCoef="0" IVar="15" Cut="1.00000000000000000E+00" cType="1" res="0.00000000000000000E+00" rms="0.0" purity="0.00000000E+00" nType="0">
        <Node pos="l" depth="2" NCoef="0" IVar="4" Cut="1.70003057000000002E+00" cType="1" res="0.00000000000000000E+00" rms="0.0" purity="0.00000000E+00" nType="0">
            <Node pos="l" depth="3" NCoef="0" IVar="-1" Cut="0.00000000000000000E+00" cType="1" res="1.39849624000000002E-02" rms="0.0e-00" purity="0.00000000E+00" nType="-99">
            </Node>
            <Node pos="r" depth="3" NCoef="0" IVar="-1" Cut="0.00000000000000000E+00" cType="1" res="-3.49565744000000025E-02" rms="0.0e-00" purity="0.00000000E+00" nType="-99">
            </Node>
        </Node>
        <Node pos="r" depth="2" NCoef="0" IVar="1" Cut="6.08678711000000021E+02" cType="1" res="0.00000000000000000E+00" rms="0.0" purity="0.00000000E+00" nType="0">
            <Node pos="l" depth="3" NCoef="0" IVar="-1" Cut="0.00000000000000000E+00" cType="1" res="-1.31744116999999994E-01" rms="0.0e-00" purity="0.00000000E+00" nType="-99">
            </Node>
            <Node pos="r" depth="3" NCoef="0" IVar="-1" Cut="0.00000000000000000E+00" cType="1" res="6.16668947000000023E-02" rms="0.0e-00" purity="0.00000000E+00" nType="-99">
            </Node>
        </Node>
    </Node>
</BinaryTree>
<BinaryTree type="DecisionTree" boostWeight="0.0" itree="25">
    <Node pos="c" depth="1" NCoef="0" IVar="0" Cut="6.97046737999999948E+01" cType="1" res="0.00000000000000000E+00" rms="0.0" purity="0.00000000E+00" nType="0">
        <Node pos="l" depth="2" NCoef="0" IVar="19" Cut="1.00000000000000000E+00" cType="1" res="0.00000000000000000E+00" rms="0.0" purity="0.00000000E+00" nType="0">
            <Node pos="l" depth="3" NCoef="0" IVar="-1" Cut="0.00000000000000000E+00" cType="1" res="3.73664609999999967E-02" rms="0.0e-00" purity="0.00000000E+00" nType="-99">
            </Node>
            <Node pos="r" depth="3" NCoef="0" IVar="-1" Cut="0.00000000000000000E+00" cType="1" res="-1.63559362000000014E-01" rms="0.0e-00" purity="0.00000000E+00" nType="-99">
            </Node>
        </Node>
        <Node pos="r" depth="2" NCoef="0" IVar="2" Cut="8.62032013000000035E+01" cType="1" res="0.00000000000000000E+00" rms="0.0" purity="0.00000000E+00" nType="0">
            <Node pos="l" depth="3" NCoef="0" IVar="-1" Cut="0.00000000000000000E+00" cType="1" res="-5.45834265999999985E-02" rms="0.0e-00" purity="0.00000000E+00" nType="-99">
            </Node>
            <Node pos="r" depth="3" NCoef="0" IVar="-1" Cut="0.00000000000000000E+00" cType="1" res="3.49562242999999981E-02" rms="0.0e-00" purity="0.00000000E+00" nType="-99">
            </Node>
        </Node>
    </Node>
</BinaryTree>
<BinaryTree type="DecisionTree" boostWeight="0.0" itree="26">
    <Node pos="c" depth="1" NCoef="0" IVar="9" Cut="3.02386383000000023E+02" cType="1" res="0.00000000000000000E+00" rms="0.0" purity="0.00000000E+00" nType="0">
        <Node pos="l" depth="2" NCoef="0" IVar="17" Cut="1.00000000000000000E+00" cType="1" res="0.00000000000000000E+00" rms="0.0" purity="0.00000000E+00" nType="0">
            <Node pos="l" depth="3" NCoef="0" IVar="-1" Cut="0.00000000000000000E+00" cType="1" res="-9.31996480000000030E-03" rms="0.0e-00" purity="0.00000000E+00" nType="-99">
            </Node>
            <Node pos="r" depth="3" NCoef="0" IVar="-1" Cut="0.00000000000000000E+00" cType="1" res="5.15912733999999984E-02" rms="0.0e-00" purity="0.00000000E+00" nType="-99">
            </Node>
        </Node>
        <Node pos="r" depth="2" NCoef="0" IVar="3" Cut="2.51275848999999996E+00" cType="1" res="0.00000000000000000E+00" rms="0.0" purity="0.00000000E+00" nType="0">
            <Node pos="l" depth="3" NCoef="0" IVar="-1" Cut="0.00000000000000000E+00" cType="1" res="-2.31721904000000006E-02" rms="0.0e-00" purity="0.00000000E+00" nType="-99">
            </Node>
            <Node pos="r" depth="3" NCoef="0" IVar="-1" Cut="0.00000000000000000E+00" cType="1" res="1.39845192000000007E-01" rms="0.0e-00" purity="0.00000000E+00" nType="-99">
            </Node>
        </Node>
    </Node>
</BinaryTree>
<BinaryTree type="DecisionTree" boostWeight="0.0" itree="27">
    <Node pos="c" depth="1" NCoef="0" IVar="2" Cut="2.61661956999999973E+02" cType="1" res="0.00000000000000000E+00" rms="0.0" purity="0.00000000E+00" nType="0">
        <Node pos="l" depth="2" NCoef="0" IVar="6" Cut="3.66010951999999978E+00" cType="1" res="0.00000000000000000E+00" rms="0.0" purity="0.00000000E+00" nType="0">
            <Node pos="l" depth="3" NCoef="0" IVar="-1" Cut="0.00000000000000000E+00" cType="1" res="5.70983905000000021E-03" rms="0.0e-00" purity="0.00000000E+00" nType="-99">
            </Node>
            <Node pos="r" depth="3" NCoef="0" IVar="-1" Cut="0.00000000000000000E+00" cType="1" res="-3.67543957999999990E-02" rms="0.0e-00" purity="0.00000000E+00" nType="-99">
            </Node>
        </Node>
        <Node pos="r" depth="2" NCoef="0" IVar="3" Cut="2.50880622999999980E+00" cType="1" res="0.00000000000000000E+00" rms="0.0" purity="0.00000000E+00" nType="0">
            <Node pos="l" depth="3" NCoef="0" IVar="-1" Cut="0.00000000000000000E+00" cType="1" res="4.83523831000000001E-02" rms="0.0e-00" purity="0.00000000E+00" nType="-99">
            </Node>
            <Node pos="r" depth="3" NCoef="0" IVar="-1" Cut="0.00000000000000000E+00" cType="1" res="1.27200112000000004E-01" rms="0.0e-00" purity="0.00000000E+00" nType="-99">
            </Node>
        </Node>
    </Node>
</BinaryTree>
<BinaryTree type="DecisionTree" boostWeight="0.0" itree="28">
    <Node pos="c" depth="1" NCoef="0" IVar="0" Cut="7.70788040000000052E+01" cType="1" res="0.00000000000000000E+00" rms="0.0" purity="0.00000000E+00" nType="0">
        <Node pos="l" depth="2" NCoef="0" IVar="22" Cut="1.00000000000000000E+00" cType="1" res="0.00000000000000000E+00" rms="0.0" purity="0.00000000E+00" nType="0">
            <Node pos="l" depth="3" NCoef="0" IVar="-1" Cut="0.00000000000000000E+00" cType="1" res="1.02404412000000004E-02" rms="0.0e-00" purity="0.00000000E+00" nType="-99">
            </Node>
            <Node pos="r" depth="3" NCoef="0" IVar="-1" Cut="0.00000000000000000E+00" cType="1" res="1.06516718999999996E-01" rms="0.0e-00" purity="0.00000000E+00" nType="-99">
            </Node>
        </Node>
        <Node pos="r" depth="2" NCoef="0" IVar="2" Cut="7.46617813000000012E+01" cType="1" res="0.00000000000000000E+00" rms="0.0" purity="0.00000000E+00" nType="0">
            <Node pos="l" depth="3" NCoef="0" IVar="-1" Cut="0.00000000000000000E+00" cType="1" res="-5.73624298000000032E-02" rms="0.0e-00" purity="0.00000000E+00" nType="-99">
            </Node>
            <Node pos="r" depth="3" NCoef="0" IVar="-1" Cut="0.00000000000000000E+00" cType="1" res="2.16409190999999994E-02" rms="0.0e-00" purity="0.00000000E+00" nType="-99">
            </Node>
        </Node>
    </Node>
</BinaryTree>
<BinaryTree type="DecisionTree" boostWeight="0.0" itree="29">
    <Node pos="c" depth="1" NCoef="0" IVar="0" Cut="6.55200576999999953E+01" cType="1" res="0.00000000000000000E+00" rms="0.0" purity="0.00000000E+00" nType="0">
        <Node pos="l" depth="2" NCoef="0" IVar="15" Cut="1.00000000000000000E+00" cType="1" res="0.00000000000000000E+00" rms="0.0" purity="0.00000000E+00" nType="0">
            <Node pos="l" depth="3" NCoef="0" IVar="-1" Cut="0.00000000000000000E+00" cType="1" res="3.00583391999999991E-02" rms="0.0e-00" purity="0.00000000E+00" nType="-99">
            </Node>
            <Node pos="r" depth="3" NCoef="0" IVar="-1" Cut="0.00000000000000000E+00" cType="1" res="-1.40381171999999999E-01" rms="0.0e-00" purity="0.00000000E+00" nType="-99">
            </Node>
        </Node>
        <Node pos="r" depth="2" NCoef="0" IVar="2" Cut="6.40818481000000020E+01" cType="1" res="0.00000000000000000E+00" rms="0.0" purity="0.00000000E+00" nType="0">
            <Node pos="l" depth="3" NCoef="0" IVar="-1" Cut="0.00000000000000000E+00" cType="1" res="-4.45446259999999969E-02" rms="0.0e-00" purity="0.00000000E+00" nType="-99">
            </Node>
            <Node pos="r" depth="3" NCoef="0" IVar="-1" Cut="0.00000000000000000E+00" cType="1" res="1.16065730999999998E-02" rms="0.0e-00" purity="0.00000000E+00" nType="-99">
            </Node>
        </Node>
    </Node>
</BinaryTree>
<BinaryTree type="DecisionTree" boostWeight="0.0" itree="30">
    <Node pos="c" depth="1" NCoef="0" IVar="0" Cut="3.68692840999999987E+02" cType="1" res="0.00000000000000000E+00" rms="0.0" purity="0.00000000E+00" nType="0">
        <Node pos="l" depth="2" NCoef="0" IVar="0" Cut="7.88450011999999987E+01" cType="1" res="0.00000000000000000E+00" rms="0.0" purity="0.00000000E+00" nType="0">
            <Node pos="l" depth="3" NCoef="0" IVar="-1" Cut="0.00000000000000000E+00" cType="1" res="1.41075226000000001E-02" rms="0.0e-00" purity="0.00000000E+00" nType="-99">
            </Node>
            <Node pos="r" depth="3" NCoef="0" IVar="-1" Cut="0.00000000000000000E+00" cType="1" res="-2.33985799999999987E-02" rms="0.0e-00" purity="0.00000000E+00" nType="-99">
            </Node>
        </Node>
        <Node pos="r" depth="2" NCoef="0" IVar="2" Cut="9.65509186000000028E+01" cType="1" res="0.00000000000000000E+00" rms="0.0" purity="0.00000000E+00" nType="0">
            <Node pos="l" depth="3" NCoef="0" IVar="-1" Cut="0.00000000000000000E+00" cType="1" res="1.51150747999999994E-02" rms="0.0e-00" purity="0.00000000E+00" nType="-99">
            </Node>
            <Node pos="r" depth="3" NCoef="0" IVar="-1" Cut="0.00000000000000000E+00" cType="1" res="1.23987444000000002E-01" rms="0.0e-00" purity="0.00000000E+00" nType="-99">
            </Node>
        </Node>
    </Node>
</BinaryTree>
<BinaryTree type="DecisionTree" boostWeight="0.0" itree="31">
    <Node pos="c" depth="1" NCoef="0" IVar="19" Cut="1.00000000000000000E+00" cType="1" res="0.00000000000000000E+00" rms="0.0" purity="0.00000000E+00" nType="0">
        <Node pos="l" depth="2" NCoef="0" IVar="15" Cut="1.00000000000000000E+00" cType="1" res="0.00000000000000000E+00" rms="0.0" purity="0.00000000E+00" nType="0">
            <Node pos="l" depth="3" NCoef="0" IVar="-1" Cut="0.00000000000000000E+00" cType="1" res="9.55692957999999988E-03" rms="0.0e-00" purity="0.00000000E+00" nType="-99">
            </Node>
            <Node pos="r" depth="3" NCoef="0" IVar="-1" Cut="0.00000000000000000E+00" cType="1" res="-5.95310442000000009E-02" rms="0.0e-00" purity="0.00000000E+00" nType="-99">
            </Node>
        </Node>
        <Node pos="r" depth="2" NCoef="0" IVar="2" Cut="1.11605468999999999E+02" cType="1" res="0.00000000000000000E+00" rms="0.0" purity="0.00000000E+00" nType="0">
            <Node pos="l" depth="3" NCoef="0" IVar="-1" Cut="0.00000000000000000E+00" cType="1" res="-1.00475006000000006E-01" rms="0.0e-00" purity="0.00000000E+00" nType="-99">
            </Node>
            <Node pos="r" depth="3" NCoef="0" IVar="-1" Cut="0.00000000000000000E+00" cType="1" res="3.98069954999999975E-02" rms="0.0e-00" purity="0.00000000E+00" nType="-99">
            </Node>
        </Node>
    </Node>
</BinaryTree>
<BinaryTree type="DecisionTree" boostWeight="0.0" itree="32">
    <Node pos="c" depth="1" NCoef="0" IVar="19" Cut="1.00000000000000000E+00" cType="1" res="0.00000000000000000E+00" rms="0.0" purity="0.00000000E+00" nType="0">
        <Node pos="l" depth="2" NCoef="0" IVar="0" Cut="7.86316451999999941E+01" cType="1" res="0.00000000000000000E+00" rms="0.0" purity="0.00000000E+00" nType="0">
            <Node pos="l" depth="3" NCoef="0" IVar="-1" Cut="0.00000000000000000E+00" cType="1" res="1.89425740000000002E-02" rms="0.0e-00" purity="0.00000000E+00" nType="-99">
            </Node>
            <Node pos="r" depth="3" NCoef="0" IVar="-1" Cut="0.00000000000000000E+00" cType="1" res="-1.38569204000000001E-02" rms="0.0e-00" purity="0.00000000E+00" nType="-99">
            </Node>
        </Node>
        <Node pos="r" depth="2" NCoef="0" IVar="0" Cut="1.03493576000000004E+02" cType="1" res="0.00000000000000000E+00" rms="0.0" purity="0.00000000E+00" nType="0">
            <Node pos="l" depth="3" NCoef="0" IVar="-1" Cut="0.00000000000000000E+00" cType="1" res="-1.28527626000000006E-01" rms="0.0e-00" purity="0.00000000E+00" nType="-99">
            </Node>
            <Node pos="r" depth="3" NCoef="0" IVar="-1" Cut="0.00000000000000000E+00" cType="1" res="4.78215068999999979E-02" rms="0.0e-00" purity="0.00000000E+00" nType="-99">
            </Node>
        </Node>
    </Node>
</BinaryTree>
<BinaryTree type="DecisionTree" boostWeight="0.0" itree="33">
    <Node pos="c" depth="1" NCoef="0" IVar="2" Cut="2.53165298000000007E+02" cType="1" res="0.00000000000000000E+00" rms="0.0" purity="0.00000000E+00" nType="0">
        <Node pos="l" depth="2" NCoef="0" IVar="15" Cut="1.00000000000000000E+00" cType="1" res="0.00000000000000000E+00" rms="0.0" purity="0.00000000E+00" nType="0">
            <Node pos="l" depth="3" NCoef="0" IVar="-1" Cut="0.00000000000000000E+00" cType="1" res="1.51880969999999989E-03" rms="0.0e-00" purity="0.00000000E+00" nType="-99">
            </Node>
            <Node pos="r" depth="3" NCoef="0" IVar="-1" Cut="0.00000000000000000E+00" cType="1" res="-6.39534816000000006E-02" rms="0.0e-00" purity="0.00000000E+00" nType="-99">
            </Node>
        </Node>
        <Node pos="r" depth="2" NCoef="0" IVar="3" Cut="2.54203773000000011E+00" cType="1" res="0.00000000000000000E+00" rms="0.0" purity="0.00000000E+00" nType="0">
            <Node pos="l" depth="3" NCoef="0" IVar="-1" Cut="0.00000000000000000E+00" cType="1" res="3.36371696999999970E-02" rms="0.0e-00" purity="0.00000000E+00" nType="-99">
            </Node>
            <Node pos="r" depth="3" NCoef="0" IVar="-1" Cut="0.00000000000000000E+00" cType="1" res="1.07800186000000006E-01" rms="0.0e-00" purity="0.00000000E+00" nType="-99">
            </Node>
        </Node>
    </Node>
</BinaryTree>
<BinaryTree type="DecisionTree" boostWeight="0.0" itree="34">
    <Node pos="c" depth="1" NCoef="0" IVar="9" Cut="2.88560852000000011E+02" cType="1" res="0.00000000000000000E+00" rms="0.0" purity="0.00000000E+00" nType="0">
        <Node pos="l" depth="2" NCoef="0" IVar="9" Cut="4.06169738999999979E+01" cType="1" res="0.00000000000000000E+00" rms="0.0" purity="0.00000000E+00" nType="0">
            <Node pos="l" depth="3" NCoef="0" IVar="-1" Cut="0.00000000000000000E+00" cType="1" res="2.52848583999999987E-02" rms="0.0e-00" purity="0.00000000E+00" nType="-99">
            </Node>
            <Node pos="r" depth="3" NCoef="0" IVar="-1" Cut="0.00000000000000000E+00" cType="1" res="-1.20780617000000000E-02" rms="0.0e-00" purity="0.00000000E+00" nType="-99">
            </Node>
        </Node>
        <Node pos="r" depth="2" NCoef="0" IVar="9" Cut="4.96277557000000002E+02" cType="1" res="0.00000000000000000E+00" rms="0.0" purity="0.00000000E+00" nType="0">
            <Node pos="l" depth="3" NCoef="0" IVar="-1" Cut="0.00000000000000000E+00" cType="1" res="5.78160918999999981E-02" rms="0.0e-00" purity="0.00000000E+00" nType="-99">
            </Node>
            <Node pos="r" depth="3" NCoef="0" IVar="-1" Cut="0.00000000000000000E+00" cType="1" res="1.50391504000000009E-01" rms="0.0e-00" purity="0.00000000E+00" nType="-99">
            </Node>
        </Node>
    </Node>
</BinaryTree>
<BinaryTree type="DecisionTree" boostWeight="0.0" itree="35">
    <Node pos="c" depth="1" NCoef="0" IVar="5" Cut="2.33380865999999987E+00" cType="1" res="0.00000000000000000E+00" rms="0.0" purity="0.00000000E+00" nType="0">
        <Node pos="l" depth="2" NCoef="0" IVar="9" Cut="2.00381286999999986E+02" cType="1" res="0.00000000000000000E+00" rms="0.0" purity="0.00000000E+00" nType="0">
            <Node pos="l" depth="3" NCoef="0" IVar="-1" Cut="0.00000000000000000E+00" cType="1" res="4.91531565999999993E-03" rms="0.0e-00" purity="0.00000000E+00" nType="-99">
            </Node>
            <Node pos="r" depth="3" NCoef="0" IVar="-1" Cut="0.00000000000000000E+00" cType="1" res="5.65229692000000020E-02" rms="0.0e-00" purity="0.00000000E+00" nType="-99">
            </Node>
        </Node>
        <Node pos="r" depth="2" NCoef="0" IVar="9" Cut="5.38009910999999974E+01" cType="1" res="0.00000000000000000E+00" rms="0.0" purity="0.00000000E+00" nType="0">
            <Node pos="l" depth="3" NCoef="0" IVar="-1" Cut="0.00000000000000000E+00" cType="1" res="1.62077005999999996E-02" rms="0.0e-00" purity="0.00000000E+00" nType="-99">
            </Node>
            <Node pos="r" depth="3" NCoef="0" IVar="-1" Cut="0.00000000000000000E+00" cType="1" res="-4.75081167999999998E-02" rms="0.0e-00" purity="0.00000000E+00" nType="-99">
            </Node>
        </Node>
    </Node>
</BinaryTree>
<BinaryTree type="DecisionTree" boostWeight="0.0" itree="36">
    <Node pos="c" depth="1" NCoef="0" IVar="4" Cut="8.49674880999999993E-01" cType="1" res="0.00000000000000000E+00" rms="0.0" purity="0.00000000E+00" nType="0">
        <Node pos="l" depth="2" NCoef="0" IVar="2" Cut="4.28200951000000032E+01" cType="1" res="0.00000000000000000E+00" rms="0.0" purity="0.00000000E+00" nType="0">
            <Node pos="l" depth="3" NCoef="0" IVar="-1" Cut="0.00000000000000000E+00" cType="1" res="-1.57632958000000004E-02" rms="0.0e-00" purity="0.00000000E+00" nType="-99">
            </Node>
            <Node pos="r" depth="3" NCoef="0" IVar="-1" Cut="0.00000000000000000E+00" cType="1" res="3.21285202999999978E-02" rms="0.0e-00" purity="0.00000000E+00" nType="-99">
            </Node>
        </Node>
        <Node pos="r" depth="2" NCoef="0" IVar="19" Cut="1.00000000000000000E+00" cType="1" res="0.00000000000000000E+00" rms="0.0" purity="0.00000000E+00" nType="0">
            <Node pos="l" depth="3" NCoef="0" IVar="-1" Cut="0.00000000000000000E+00" cType="1" res="-1.01272427000000005E-02" rms="0.0e-00" purity="0.00000000E+00" nType="-99">
            </Node>
            <Node pos="r" depth="3" NCoef="0" IVar="-1" Cut="0.00000000000000000E+00" cType="1" res="-9.40461159000000047E-02" rms="0.0e-00" purity="0.00000000E+00" nType="-99">
            </Node>
        </Node>
    </Node>
</BinaryTree>
<BinaryTree type="DecisionTree" boostWeight="0.0" itree="37">
    <Node pos="c" depth="1" NCoef="0" IVar="9" Cut="4.08780852999999979E+02" cType="1" res="0.00000000000000000E+00" rms="0.0" purity="0.00000000E+00" nType="0">
        <Node pos="l" depth="2" NCoef="0" IVar="0" Cut="8.21319275000000033E+01" cType="1" res="0.00000000000000000E+00" rms="0.0" purity="0.00000000E+00" nType="0">
            <Node pos="l" depth="3" NCoef="0" IVar="-1" Cut="0.00000000000000000E+00" cType="1" res="1.06896516000000007E-02" rms="0.0e-00" purity="0.00000000E+00" nType="-99">
            </Node>
            <Node pos="r" depth="3" NCoef="0" IVar="-1" Cut="0.00000000000000000E+00" cType="1" res="-1.67811866999999990E-02" rms="0.0e-00" purity="0.00000000E+00" nType="-99">
            </Node>
        </Node>
        <Node pos="r" depth="2" NCoef="0" IVar="1" Cut="5.77856688999999960E+02" cType="1" res="0.00000000000000000E+00" rms="0.0" purity="0.00000000E+00" nType="0">
            <Node pos="l" depth="3" NCoef="0" IVar="-1" Cut="0.00000000000000000E+00" cType="1" res="4.30205724999999997E-02" rms="0.0e-00" purity="0.00000000E+00" nType="-99">
            </Node>
            <Node pos="r" depth="3" NCoef="0" IVar="-1" Cut="0.00000000000000000E+00" cType="1" res="1.34645208999999988E-01" rms="0.0e-00" purity="0.00000000E+00" nType="-99">
            </Node>
        </Node>
    </Node>
</BinaryTree>
<BinaryTree type="DecisionTree" boostWeight="0.0" itree="38">
    <Node pos="c" depth="1" NCoef="0" IVar="6" Cut="4.13423156999999986E+00" cType="1" res="0.00000000000000000E+00" rms="0.0" purity="0.00000000E+00" nType="0">
        <Node pos="l" depth="2" NCoef="0" IVar="20" Cut="1.00000000000000000E+00" cType="1" res="0.00000000000000000E+00" rms="0.0" purity="0.00000000E+00" nType="0">
            <Node pos="l" depth="3" NCoef="0" IVar="-1" Cut="0.00000000000000000E+00" cType="1" res="-3.52969509999999983E-04" rms="0.0e-00" purity="0.00000000E+00" nType="-99">
            </Node>
            <Node pos="r" depth="3" NCoef="0" IVar="-1" Cut="0.00000000000000000E+00" cType="1" res="4.61346470000000008E-02" rms="0.0e-00" purity="0.00000000E+00" nType="-99">
            </Node>
        </Node>
        <Node pos="r" depth="2" NCoef="0" IVar="1" Cut="4.85427612000000011E+02" cType="1" res="0.00000000000000000E+00" rms="0.0" purity="0.00000000E+00" nType="0">
            <Node pos="l" depth="3" NCoef="0" IVar="-1" Cut="0.00000000000000000E+00" cType="1" res="-8.53255987000000049E-02" rms="0.0e-00" purity="0.00000000E+00" nType="-99">
            </Node>
            <Node pos="r" depth="3" NCoef="0" IVar="-1" Cut="0.00000000000000000E+00" cType="1" res="-1.95526498999999999E-02" rms="0.0e-00" purity="0.00000000E+00" nType="-99">
            </Node>
        </Node>
    </Node>
</BinaryTree>
<BinaryTree type="DecisionTree" boostWeight="0.0" itree="39">
    <Node pos="c" depth="1" NCoef="0" IVar="12" Cut="1.00000000000000000E+00" cType="1" res="0.00000000000000000E+00" rms="0.0" purity="0.00000000E+00" nType="0">
        <Node pos="l" depth="2" NCoef="0" IVar="18" Cut="1.00000000000000000E+00" cType="1" res="0.00000000000000000E+00" rms="0.0" purity="0.00000000E+00" nType="0">
            <Node pos="l" depth="3" NCoef="0" IVar="-1" Cut="0.00000000000000000E+00" cType="1" res="7.98612087999999928E-03" rms="0.0e-00" purity="0.00000000E+00" nType="-99">
            </Node>
            <Node pos="r" depth="3" NCoef="0" IVar="-1" Cut="0.00000000000000000E+00" cType="1" res="-3.54183912000000031E-02" rms="0.0e-00" purity="0.00000000E+00" nType="-99">
            </Node>
        </Node>
        <Node pos="r" depth="2" NCoef="0" IVar="1" Cut="5.35235168000000044E+02" cType="1" res="0.00000000000000000E+00" rms="0.0" purity="0.00000000E+00" nType="0">
            <Node pos="l" depth="3" NCoef="0" IVar="-1" Cut="0.00000000000000000E+00" cType="1" res="-1.62927939999999993E-01" rms="0.0e-00" purity="0.00000000E+00" nType="-99">
            </Node>
            <Node pos="r" depth="3" NCoef="0" IVar="-1" Cut="0.00000000000000000E+00" cType="1" res="4.66675609000000019E-02" rms="0.0e-00" purity="0.00000000E+00" nType="-99">
            </Node>
        </Node>
    </Node>
</BinaryTree>
<BinaryTree type="DecisionTree" boostWeight="0.0" itree="40">
    <Node pos="c" depth="1" NCoef="0" IVar="12" Cut="1.00000000000000000E+00" cType="1" res="0.00000000000000000E+00" rms="0.0" purity="0.00000000E+00" nType="0">
        <Node pos="l" depth="2" NCoef="0" IVar="0" Cut="7.60020293999999978E+01" cType="1" res="0.00000000000000000E+00" rms="0.0" purity="0.00000000E+00" nType="0">
            <Node pos="l" depth="3" NCoef="0" IVar="-1" Cut="0.00000000000000000E+00" cType="1" res="1.67183820000000004E-02" rms="0.0e-00" purity="0.00000000E+00" nType="-99">
            </Node>
            <Node pos="r" depth="3" NCoef="0" IVar="-1" Cut="0.00000000000000000E+00" cType="1" res="-1.00900419000000009E-02" rms="0.0e-00" purity="0.00000000E+00" nType="-99">
            </Node>
        </Node>
        <Node pos="r" depth="2" NCoef="0" IVar="0" Cut="1.39136519999999990E+02" cType="1" res="0.00000000000000000E+00" rms="0.0" purity="0.00000000E+00" nType="0">
            <Node pos="l" depth="3" NCoef="0" IVar="-1" Cut="0.00000000000000000E+00" cType="1" res="-1.60807072999999995E-01" rms="0.0e-00" purity="0.00000000E+00" nType="-99">
            </Node>
            <Node pos="r" depth="3" NCoef="0" IVar="-1" Cut="0.00000000000000000E+00" cType="1" res="8.02627801999999946E-02" rms="0.0e-00" purity="0.00000000E+00" nType="-99">
            </Node>
        </Node>
    </Node>
</BinaryTree>
<BinaryTree type="DecisionTree" boostWeight="0.0" itree="41">
    <Node pos="c" depth="1" NCoef="0" IVar="0" Cut="1.54798507999999995E+01" cType="1" res="0.00000000000000000E+00" rms="0.0" purity="0.00000000E+00" nType="0">
        <Node pos="l" depth="2" NCoef="0" IVar="5" Cut="2.47734474999999987E+00" cType="1" res="0.00000000000000000E+00" rms="0.0" purity="0.00000000E+00" nType="0">
            <Node pos="l" depth="3" NCoef="0" IVar="-1" Cut="0.00000000000000000E+00" cType="1" res="-5.18266074000000021E-02" rms="0.0e-00" purity="0.00000000E+00" nType="-99">
            </Node>
            <Node pos="r" depth="3" NCoef="0" IVar="-1" Cut="0.00000000000000000E+00" cType="1" res="-1.34019136000000011E-01" rms="0.0e-00" purity="0.00000000E+00" nType="-99">
            </Node>
        </Node>
        <Node pos="r" depth="2" NCoef="0" IVar="0" Cut="5.17969970999999987E+02" cType="1" res="0.00000000000000000E+00" rms="0.0" purity="0.00000000E+00" nType="0">
            <Node pos="l" depth="3" NCoef="0" IVar="-1" Cut="0.00000000000000000E+00" cType="1" res="1.09703586000000006E-04" rms="0.0e-00" purity="0.00000000E+00" nType="-99">
            </Node>
            <Node pos="r" depth="3" NCoef="0" IVar="-1" Cut="0.00000000000000000E+00" cType="1" res="1.09043106000000001E-01" rms="0.0e-00" purity="0.00000000E+00" nType="-99">
            </Node>
        </Node>
    </Node>
</BinaryTree>
<BinaryTree type="DecisionTree" boostWeight="0.0" itree="42">
    <Node pos="c" depth="1" NCoef="0" IVar="4" Cut="2.15224599999999988E+00" cType="1" res="0.00000000000000000E+00" rms="0.0" purity="0.00000000E+00" nType="0">
        <Node pos="l" depth="2" NCoef="0" IVar="4" Cut="7.71783291999999954E-01" cType="1" res="0.00000000000000000E+00" rms="0.0" purity="0.00000000E+00" nType="0">
            <Node pos="l" depth="3" NCoef="0" IVar="-1" Cut="0.00000000000000000E+00" cType="1" res="2.10381224999999991E-02" rms="0.0e-00" purity="0.00000000E+00" nType="-99">
            </Node>
            <Node pos="r" depth="3" NCoef="0" IVar="-1" Cut="0.00000000000000000E+00" cType="1" res="-5.07988873999999993E-03" rms="0.0e-00" purity="0.00000000E+00" nType="-99">
            </Node>
        </Node>
        <Node pos="r" depth="2" NCoef="0" IVar="2" Cut="8.53351897999999949E+01" cType="1" res="0.00000000000000000E+00" rms="0.0" purity="0.00000000E+00" nType="0">
            <Node pos="l" depth="3" NCoef="0" IVar="-1" Cut="0.00000000000000000E+00" cType="1" res="-7.92396516000000023E-02" rms="0.0e-00" purity="0.00000000E+00" nType="-99">
            </Node>
            <Node pos="r" depth="3" NCoef="0" IVar="-1" Cut="0.00000000000000000E+00" cType="1" res="1.31656927999999999E-02" rms="0.0e-00" purity="0.00000000E+00" nType="-99">
            </Node>
        </Node>
    </Node>
</BinaryTree>
<BinaryTree type="DecisionTree" boostWeight="0.0" itree="43">
    <Node pos="c" depth="1" NCoef="0" IVar="9" Cut="3.27454261999999972E+01" cType="1" res="0.00000000000000000E+00" rms="0.0" purity="0.00000000E+00" nType="0">
        <Node pos="l" depth="2" NCoef="0" IVar="1" Cut="3.61650420999999994E+02" cType="1" res="0.00000000000000000E+00" rms="0.0" purity="0.00000000E+00" nType="0">
            <Node pos="l" depth="3" NCoef="0" IVar="-1" Cut="0.00000000000000000E+00" cType="1" res="4.96119539999999998E-03" rms="0.0e-00" purity="0.00000000E+00" nType="-99">
            </Node>
            <Node pos="r" depth="3" NCoef="0" IVar="-1" Cut="0.00000000000000000E+00" cType="1" res="4.69310469999999966E-02" rms="0.0e-00" purity="0.00000000E+00" nType="-99">
            </Node>
        </Node>
        <Node pos="r" depth="2" NCoef="0" IVar="9" Cut="4.08281219000000021E+02" cType="1" res="0.00000000000000000E+00" rms="0.0" purity="0.00000000E+00" nType="0">
            <Node pos="l" depth="3" NCoef="0" IVar="-1" Cut="0.00000000000000000E+00" cType="1" res="-7.92240909999999965E-03" rms="0.0e-00" purity="0.00000000E+00" nType="-99">
            </Node>
            <Node pos="r" depth="3" NCoef="0" IVar="-1" Cut="0.00000000000000000E+00" cType="1" res="1.00823440000000000E-01" rms="0.0e-00" purity="0.00000000E+00" nType="-99">
            </Node>
        </Node>
    </Node>
</BinaryTree>
<BinaryTree type="DecisionTree" boostWeight="0.0" itree="44">
    <Node pos="c" depth="1" NCoef="0" IVar="6" Cut="3.49837399000000016E+00" cType="1" res="0.00000000000000000E+00" rms="0.0" purity="0.00000000E+00" nType="0">
        <Node pos="l" depth="2" NCoef="0" IVar="5" Cut="2.46440958999999982E+00" cType="1" res="0.00000000000000000E+00" rms="0.0" purity="0.00000000E+00" nType="0">
            <Node pos="l" depth="3" NCoef="0" IVar="-1" Cut="0.00000000000000000E+00" cType="1" res="1.36967012999999992E-02" rms="0.0e-00" purity="0.00000000E+00" nType="-99">
            </Node>
            <Node pos="r" depth="3" NCoef="0" IVar="-1" Cut="0.00000000000000000E+00" cType="1" res="-2.20079161000000002E-02" rms="0.0e-00" purity="0.00000000E+00" nType="-99">
            </Node>
        </Node>
        <Node pos="r" depth="2" NCoef="0" IVar="9" Cut="4.27039298999999986E+01" cType="1" res="0.00000000000000000E+00" rms="0.0" purity="0.00000000E+00" nType="0">
            <Node pos="l" depth="3" NCoef="0" IVar="-1" Cut="0.00000000000000000E+00" cType="1" res="1.07135344000000004E-02" rms="0.0e-00" purity="0.00000000E+00" nType="-99">
            </Node>
            <Node pos="r" depth="3" NCoef="0" IVar="-1" Cut="0.00000000000000000E+00" cType="1" res="-2.98418589000000005E-02" rms="0.0e-00" purity="0.00000000E+00" nType="-99">
            </Node>
        </Node>
    </Node>
</BinaryTree>
<BinaryTree type="DecisionTree" boostWeight="0.0" itree="45">
    <Node pos="c" depth="1" NCoef="0" IVar="4" Cut="1.09882593000000006E+00" cType="1" res="0.00000000000000000E+00" rms="0.0" purity="0.00000000E+00" nType="0">
        <Node pos="l" depth="2" NCoef="0" IVar="8" Cut="3.24519609999999981E+00" cType="1" res="0.00000000000000000E+00" rms="0.0" purity="0.00000000E+00" nType="0">
            <Node pos="l" depth="3" NCoef="0" IVar="-1" Cut="0.00000000000000000E+00" cType="1" res="1.72449593000000012E-02" rms="0.0e-00" purity="0.00000000E+00" nType="-99">
            </Node>
            <Node pos="r" depth="3" NCoef="0" IVar="-1" Cut="0.00000000000000000E+00" cType="1" res="-7.05199613999999975E-02" rms="0.0e-00" purity="0.00000000E+00" nType="-99">
            </Node>
        </Node>
        <Node pos="r" depth="2" NCoef="0" IVar="6" Cut="2.68846846000000017E+00" cType="1" res="0.00000000000000000E+00" rms="0.0" purity="0.00000000E+00" nType="0">
            <Node pos="l" depth="3" NCoef="0" IVar="-1" Cut="0.00000000000000000E+00" cType="1" res="4.97825927999999973E-02" rms="0.0e-00" purity="0.00000000E+00" nType="-99">
            </Node>
            <Node pos="r" depth="3" NCoef="0" IVar="-1" Cut="0.00000000000000000E+00" cType="1" res="-2.38179433999999995E-02" rms="0.0e-00" purity="0.00000000E+00" nType="-99">
            </Node>
        </Node>
    </Node>
</BinaryTree>
<BinaryTree type="DecisionTree" boostWeight="0.0" itree="46">
    <Node pos="c" depth="1" NCoef="0" IVar="15" Cut="1.00000000000000000E+00" cType="1" res="0.00000000000000000E+00" rms="0.0" purity="0.00000000E+00" nType="0">
        <Node pos="l" depth="2" NCoef="0" IVar="0" Cut="8.20365828999999991E+01" cType="1" res="0.00000000000000000E+00" rms="0.0" purity="0.00000000E+00" nType="0">
            <Node pos="l" depth="3" NCoef="0" IVar="-1" Cut="0.00000000000000000E+00" cType="1" res="1.47365741000000001E-02" rms="0.0e-00" purity="0.00000000E+00" nType="-99">
            </Node>
            <Node pos="r" depth="3" NCoef="0" IVar="-1" Cut="0.00000000000000000E+00" cType="1" res="-1.25438031000000005E-02" rms="0.0e-00" purity="0.00000000E+00" nType="-99">
            </Node>
        </Node>
        <Node pos="r" depth="2" NCoef="0" IVar="0" Cut="1.37998168999999990E+02" cType="1" res="0.00000000000000000E+00" rms="0.0" purity="0.00000000E+00" nType="0">
            <Node pos="l" depth="3" NCoef="0" IVar="-1" Cut="0.00000000000000000E+00" cType="1" res="-1.06623061000000005E-01" rms="0.0e-00" purity="0.00000000E+00" nType="-99">
            </Node>
            <Node pos="r" depth="3" NCoef="0" IVar="-1" Cut="0.00000000000000000E+00" cType="1" res="8.23443308000000040E-02" rms="0.0e-00" purity="0.00000000E+00" nType="-99">
            </Node>
        </Node>
    </Node>
</BinaryTree>
<BinaryTree type="DecisionTree" boostWeight="0.0" itree="47">
    <Node pos="c" depth="1" NCoef="0" IVar="22" Cut="1.00000000000000000E+00" cType="1" res="0.00000000000000000E+00" rms="0.0" purity="0.00000000E+00" nType="0">
        <Node pos="l" depth="2" NCoef="0" IVar="9" Cut="1.96837463000000014E+02" cType="1" res="0.00000000000000000E+00" rms="0.0" purity="0.00000000E+00" nType="0">
            <Node pos="l" depth="3" NCoef="0" IVar="-1" Cut="0.00000000000000000E+00" cType="1" res="-6.34306017000000038E-03" rms="0.0e-00" purity="0.00000000E+00" nType="-99">
            </Node>
            <Node pos="r" depth="3" NCoef="0" IVar="-1" Cut="0.00000000000000000E+00" cType="1" res="4.17273119000000012E-02" rms="0.0e-00" purity="0.00000000E+00" nType="-99">
            </Node>
        </Node>
        <Node pos="r" depth="2" NCoef="0" IVar="9" Cut="1.53936858999999998E+02" cType="1" res="0.00000000000000000E+00" rms="0.0" purity="0.00000000E+00" nType="0">
            <Node pos="l" depth="3" NCoef="0" IVar="-1" Cut="0.00000000000000000E+00" cType="1" res="4.63098659999999981E-02" rms="0.0e-00" purity="0.00000000E+00" nType="-99">
            </Node>
            <Node pos="r" depth="3" NCoef="0" IVar="-1" Cut="0.00000000000000000E+00" cType="1" res="-1.02972894999999995E-01" rms="0.0e-00" purity="0.00000000E+00" nType="-99">
            </Node>
        </Node>
    </Node>
</BinaryTree>
<BinaryTree type="DecisionTree" boostWeight="0.0" itree="48">
    <Node pos="c" depth="1" NCoef="0" IVar="12" Cut="1.00000000000000000E+00" cType="1" res="0.00000000000000000E+00" rms="0.0" purity="0.00000000E+00" nType="0">
        <Node pos="l" depth="2" NCoef="0" IVar="0" Cut="6.50023117000000070E+01" cType="1" res="0.00000000000000000E+00" rms="0.0" purity="0.00000000E+00" nType="0">
            <Node pos="l" depth="3" NCoef="0" IVar="-1" Cut="0.00000000000000000E+00" cType="1" res="1.67320910999999989E-02" rms="0.0e-00" purity="0.00000000E+00" nType="-99">
            </Node>
            <Node pos="r" depth="3" NCoef="0" IVar="-1" Cut="0.00000000000000000E+00" cType="1" res="-6.89841806999999963E-03" rms="0.0e-00" purity="0.00000000E+00" nType="-99">
            </Node>
        </Node>
        <Node pos="r" depth="2" NCoef="0" IVar="0" Cut="1.06381423999999996E+02" cType="1" res="0.00000000000000000E+00" rms="0.0" purity="0.00000000E+00" nType="0">
            <Node pos="l" depth="3" NCoef="0" IVar="-1" Cut="0.00000000000000000E+00" cType="1" res="-1.62660642999999994E-01" rms="0.0e-00" purity="0.00000000E+00" nType="-99">
            </Node>
            <Node pos="r" depth="3" NCoef="0" IVar="-1" Cut="0.00000000000000000E+00" cType="1" res="4.09720764000000015E-02" rms="0.0e-00" purity="0.00000000E+00" nType="-99">
            </Node>
        </Node>
    </Node>
</BinaryTree>
<BinaryTree type="DecisionTree" boostWeight="0.0" itree="49">
    <Node pos="c" depth="1" NCoef="0" IVar="19" Cut="1.00000000000000000E+00" cType="1" res="0.00000000000000000E+00" rms="0.0" purity="0.00000000E+00" nType="0">
        <Node pos="l" depth="2" NCoef="0" IVar="3" Cut="3.52185940999999980E+00" cType="1" res="0.00000000000000000E+00" rms="0.0" purity="0.00000000E+00" nType="0">
            <Node pos="l" depth="3" NCoef="0" IVar="-1" Cut="0.00000000000000000E+00" cType="1" res="5.55593892999999960E-03" rms="0.0e-00" purity="0.00000000E+00" nType="-99">
            </Node>
            <Node pos="r" depth="3" NCoef="0" IVar="-1" Cut="0.00000000000000000E+00" cType="1" res="-5.51292001999999989E-02" rms="0.0e-00" purity="0.00000000E+00" nType="-99">
            </Node>
        </Node>
        <Node pos="r" depth="2" NCoef="0" IVar="1" Cut="3.69129944000000023E+02" cType="1" res="0.00000000000000000E+00" rms="0.0" purity="0.00000000E+00" nType="0">
            <Node pos="l" depth="3" NCoef="0" IVar="-1" Cut="0.00000000000000000E+00" cType="1" res="-1.06515369999999998E-01" rms="0.0e-00" purity="0.00000000E+00" nType="-99">
            </Node>
            <Node pos="r" depth="3" NCoef="0" IVar="-1" Cut="0.00000000000000000E+00" cType="1" res="1.24140745000000004E-02" rms="0.0e-00" purity="0.00000000E+00" nType="-99">
            </Node>
        </Node>
    </Node>
</BinaryTree>
<BinaryTree type="DecisionTree" boostWeight="0.0" itree="50">
    <Node pos="c" depth="1" NCoef="0" IVar="12" Cut="1.00000000000000000E+00" cType="1" res="0.00000000000000000E+00" rms="0.0" purity="0.00000000E+00" nType="0">
        <Node pos="l" depth="2" NCoef="0" IVar="3" Cut="3.32904840000000002E+00" cType="1" res="0.00000000000000000E+00" rms="0.0" purity="0.00000000E+00" nType="0">
            <Node pos="l" depth="3" NCoef="0" IVar="-1" Cut="0.00000000000000000E+00" cType="1" res="6.51308708000000042E-03" rms="0.0e-00" purity="0.00000000E+00" nType="-99">
            </Node>
            <Node pos="r" depth="3" NCoef="0" IVar="-1" Cut="0.00000000000000000E+00" cType="1" res="-3.91613804000000010E-02" rms="0.0e-00" purity="0.00000000E+00" nType="-99">
            </Node>
        </Node>
        <Node pos="r" depth="2" NCoef="0" IVar="3" Cut="2.68148351000000007E+00" cType="1" res="0.00000000000000000E+00" rms="0.0" purity="0.00000000E+00" nType="0">
            <Node pos="l" depth="3" NCoef="0" IVar="-1" Cut="0.00000000000000000E+00" cType="1" res="-1.44732161999999998E-01" rms="0.0e-00" purity="0.00000000E+00" nType="-99">
            </Node>
            <Node pos="r" depth="3" NCoef="0" IVar="-1" Cut="0.00000000000000000E+00" cType="1" res="2.11729816999999994E-02" rms="0.0e-00" purity="0.00000000E+00" nType="-99">
            </Node>
        </Node>
    </Node>
</BinaryTree>
<BinaryTree type="DecisionTree" boostWeight="0.0" itree="51">
    <Node pos="c" depth="1" NCoef="0" IVar="0" Cut="1.54798507999999995E+01" cType="1" res="0.00000000000000000E+00" rms="0.0" purity="0.00000000E+00" nType="0">
        <Node pos="l" depth="2" NCoef="0" IVar="7" Cut="2.61390805000000004E+00" cType="1" res="0.00000000000000000E+00" rms="0.0" purity="0.00000000E+00" nType="0">
            <Node pos="l" depth="3" NCoef="0" IVar="-1" Cut="0.00000000000000000E+00" cType="1" res="-3.50199080999999968E-02" rms="0.0e-00" purity="0.00000000E+00" nType="-99">
            </Node>
            <Node pos="r" depth="3" NCoef="0" IVar="-1" Cut="0.00000000000000000E+00" cType="1" res="-1.09445951999999999E-01" rms="0.0e-00" purity="0.00000000E+00" nType="-99">
            </Node>
        </Node>
        <Node pos="r" depth="2" NCoef="0" IVar="0" Cut="5.31053283999999962E+02" cType="1" res="0.00000000000000000E+00" rms="0.0" purity="0.00000000E+00" nType="0">
            <Node pos="l" depth="3" NCoef="0" IVar="-1" Cut="0.00000000000000000E+00" cType="1" res="-5.51370504000000007E-05" rms="0.0e-00" purity="0.00000000E+00" nType="-99">
            </Node>
            <Node pos="r" depth="3" NCoef="0" IVar="-1" Cut="0.00000000000000000E+00" cType="1" res="1.00136712000000003E-01" rms="0.0e-00" purity="0.00000000E+00" nType="-99">
            </Node>
        </Node>
    </Node>
</BinaryTree>
<BinaryTree type="DecisionTree" boostWeight="0.0" itree="52">
    <Node pos="c" depth="1" NCoef="0" IVar="4" Cut="2.23148751000000001E+00" cType="1" res="0.00000000000000000E+00" rms="0.0" purity="0.00000000E+00" nType="0">
        <Node pos="l" depth="2" NCoef="0" IVar="17" Cut="1.00000000000000000E+00" cType="1" res="0.00000000000000000E+00" rms="0.0" purity="0.00000000E+00" nType="0">
            <Node pos="l" depth="3" NCoef="0" IVar="-1" Cut="0.00000000000000000E+00" cType="1" res="-5.89196045999999980E-04" rms="0.0e-00" purity="0.00000000E+00" nType="-99">
            </Node>
            <Node pos="r" depth="3" NCoef="0" IVar="-1" Cut="0.00000000000000000E+00" cType="1" res="3.81148270999999983E-02" rms="0.0e-00" purity="0.00000000E+00" nType="-99">
            </Node>
        </Node>
        <Node pos="r" depth="2" NCoef="0" IVar="7" Cut="3.37565969999999993E+00" cType="1" res="0.00000000000000000E+00" rms="0.0" purity="0.00000000E+00" nType="0">
            <Node pos="l" depth="3" NCoef="0" IVar="-1" Cut="0.00000000000000000E+00" cType="1" res="-6.98017627000000057E-02" rms="0.0e-00" purity="0.00000000E+00" nType="-99">
            </Node>
            <Node pos="r" depth="3" NCoef="0" IVar="-1" Cut="0.00000000000000000E+00" cType="1" res="6.29389798000000011E-03" rms="0.0e-00" purity="0.00000000E+00" nType="-99">
            </Node>
        </Node>
    </Node>
</BinaryTree>
<BinaryTree type="DecisionTree" boostWeight="0.0" itree="53">
    <Node pos="c" depth="1" NCoef="0" IVar="12" Cut="1.00000000000000000E+00" cType="1" res="0.00000000000000000E+00" rms="0.0" purity="0.00000000E+00" nType="0">
        <Node pos="l" depth="2" NCoef="0" IVar="3" Cut="3.41305589999999981E+00" cType="1" res="0.00000000000000000E+00" rms="0.0" purity="0.00000000E+00" nType="0">
            <Node pos="l" depth="3" NCoef="0" IVar="-1" Cut="0.00000000000000000E+00" cType="1" res="5.15454355999999964E-03" rms="0.0e-00" purity="0.00000000E+00" nType="-99">
            </Node>
            <Node pos="r" depth="3" NCoef="0" IVar="-1" Cut="0.00000000000000000E+00" cType="1" res="-4.01011704999999982E-02" rms="0.0e-00" purity="0.00000000E+00" nType="-99">
            </Node>
        </Node>
        <Node pos="r" depth="2" NCoef="0" IVar="0" Cut="1.76869689999999991E+02" cType="1" res="0.00000000000000000E+00" rms="0.0" purity="0.00000000E+00" nType="0">
            <Node pos="l" depth="3" NCoef="0" IVar="-1" Cut="0.00000000000000000E+00" cType="1" res="-1.07905336000000004E-01" rms="0.0e-00" purity="0.00000000E+00" nType="-99">
            </Node>
            <Node pos="r" depth="3" NCoef="0" IVar="-1" Cut="0.00000000000000000E+00" cType="1" res="8.53506178000000004E-02" rms="0.0e-00" purity="0.00000000E+00" nType="-99">
            </Node>
        </Node>
    </Node>
</BinaryTree>
<BinaryTree type="DecisionTree" boostWeight="0.0" itree="54">
    <Node pos="c" depth="1" NCoef="0" IVar="20" Cut="1.00000000000000000E+00" cType="1" res="0.00000000000000000E+00" rms="0.0" purity="0.00000000E+00" nType="0">
        <Node pos="l" depth="2" NCoef="0" IVar="2" Cut="4.76476439999999997E+01" cType="1" res="0.00000000000000000E+00" rms="0.0" purity="0.00000000E+00" nType="0">
            <Node pos="l" depth="3" NCoef="0" IVar="-1" Cut="0.00000000000000000E+00" cType="1" res="-2.09493226999999983E-02" rms="0.0e-00" purity="0.00000000E+00" nType="-99">
            </Node>
            <Node pos="r" depth="3" NCoef="0" IVar="-1" Cut="0.00000000000000000E+00" cType="1" res="5.38939098000000040E-03" rms="0.0e-00" purity="0.00000000E+00" nType="-99">
            </Node>
        </Node>
        <Node pos="r" depth="2" NCoef="0" IVar="3" Cut="2.36345743999999991E+00" cType="1" res="0.00000000000000000E+00" rms="0.0" purity="0.00000000E+00" nType="0">
            <Node pos="l" depth="3" NCoef="0" IVar="-1" Cut="0.00000000000000000E+00" cType="1" res="8.28060657000000006E-02" rms="0.0e-00" purity="0.00000000E+00" nType="-99">
            </Node>
            <Node pos="r" depth="3" NCoef="0" IVar="-1" Cut="0.00000000000000000E+00" cType="1" res="-4.81728054999999988E-02" rms="0.0e-00" purity="0.00000000E+00" nType="-99">
            </Node>
        </Node>
    </Node>
</BinaryTree>
<BinaryTree type="DecisionTree" boostWeight="0.0" itree="55">
    <Node pos="c" depth="1" NCoef="0" IVar="6" Cut="4.36284351000000026E+00" cType="1" res="0.00000000000000000E+00" rms="0.0" purity="0.00000000E+00" nType="0">
        <Node pos="l" depth="2" NCoef="0" IVar="17" Cut="1.00000000000000000E+00" cType="1" res="0.00000000000000000E+00" rms="0.0" purity="0.00000000E+00" nType="0">
            <Node pos="l" depth="3" NCoef="0" IVar="-1" Cut="0.00000000000000000E+00" cType="1" res="-6.89186097999999986E-04" rms="0.0e-00" purity="0.00000000E+00" nType="-99">
            </Node>
            <Node pos="r" depth="3" NCoef="0" IVar="-1" Cut="0.00000000000000000E+00" cType="1" res="3.26578840999999995E-02" rms="0.0e-00" purity="0.00000000E+00" nType="-99">
            </Node>
        </Node>
        <Node pos="r" depth="2" NCoef="0" IVar="0" Cut="2.51726166000000006E+02" cType="1" res="0.00000000000000000E+00" rms="0.0" purity="0.00000000E+00" nType="0">
            <Node pos="l" depth="3" NCoef="0" IVar="-1" Cut="0.00000000000000000E+00" cType="1" res="-5.32038882000000005E-02" rms="0.0e-00" purity="0.00000000E+00" nType="-99">
            </Node>
            <Node pos="r" depth="3" NCoef="0" IVar="-1" Cut="0.00000000000000000E+00" cType="1" res="2.08069198000000004E-02" rms="0.0e-00" purity="0.00000000E+00" nType="-99">
            </Node>
        </Node>
    </Node>
</BinaryTree>
<BinaryTree type="DecisionTree" boostWeight="0.0" itree="56">
    <Node pos="c" depth="1" NCoef="0" IVar="5" Cut="3.14641057999999973E-01" cType="1" res="0.00000000000000000E+00" rms="0.0" purity="0.00000000E+00" nType="0">
        <Node pos="l" depth="2" NCoef="0" IVar="3" Cut="2.76016592999999988E+00" cType="1" res="0.00000000000000000E+00" rms="0.0" purity="0.00000000E+00" nType="0">
            <Node pos="l" depth="3" NCoef="0" IVar="-1" Cut="0.00000000000000000E+00" cType="1" res="2.36973688000000002E-02" rms="0.0e-00" purity="0.00000000E+00" nType="-99">
            </Node>
            <Node pos="r" depth="3" NCoef="0" IVar="-1" Cut="0.00000000000000000E+00" cType="1" res="1.11325614000000003E-01" rms="0.0e-00" purity="0.00000000E+00" nType="-99">
            </Node>
        </Node>
        <Node pos="r" depth="2" NCoef="0" IVar="19" Cut="1.00000000000000000E+00" cType="1" res="0.00000000000000000E+00" rms="0.0" purity="0.00000000E+00" nType="0">
            <Node pos="l" depth="3" NCoef="0" IVar="-1" Cut="0.00000000000000000E+00" cType="1" res="1.73748867000000006E-03" rms="0.0e-00" purity="0.00000000E+00" nType="-99">
            </Node>
            <Node pos="r" depth="3" NCoef="0" IVar="-1" Cut="0.00000000000000000E+00" cType="1" res="-4.20422368000000005E-02" rms="0.0e-00" purity="0.00000000E+00" nType="-99">
            </Node>
        </Node>
    </Node>
</BinaryTree>
<BinaryTree type="DecisionTree" boostWeight="0.0" itree="57">
    <Node pos="c" depth="1" NCoef="0" IVar="4" Cut="1.04469656999999994E+00" cType="1" res="0.00000000000000000E+00" rms="0.0" purity="0.00000000E+00" nType="0">
        <Node pos="l" depth="2" NCoef="0" IVar="8" Cut="3.42631029999999992E+00" cType="1" res="0.00000000000000000E+00" rms="0.0" purity="0.00000000E+00" nType="0">
            <Node pos="l" depth="3" NCoef="0" IVar="-1" Cut="0.00000000000000000E+00" cType="1" res="1.40963653000000001E-02" rms="0.0e-00" purity="0.00000000E+00" nType="-99">
            </Node>
            <Node pos="r" depth="3" NCoef="0" IVar="-1" Cut="0.00000000000000000E+00" cType="1" res="-7.74293020000000054E-02" rms="0.0e-00" purity="0.00000000E+00" nType="-99">
            </Node>
        </Node>
        <Node pos="r" depth="2" NCoef="0" IVar="8" Cut="2.16781163000000010E+00" cType="1" res="0.00000000000000000E+00" rms="0.0" purity="0.00000000E+00" nType="0">
            <Node pos="l" depth="3" NCoef="0" IVar="-1" Cut="0.00000000000000000E+00" cType="1" res="-2.80061960000000006E-02" rms="0.0e-00" purity="0.00000000E+00" nType="-99">
            </Node>
            <Node pos="r" depth="3" NCoef="0" IVar="-1" Cut="0.00000000000000000E+00" cType="1" res="6.10690191000000035E-03" rms="0.0e-00" purity="0.00000000E+00" nType="-99">
            </Node>
        </Node>
    </Node>
</BinaryTree>
<BinaryTree type="DecisionTree" boostWeight="0.0" itree="58">
    <Node pos="c" depth="1" NCoef="0" IVar="9" Cut="3.27546997000000033E+01" cType="1" res="0.00000000000000000E+00" rms="0.0" purity="0.00000000E+00" nType="0">
        <Node pos="l" depth="2" NCoef="0" IVar="7" Cut="1.75616847999999992E+00" cType="1" res="0.00000000000000000E+00" rms="0.0" purity="0.00000000E+00" nType="0">
            <Node pos="l" depth="3" NCoef="0" IVar="-1" Cut="0.00000000000000000E+00" cType="1" res="1.18294254000000001E-01" rms="0.0e-00" purity="0.00000000E+00" nType="-99">
            </Node>
            <Node pos="r" depth="3" NCoef="0" IVar="-1" Cut="0.00000000000000000E+00" cType="1" res="1.60870068000000012E-02" rms="0.0e-00" purity="0.00000000E+00" nType="-99">
            </Node>
        </Node>
        <Node pos="r" depth="2" NCoef="0" IVar="4" Cut="2.36415218999999999E+00" cType="1" res="0.00000000000000000E+00" rms="0.0" purity="0.00000000E+00" nType="0">
            <Node pos="l" depth="3" NCoef="0" IVar="-1" Cut="0.00000000000000000E+00" cType="1" res="-2.05359048999999988E-03" rms="0.0e-00" purity="0.00000000E+00" nType="-99">
            </Node>
            <Node pos="r" depth="3" NCoef="0" IVar="-1" Cut="0.00000000000000000E+00" cType="1" res="-6.21651745999999977E-02" rms="0.0e-00" purity="0.00000000E+00" nType="-99">
            </Node>
        </Node>
    </Node>
</BinaryTree>
<BinaryTree type="DecisionTree" boostWeight="0.0" itree="59">
    <Node pos="c" depth="1" NCoef="0" IVar="15" Cut="1.00000000000000000E+00" cType="1" res="0.00000000000000000E+00" rms="0.0" purity="0.00000000E+00" nType="0">
        <Node pos="l" depth="2" NCoef="0" IVar="3" Cut="1.48725342999999999E+00" cType="1" res="0.00000000000000000E+00" rms="0.0" purity="0.00000000E+00" nType="0">
            <Node pos="l" depth="3" NCoef="0" IVar="-1" Cut="0.00000000000000000E+00" cType="1" res="1.95424426000000012E-02" rms="0.0e-00" purity="0.00000000E+00" nType="-99">
            </Node>
            <Node pos="r" depth="3" NCoef="0" IVar="-1" Cut="0.00000000000000000E+00" cType="1" res="-3.50452284000000005E-03" rms="0.0e-00" purity="0.00000000E+00" nType="-99">
            </Node>
        </Node>
        <Node pos="r" depth="2" NCoef="0" IVar="3" Cut="2.68423437999999992E+00" cType="1" res="0.00000000000000000E+00" rms="0.0" purity="0.00000000E+00" nType="0">
            <Node pos="l" depth="3" NCoef="0" IVar="-1" Cut="0.00000000000000000E+00" cType="1" res="-9.51557531999999984E-02" rms="0.0e-00" purity="0.00000000E+00" nType="-99">
            </Node>
            <Node pos="r" depth="3" NCoef="0" IVar="-1" Cut="0.00000000000000000E+00" cType="1" res="1.98509450999999996E-02" rms="0.0e-00" purity="0.00000000E+00" nType="-99">
            </Node>
        </Node>
    </Node>
</BinaryTree>
<BinaryTree type="DecisionTree" boostWeight="0.0" itree="60">
    <Node pos="c" depth="1" NCoef="0" IVar="0" Cut="1.87248497000000000E+01" cType="1" res="0.00000000000000000E+00" rms="0.0" purity="0.00000000E+00" nType="0">
        <Node pos="l" depth="2" NCoef="0" IVar="2" Cut="5.26022529999999975E+01" cType="1" res="0.00000000000000000E+00" rms="0.0" purity="0.00000000E+00" nType="0">
            <Node pos="l" depth="3" NCoef="0" IVar="-1" Cut="0.00000000000000000E+00" cType="1" res="-1.13625497000000006E-01" rms="0.0e-00" purity="0.00000000E+00" nType="-99">
            </Node>
            <Node pos="r" depth="3" NCoef="0" IVar="-1" Cut="0.00000000000000000E+00" cType="1" res="5.92255639000000000E-03" rms="0.0e-00" purity="0.00000000E+00" nType="-99">
            </Node>
        </Node>
        <Node pos="r" depth="2" NCoef="0" IVar="3" Cut="1.30799270000000001E+00" cType="1" res="0.00000000000000000E+00" rms="0.0" purity="0.00000000E+00" nType="0">
            <Node pos="l" depth="3" NCoef="0" IVar="-1" Cut="0.00000000000000000E+00" cType="1" res="2.69978698000000010E-02" rms="0.0e-00" purity="0.00000000E+00" nType="-99">
            </Node>
            <Node pos="r" depth="3" NCoef="0" IVar="-1" Cut="0.00000000000000000E+00" cType="1" res="-3.35151772000000020E-03" rms="0.0e-00" purity="0.00000000E+00" nType="-99">
            </Node>
        </Node>
    </Node>
</BinaryTree>
<BinaryTree type="DecisionTree" boostWeight="0.0" itree="61">
    <Node pos="c" depth="1" NCoef="0" IVar="1" Cut="3.88371033000000011E+02" cType="1" res="0.00000000000000000E+00" rms="0.0" purity="0.00000000E+00" nType="0">
        <Node pos="l" depth="2" NCoef="0" IVar="15" Cut="1.00000000000000000E+00" cType="1" res="0.00000000000000000E+00" rms="0.0" purity="0.00000000E+00" nType="0">
            <Node pos="l" depth="3" NCoef="0" IVar="-1" Cut="0.00000000000000000E+00" cType="1" res="-3.16119008000000003E-03" rms="0.0e-00" purity="0.00000000E+00" nType="-99">
            </Node>
            <Node pos="r" depth="3" NCoef="0" IVar="-1" Cut="0.00000000000000000E+00" cType="1" res="-9.82567668000000061E-02" rms="0.0e-00" purity="0.00000000E+00" nType="-99">
            </Node>
        </Node>
        <Node pos="r" depth="2" NCoef="0" IVar="3" Cut="2.68127942000000008E+00" cType="1" res="0.00000000000000000E+00" rms="0.0" purity="0.00000000E+00" nType="0">
            <Node pos="l" depth="3" NCoef="0" IVar="-1" Cut="0.00000000000000000E+00" cType="1" res="-2.42603243999999982E-03" rms="0.0e-00" purity="0.00000000E+00" nType="-99">
            </Node>
            <Node pos="r" depth="3" NCoef="0" IVar="-1" Cut="0.00000000000000000E+00" cType="1" res="3.06228994999999983E-02" rms="0.0e-00" purity="0.00000000E+00" nType="-99">
            </Node>
        </Node>
    </Node>
</BinaryTree>
<BinaryTree type="DecisionTree" boostWeight="0.0" itree="62">
    <Node pos="c" depth="1" NCoef="0" IVar="2" Cut="3.21936615000000018E+02" cType="1" res="0.00000000000000000E+00" rms="0.0" purity="0.00000000E+00" nType="0">
        <Node pos="l" depth="2" NCoef="0" IVar="19" Cut="1.00000000000000000E+00" cType="1" res="0.00000000000000000E+00" rms="0.0" purity="0.00000000E+00" nType="0">
            <Node pos="l" depth="3" NCoef="0" IVar="-1" Cut="0.00000000000000000E+00" cType="1" res="1.22866080999999992E-03" rms="0.0e-00" purity="0.00000000E+00" nType="-99">
            </Node>
            <Node pos="r" depth="3" NCoef="0" IVar="-1" Cut="0.00000000000000000E+00" cType="1" res="-3.75219621000000003E-02" rms="0.0e-00" purity="0.00000000E+00" nType="-99">
            </Node>
        </Node>
        <Node pos="r" depth="2" NCoef="0" IVar="4" Cut="5.83294152999999982E-01" cType="1" res="0.00000000000000000E+00" rms="0.0" purity="0.00000000E+00" nType="0">
            <Node pos="l" depth="3" NCoef="0" IVar="-1" Cut="0.00000000000000000E+00" cType="1" res="1.35323389999999988E-01" rms="0.0e-00" purity="0.00000000E+00" nType="-99">
            </Node>
            <Node pos="r" depth="3" NCoef="0" IVar="-1" Cut="0.00000000000000000E+00" cType="1" res="4.22948412999999968E-02" rms="0.0e-00" purity="0.00000000E+00" nType="-99">
            </Node>
        </Node>
    </Node>
</BinaryTree>
<BinaryTree type="DecisionTree" boostWeight="0.0" itree="63">
    <Node pos="c" depth="1" NCoef="0" IVar="12" Cut="1.00000000000000000E+00" cType="1" res="0.00000000000000000E+00" rms="0.0" purity="0.00000000E+00" nType="0">
        <Node pos="l" depth="2" NCoef="0" IVar="4" Cut="2.33201003000000018E+00" cType="1" res="0.00000000000000000E+00" rms="0.0" purity="0.00000000E+00" nType="0">
            <Node pos="l" depth="3" NCoef="0" IVar="-1" Cut="0.00000000000000000E+00" cType="1" res="4.21831663999999978E-03" rms="0.0e-00" purity="0.00000000E+00" nType="-99">
            </Node>
            <Node pos="r" depth="3" NCoef="0" IVar="-1" Cut="0.00000000000000000E+00" cType="1" res="-3.95760834000000034E-02" rms="0.0e-00" purity="0.00000000E+00" nType="-99">
            </Node>
        </Node>
        <Node pos="r" depth="2" NCoef="0" IVar="3" Cut="2.40655421999999986E+00" cType="1" res="0.00000000000000000E+00" rms="0.0" purity="0.00000000E+00" nType="0">
            <Node pos="l" depth="3" NCoef="0" IVar="-1" Cut="0.00000000000000000E+00" cType="1" res="-1.40549346999999991E-01" rms="0.0e-00" purity="0.00000000E+00" nType="-99">
            </Node>
            <Node pos="r" depth="3" NCoef="0" IVar="-1" Cut="0.00000000000000000E+00" cType="1" res="2.90069146999999980E-03" rms="0.0e-00" purity="0.00000000E+00" nType="-99">
            </Node>
        </Node>
    </Node>
</BinaryTree>
<BinaryTree type="DecisionTree" boostWeight="0.0" itree="64">
    <Node pos="c" depth="1" NCoef="0" IVar="22" Cut="1.00000000000000000E+00" cType="1" res="0.00000000000000000E+00" rms="0.0" purity="0.00000000E+00" nType="0">
        <Node pos="l" depth="2" NCoef="0" IVar="4" Cut="7.73043095999999985E-01" cType="1" res="0.00000000000000000E+00" rms="0.0" purity="0.00000000E+00" nType="0">
            <Node pos="l" depth="3" NCoef="0" IVar="-1" Cut="0.00000000000000000E+00" cType="1" res="1.19147197999999992E-02" rms="0.0e-00" purity="0.00000000E+00" nType="-99">
            </Node>
            <Node pos="r" depth="3" NCoef="0" IVar="-1" Cut="0.00000000000000000E+00" cType="1" res="-1.07250316000000005E-02" rms="0.0e-00" purity="0.00000000E+00" nType="-99">
            </Node>
        </Node>
        <Node pos="r" depth="2" NCoef="0" IVar="9" Cut="1.77832245000000000E+02" cType="1" res="0.00000000000000000E+00" rms="0.0" purity="0.00000000E+00" nType="0">
            <Node pos="l" depth="3" NCoef="0" IVar="-1" Cut="0.00000000000000000E+00" cType="1" res="3.52656580999999997E-02" rms="0.0e-00" purity="0.00000000E+00" nType="-99">
            </Node>
            <Node pos="r" depth="3" NCoef="0" IVar="-1" Cut="0.00000000000000000E+00" cType="1" res="-1.28673062000000005E-01" rms="0.0e-00" purity="0.00000000E+00" nType="-99">
            </Node>
        </Node>
    </Node>
</BinaryTree>
<BinaryTree type="DecisionTree" boostWeight="0.0" itree="65">
    <Node pos="c" depth="1" NCoef="0" IVar="9" Cut="3.27585601999999980E+01" cType="1" res="0.00000000000000000E+00" rms="0.0" purity="0.00000000E+00" nType="0">
        <Node pos="l" depth="2" NCoef="0" IVar="2" Cut="5.66880835999999988E+01" cType="1" res="0.00000000000000000E+00" rms="0.0" purity="0.00000000E+00" nType="0">
            <Node pos="l" depth="3" NCoef="0" IVar="-1" Cut="0.00000000000000000E+00" cType="1" res="-1.62737455999999994E-03" rms="0.0e-00" purity="0.00000000E+00" nType="-99">
            </Node>
            <Node pos="r" depth="3" NCoef="0" IVar="-1" Cut="0.00000000000000000E+00" cType="1" res="3.95289919999999989E-02" rms="0.0e-00" purity="0.00000000E+00" nType="-99">
            </Node>
        </Node>
        <Node pos="r" depth="2" NCoef="0" IVar="6" Cut="3.97232652000000019E+00" cType="1" res="0.00000000000000000E+00" rms="0.0" purity="0.00000000E+00" nType="0">
            <Node pos="l" depth="3" NCoef="0" IVar="-1" Cut="0.00000000000000000E+00" cType="1" res="-8.88707989000000033E-04" rms="0.0e-00" purity="0.00000000E+00" nType="-99">
            </Node>
            <Node pos="r" depth="3" NCoef="0" IVar="-1" Cut="0.00000000000000000E+00" cType="1" res="-3.35934869999999983E-02" rms="0.0e-00" purity="0.00000000E+00" nType="-99">
            </Node>
        </Node>
    </Node>
</BinaryTree>
<BinaryTree type="DecisionTree" boostWeight="0.0" itree="66">
