
        <?xml version="1.0"?>
        <MethodSetup Method="BDT::bdt">
        <GeneralInfo>
        <Info name="TMVA Release" value=""/>
        <Info name="ROOT Release" value=""/>
        <Info name="Creator" value="mlglue"/>
        <Info name="Date" value=""/>
        <Info name="Host" value=""/>
        <Info name="Dir" value=""/>
        <Info name="Training events" value="-1"/>
        <Info name="TrainingTime" value="-1"/>
        <Info name="AnalysisType" value="Classification"/>
        </GeneralInfo>
        <Options>
        <Option name="NTrees" modified="Yes">100</Option>
        <Option name="MaxDepth" modified="Yes">6</Option>
        <Option name="BoostType" modified="Yes">Grad</Option>
        <Option name="Shrinkage" modified="Yes">0.3</Option>
        <Option name="UseNvars" modified="Yes">11</Option>
        </Options>
        <Variables NVar="11">
        <Variable VarIndex="0" Expression="tau1_eta"                 Label="tau1_eta" Title="tau1_eta" Unit="" Internal="tau1_eta" Type="F"                 Min="0.0000000000000000000000000000000000000000000000000000000000000000E+00" Max="0.0000000000000000000000000000000000000000000000000000000000000000E+00"/>
<Variable VarIndex="1" Expression="dr_leps"                 Label="dr_leps" Title="dr_leps" Unit="" Internal="dr_leps" Type="F"                 Min="0.0000000000000000000000000000000000000000000000000000000000000000E+00" Max="0.0000000000000000000000000000000000000000000000000000000000000000E+00"/>
<Variable VarIndex="2" Expression="ptTauTauVis"                 Label="ptTauTauVis" Title="ptTauTauVis" Unit="" Internal="ptTauTauVis" Type="F"                 Min="0.0000000000000000000000000000000000000000000000000000000000000000E+00" Max="0.0000000000000000000000000000000000000000000000000000000000000000E+00"/>
<Variable VarIndex="3" Expression="met"                 Label="met" Title="met" Unit="" Internal="met" Type="F"                 Min="0.0000000000000000000000000000000000000000000000000000000000000000E+00" Max="0.0000000000000000000000000000000000000000000000000000000000000000E+00"/>
<Variable VarIndex="4" Expression="dr_lep_tau_min_OS"                 Label="dr_lep_tau_min_OS" Title="dr_lep_tau_min_OS" Unit="" Internal="dr_lep_tau_min_OS" Type="F"                 Min="0.0000000000000000000000000000000000000000000000000000000000000000E+00" Max="0.0000000000000000000000000000000000000000000000000000000000000000E+00"/>
<Variable VarIndex="5" Expression="diHiggsMass"                 Label="diHiggsMass" Title="diHiggsMass" Unit="" Internal="diHiggsMass" Type="F"                 Min="0.0000000000000000000000000000000000000000000000000000000000000000E+00" Max="0.0000000000000000000000000000000000000000000000000000000000000000E+00"/>
<Variable VarIndex="6" Expression="mTauTauVis"                 Label="mTauTauVis" Title="mTauTauVis" Unit="" Internal="mTauTauVis" Type="F"                 Min="0.0000000000000000000000000000000000000000000000000000000000000000E+00" Max="0.0000000000000000000000000000000000000000000000000000000000000000E+00"/>
<Variable VarIndex="7" Expression="Smin_lltautau"                 Label="Smin_lltautau" Title="Smin_lltautau" Unit="" Internal="Smin_lltautau" Type="F"                 Min="0.0000000000000000000000000000000000000000000000000000000000000000E+00" Max="0.0000000000000000000000000000000000000000000000000000000000000000E+00"/>
<Variable VarIndex="8" Expression="dr_lep1_tau1_tau2_min"                 Label="dr_lep1_tau1_tau2_min" Title="dr_lep1_tau1_tau2_min" Unit="" Internal="dr_lep1_tau1_tau2_min" Type="F"                 Min="0.0000000000000000000000000000000000000000000000000000000000000000E+00" Max="0.0000000000000000000000000000000000000000000000000000000000000000E+00"/>
<Variable VarIndex="9" Expression="Smin_llMEt"                 Label="Smin_llMEt" Title="Smin_llMEt" Unit="" Internal="Smin_llMEt" Type="F"                 Min="0.0000000000000000000000000000000000000000000000000000000000000000E+00" Max="0.0000000000000000000000000000000000000000000000000000000000000000E+00"/>
<Variable VarIndex="10" Expression="gen_mHH"                 Label="gen_mHH" Title="gen_mHH" Unit="" Internal="gen_mHH" Type="F"                 Min="0.0000000000000000000000000000000000000000000000000000000000000000E+00" Max="0.0000000000000000000000000000000000000000000000000000000000000000E+00"/>

        </Variables>
        <Classes NClass="2">
        <Class Name="Background" Index="0"/>
<Class Name="Signal" Index="1"/>

        </Classes>
        <Targets NTrgt="0">
        
        </Targets>
        <Transformations NTransformations="0"/>
        <MVAPdfs/>
        <Weights NTrees="100" AnalysisType="1">
        <BinaryTree type="DecisionTree" boostWeight="0.0"                 itree="0">
    <Node pos="c" depth="1" NCoef="0"                     IVar="diHiggsMass" Cut="     1.133930E+00" cType="1"                     res="     0.000000E+00" rms="0.0"                     purity="0.00000000E+00" nType="0">
        <Node pos="l" depth="2" NCoef="0"                     IVar="dr_leps" Cut="     2.269305E+00" cType="1"                     res="     0.000000E+00" rms="0.0"                     purity="0.00000000E+00" nType="0">
            <Node pos="l" depth="3" NCoef="0"                     IVar="gen_mHH" Cut="     5.250000E+02" cType="1"                     res="     0.000000E+00" rms="0.0"                     purity="0.00000000E+00" nType="0">
                <Node pos="l" depth="4" NCoef="0"                     IVar="diHiggsMass" Cut="     6.048712E-01" cType="1"                     res="     0.000000E+00" rms="0.0"                     purity="0.00000000E+00" nType="0">
                    <Node pos="l" depth="5" NCoef="0"                     IVar="met" Cut="     1.084238E+00" cType="1"                     res="     0.000000E+00" rms="0.0"                     purity="0.00000000E+00" nType="0">
                        <Node pos="l" depth="6" NCoef="0"                     IVar="dr_leps" Cut="     9.480222E-01" cType="1"                     res="     0.000000E+00" rms="0.0"                     purity="0.00000000E+00" nType="0">
                            <Node pos="l" depth="7" NCoef="0"                     IVar="-1" Cut="     0.000000E+00" cType="1"                     res="    -8.893579E-03" rms="0.0e-00"                     purity="0.00000000E+00" nType="-99">
                            </Node>
                            <Node pos="r" depth="7" NCoef="0"                     IVar="-1" Cut="     0.000000E+00" cType="1"                     res="    -5.503361E-01" rms="0.0e-00"                     purity="0.00000000E+00" nType="-99">
                            </Node>
                        </Node>
                        <Node pos="r" depth="6" NCoef="0"                     IVar="Smin_llMEt" Cut="     1.274083E+00" cType="1"                     res="     0.000000E+00" rms="0.0"                     purity="0.00000000E+00" nType="0">
                            <Node pos="l" depth="7" NCoef="0"                     IVar="-1" Cut="     0.000000E+00" cType="1"                     res="     2.865945E-01" rms="0.0e-00"                     purity="0.00000000E+00" nType="-99">
                            </Node>
                            <Node pos="r" depth="7" NCoef="0"                     IVar="-1" Cut="     0.000000E+00" cType="1"                     res="    -4.488860E-01" rms="0.0e-00"                     purity="0.00000000E+00" nType="-99">
                            </Node>
                        </Node>
                    </Node>
                    <Node pos="r" depth="5" NCoef="0"                     IVar="met" Cut="     2.794690E-01" cType="1"                     res="     0.000000E+00" rms="0.0"                     purity="0.00000000E+00" nType="0">
                        <Node pos="l" depth="6" NCoef="0"                     IVar="dr_lep_tau_min_OS" Cut="     1.316799E+00" cType="1"                     res="     0.000000E+00" rms="0.0"                     purity="0.00000000E+00" nType="0">
                            <Node pos="l" depth="7" NCoef="0"                     IVar="-1" Cut="     0.000000E+00" cType="1"                     res="     4.444018E-01" rms="0.0e-00"                     purity="0.00000000E+00" nType="-99">
                            </Node>
                            <Node pos="r" depth="7" NCoef="0"                     IVar="-1" Cut="     0.000000E+00" cType="1"                     res="    -2.791878E-01" rms="0.0e-00"                     purity="0.00000000E+00" nType="-99">
                            </Node>
                        </Node>
                        <Node pos="r" depth="6" NCoef="0"                     IVar="dr_lep_tau_min_OS" Cut="     2.970216E+00" cType="1"                     res="     0.000000E+00" rms="0.0"                     purity="0.00000000E+00" nType="0">
                            <Node pos="l" depth="7" NCoef="0"                     IVar="-1" Cut="     0.000000E+00" cType="1"                     res="     4.772724E-01" rms="0.0e-00"                     purity="0.00000000E+00" nType="-99">
                            </Node>
                            <Node pos="r" depth="7" NCoef="0"                     IVar="-1" Cut="     0.000000E+00" cType="1"                     res="     2.373981E-01" rms="0.0e-00"                     purity="0.00000000E+00" nType="-99">
                            </Node>
                        </Node>
                    </Node>
                </Node>
                <Node pos="r" depth="4" NCoef="0"                     IVar="met" Cut="     1.426549E+00" cType="1"                     res="     0.000000E+00" rms="0.0"                     purity="0.00000000E+00" nType="0">
                    <Node pos="l" depth="5" NCoef="0"                     IVar="dr_leps" Cut="     1.255370E+00" cType="1"                     res="     0.000000E+00" rms="0.0"                     purity="0.00000000E+00" nType="0">
                        <Node pos="l" depth="6" NCoef="0"                     IVar="ptTauTauVis" Cut="     1.122376E+00" cType="1"                     res="     0.000000E+00" rms="0.0"                     purity="0.00000000E+00" nType="0">
                            <Node pos="l" depth="7" NCoef="0"                     IVar="-1" Cut="     0.000000E+00" cType="1"                     res="    -4.995535E-01" rms="0.0e-00"                     purity="0.00000000E+00" nType="-99">
                            </Node>
                            <Node pos="r" depth="7" NCoef="0"                     IVar="-1" Cut="     0.000000E+00" cType="1"                     res="     3.405789E-01" rms="0.0e-00"                     purity="0.00000000E+00" nType="-99">
                            </Node>
                        </Node>
                        <Node pos="r" depth="6" NCoef="0"                     IVar="gen_mHH" Cut="     6.250000E+02" cType="1"                     res="     0.000000E+00" rms="0.0"                     purity="0.00000000E+00" nType="0">
                            <Node pos="l" depth="7" NCoef="0"                     IVar="-1" Cut="     0.000000E+00" cType="1"                     res="    -3.544753E-01" rms="0.0e-00"                     purity="0.00000000E+00" nType="-99">
                            </Node>
                            <Node pos="r" depth="7" NCoef="0"                     IVar="-1" Cut="     0.000000E+00" cType="1"                     res="    -5.691019E-01" rms="0.0e-00"                     purity="0.00000000E+00" nType="-99">
                            </Node>
                        </Node>
                    </Node>
                    <Node pos="r" depth="5" NCoef="0"                     IVar="ptTauTauVis" Cut="     7.553837E-01" cType="1"                     res="     0.000000E+00" rms="0.0"                     purity="0.00000000E+00" nType="0">
                        <Node pos="l" depth="6" NCoef="0"                     IVar="tau1_eta" Cut="     2.607266E-01" cType="1"                     res="     0.000000E+00" rms="0.0"                     purity="0.00000000E+00" nType="0">
                            <Node pos="l" depth="7" NCoef="0"                     IVar="-1" Cut="     0.000000E+00" cType="1"                     res="     3.013740E-01" rms="0.0e-00"                     purity="0.00000000E+00" nType="-99">
                            </Node>
                            <Node pos="r" depth="7" NCoef="0"                     IVar="-1" Cut="     0.000000E+00" cType="1"                     res="    -4.504190E-01" rms="0.0e-00"                     purity="0.00000000E+00" nType="-99">
                            </Node>
                        </Node>
                        <Node pos="r" depth="6" NCoef="0"                     IVar="dr_leps" Cut="     1.893503E+00" cType="1"                     res="     0.000000E+00" rms="0.0"                     purity="0.00000000E+00" nType="0">
                            <Node pos="l" depth="7" NCoef="0"                     IVar="-1" Cut="     0.000000E+00" cType="1"                     res="     4.840521E-01" rms="0.0e-00"                     purity="0.00000000E+00" nType="-99">
                            </Node>
                            <Node pos="r" depth="7" NCoef="0"                     IVar="-1" Cut="     0.000000E+00" cType="1"                     res="    -1.423298E-01" rms="0.0e-00"                     purity="0.00000000E+00" nType="-99">
                            </Node>
                        </Node>
                    </Node>
                </Node>
            </Node>
            <Node pos="r" depth="3" NCoef="0"                     IVar="dr_lep_tau_min_OS" Cut="     5.190070E-01" cType="1"                     res="     0.000000E+00" rms="0.0"                     purity="0.00000000E+00" nType="0">
                <Node pos="l" depth="4" NCoef="0"                     IVar="gen_mHH" Cut="     5.250000E+02" cType="1"                     res="     0.000000E+00" rms="0.0"                     purity="0.00000000E+00" nType="0">
                    <Node pos="l" depth="5" NCoef="0"                     IVar="dr_lep1_tau1_tau2_min" Cut="     3.579090E+00" cType="1"                     res="     0.000000E+00" rms="0.0"                     purity="0.00000000E+00" nType="0">
                        <Node pos="l" depth="6" NCoef="0"                     IVar="tau1_eta" Cut="     1.682982E-02" cType="1"                     res="     0.000000E+00" rms="0.0"                     purity="0.00000000E+00" nType="0">
                            <Node pos="l" depth="7" NCoef="0"                     IVar="-1" Cut="     0.000000E+00" cType="1"                     res="     1.977490E-02" rms="0.0e-00"                     purity="0.00000000E+00" nType="-99">
                            </Node>
                            <Node pos="r" depth="7" NCoef="0"                     IVar="-1" Cut="     0.000000E+00" cType="1"                     res="     4.923674E-01" rms="0.0e-00"                     purity="0.00000000E+00" nType="-99">
                            </Node>
                        </Node>
                        <Node pos="r" depth="6" NCoef="0"                     IVar="Smin_lltautau" Cut="     8.062298E-01" cType="1"                     res="     0.000000E+00" rms="0.0"                     purity="0.00000000E+00" nType="0">
                            <Node pos="l" depth="7" NCoef="0"                     IVar="-1" Cut="     0.000000E+00" cType="1"                     res="     4.885879E-01" rms="0.0e-00"                     purity="0.00000000E+00" nType="-99">
                            </Node>
                            <Node pos="r" depth="7" NCoef="0"                     IVar="-1" Cut="     0.000000E+00" cType="1"                     res="    -3.497976E-01" rms="0.0e-00"                     purity="0.00000000E+00" nType="-99">
                            </Node>
                        </Node>
                    </Node>
                    <Node pos="r" depth="5" NCoef="0"                     IVar="met" Cut="     9.091568E-01" cType="1"                     res="     0.000000E+00" rms="0.0"                     purity="0.00000000E+00" nType="0">
                        <Node pos="l" depth="6" NCoef="0"                     IVar="Smin_llMEt" Cut="     1.272929E+00" cType="1"                     res="     0.000000E+00" rms="0.0"                     purity="0.00000000E+00" nType="0">
                            <Node pos="l" depth="7" NCoef="0"                     IVar="-1" Cut="     0.000000E+00" cType="1"                     res="    -5.311302E-01" rms="0.0e-00"                     purity="0.00000000E+00" nType="-99">
                            </Node>
                            <Node pos="r" depth="7" NCoef="0"                     IVar="-1" Cut="     0.000000E+00" cType="1"                     res="     2.451220E-01" rms="0.0e-00"                     purity="0.00000000E+00" nType="-99">
                            </Node>
                        </Node>
                        <Node pos="r" depth="6" NCoef="0"                     IVar="Smin_lltautau" Cut="     8.874083E-01" cType="1"                     res="     0.000000E+00" rms="0.0"                     purity="0.00000000E+00" nType="0">
                            <Node pos="l" depth="7" NCoef="0"                     IVar="-1" Cut="     0.000000E+00" cType="1"                     res="    -7.243076E-02" rms="0.0e-00"                     purity="0.00000000E+00" nType="-99">
                            </Node>
                            <Node pos="r" depth="7" NCoef="0"                     IVar="-1" Cut="     0.000000E+00" cType="1"                     res="     4.543053E-01" rms="0.0e-00"                     purity="0.00000000E+00" nType="-99">
                            </Node>
                        </Node>
                    </Node>
                </Node>
                <Node pos="r" depth="4" NCoef="0"                     IVar="gen_mHH" Cut="     4.750000E+02" cType="1"                     res="     0.000000E+00" rms="0.0"                     purity="0.00000000E+00" nType="0">
                    <Node pos="l" depth="5" NCoef="0"                     IVar="dr_lep1_tau1_tau2_min" Cut="     1.638894E+00" cType="1"                     res="     0.000000E+00" rms="0.0"                     purity="0.00000000E+00" nType="0">
                        <Node pos="l" depth="6" NCoef="0"                     IVar="gen_mHH" Cut="     3.250000E+02" cType="1"                     res="     0.000000E+00" rms="0.0"                     purity="0.00000000E+00" nType="0">
                            <Node pos="l" depth="7" NCoef="0"                     IVar="-1" Cut="     0.000000E+00" cType="1"                     res="     2.031222E-01" rms="0.0e-00"                     purity="0.00000000E+00" nType="-99">
                            </Node>
                            <Node pos="r" depth="7" NCoef="0"                     IVar="-1" Cut="     0.000000E+00" cType="1"                     res="    -2.218153E-01" rms="0.0e-00"                     purity="0.00000000E+00" nType="-99">
                            </Node>
                        </Node>
                        <Node pos="r" depth="6" NCoef="0"                     IVar="met" Cut="     1.170441E+00" cType="1"                     res="     0.000000E+00" rms="0.0"                     purity="0.00000000E+00" nType="0">
                            <Node pos="l" depth="7" NCoef="0"                     IVar="-1" Cut="     0.000000E+00" cType="1"                     res="    -3.894977E-01" rms="0.0e-00"                     purity="0.00000000E+00" nType="-99">
                            </Node>
                            <Node pos="r" depth="7" NCoef="0"                     IVar="-1" Cut="     0.000000E+00" cType="1"                     res="     3.912194E-02" rms="0.0e-00"                     purity="0.00000000E+00" nType="-99">
                            </Node>
                        </Node>
                    </Node>
                    <Node pos="r" depth="5" NCoef="0"                     IVar="met" Cut="     1.932809E+00" cType="1"                     res="     0.000000E+00" rms="0.0"                     purity="0.00000000E+00" nType="0">
                        <Node pos="l" depth="6" NCoef="0"                     IVar="ptTauTauVis" Cut="     1.455261E+00" cType="1"                     res="     0.000000E+00" rms="0.0"                     purity="0.00000000E+00" nType="0">
                            <Node pos="l" depth="7" NCoef="0"                     IVar="-1" Cut="     0.000000E+00" cType="1"                     res="    -5.823595E-01" rms="0.0e-00"                     purity="0.00000000E+00" nType="-99">
                            </Node>
                            <Node pos="r" depth="7" NCoef="0"                     IVar="-1" Cut="     0.000000E+00" cType="1"                     res="    -4.023802E-01" rms="0.0e-00"                     purity="0.00000000E+00" nType="-99">
                            </Node>
                        </Node>
                        <Node pos="r" depth="6" NCoef="0"                     IVar="ptTauTauVis" Cut="     8.869751E-01" cType="1"                     res="     0.000000E+00" rms="0.0"                     purity="0.00000000E+00" nType="0">
                            <Node pos="l" depth="7" NCoef="0"                     IVar="-1" Cut="     0.000000E+00" cType="1"                     res="    -2.290642E-01" rms="0.0e-00"                     purity="0.00000000E+00" nType="-99">
                            </Node>
                            <Node pos="r" depth="7" NCoef="0"                     IVar="-1" Cut="     0.000000E+00" cType="1"                     res="     2.480897E-01" rms="0.0e-00"                     purity="0.00000000E+00" nType="-99">
                            </Node>
                        </Node>
                    </Node>
                </Node>
            </Node>
        </Node>
        <Node pos="r" depth="2" NCoef="0"                     IVar="gen_mHH" Cut="     4.250000E+02" cType="1"                     res="     0.000000E+00" rms="0.0"                     purity="0.00000000E+00" nType="0">
            <Node pos="l" depth="3" NCoef="0"                     IVar="dr_leps" Cut="     1.780440E+00" cType="1"                     res="     0.000000E+00" rms="0.0"                     purity="0.00000000E+00" nType="0">
                <Node pos="l" depth="4" NCoef="0"                     IVar="Smin_lltautau" Cut="     1.291447E+00" cType="1"                     res="     0.000000E+00" rms="0.0"                     purity="0.00000000E+00" nType="0">
                    <Node pos="l" depth="5" NCoef="0"                     IVar="dr_lep_tau_min_OS" Cut="     3.579985E+00" cType="1"                     res="     0.000000E+00" rms="0.0"                     purity="0.00000000E+00" nType="0">
                        <Node pos="l" depth="6" NCoef="0"                     IVar="dr_lep_tau_min_OS" Cut="     1.995556E+00" cType="1"                     res="     0.000000E+00" rms="0.0"                     purity="0.00000000E+00" nType="0">
                            <Node pos="l" depth="7" NCoef="0"                     IVar="-1" Cut="     0.000000E+00" cType="1"                     res="     5.416018E-01" rms="0.0e-00"                     purity="0.00000000E+00" nType="-99">
                            </Node>
                            <Node pos="r" depth="7" NCoef="0"                     IVar="-1" Cut="     0.000000E+00" cType="1"                     res="     4.176306E-01" rms="0.0e-00"                     purity="0.00000000E+00" nType="-99">
                            </Node>
                        </Node>
                        <Node pos="r" depth="6" NCoef="0"                     IVar="Smin_llMEt" Cut="     5.480046E-01" cType="1"                     res="     0.000000E+00" rms="0.0"                     purity="0.00000000E+00" nType="0">
                            <Node pos="l" depth="7" NCoef="0"                     IVar="-1" Cut="     0.000000E+00" cType="1"                     res="     4.554776E-01" rms="0.0e-00"                     purity="0.00000000E+00" nType="-99">
                            </Node>
                            <Node pos="r" depth="7" NCoef="0"                     IVar="-1" Cut="     0.000000E+00" cType="1"                     res="    -2.409619E-01" rms="0.0e-00"                     purity="0.00000000E+00" nType="-99">
                            </Node>
                        </Node>
                    </Node>
                    <Node pos="r" depth="5" NCoef="0"                     IVar="Smin_lltautau" Cut="     1.396477E+00" cType="1"                     res="     0.000000E+00" rms="0.0"                     purity="0.00000000E+00" nType="0">
                        <Node pos="l" depth="6" NCoef="0"                     IVar="Smin_lltautau" Cut="     1.379682E+00" cType="1"                     res="     0.000000E+00" rms="0.0"                     purity="0.00000000E+00" nType="0">
                            <Node pos="l" depth="7" NCoef="0"                     IVar="-1" Cut="     0.000000E+00" cType="1"                     res="    -4.926922E-01" rms="0.0e-00"                     purity="0.00000000E+00" nType="-99">
                            </Node>
                            <Node pos="r" depth="7" NCoef="0"                     IVar="-1" Cut="     0.000000E+00" cType="1"                     res="     4.135274E-01" rms="0.0e-00"                     purity="0.00000000E+00" nType="-99">
                            </Node>
                        </Node>
                        <Node pos="r" depth="6" NCoef="0"                     IVar="mTauTauVis" Cut="     1.497521E+00" cType="1"                     res="     0.000000E+00" rms="0.0"                     purity="0.00000000E+00" nType="0">
                            <Node pos="l" depth="7" NCoef="0"                     IVar="-1" Cut="     0.000000E+00" cType="1"                     res="    -5.986017E-01" rms="0.0e-00"                     purity="0.00000000E+00" nType="-99">
                            </Node>
                            <Node pos="r" depth="7" NCoef="0"                     IVar="-1" Cut="     0.000000E+00" cType="1"                     res="    -1.013573E-01" rms="0.0e-00"                     purity="0.00000000E+00" nType="-99">
                            </Node>
                        </Node>
                    </Node>
                </Node>
                <Node pos="r" depth="4" NCoef="0"                     IVar="dr_lep1_tau1_tau2_min" Cut="     2.267864E+00" cType="1"                     res="     0.000000E+00" rms="0.0"                     purity="0.00000000E+00" nType="0">
                    <Node pos="l" depth="5" NCoef="0"                     IVar="dr_lep_tau_min_OS" Cut="     7.573409E-01" cType="1"                     res="     0.000000E+00" rms="0.0"                     purity="0.00000000E+00" nType="0">
                        <Node pos="l" depth="6" NCoef="0"                     IVar="Smin_lltautau" Cut="     1.030993E+00" cType="1"                     res="     0.000000E+00" rms="0.0"                     purity="0.00000000E+00" nType="0">
                            <Node pos="l" depth="7" NCoef="0"                     IVar="-1" Cut="     0.000000E+00" cType="1"                     res="     4.751085E-01" rms="0.0e-00"                     purity="0.00000000E+00" nType="-99">
                            </Node>
                            <Node pos="r" depth="7" NCoef="0"                     IVar="-1" Cut="     0.000000E+00" cType="1"                     res="    -2.200117E-01" rms="0.0e-00"                     purity="0.00000000E+00" nType="-99">
                            </Node>
                        </Node>
                        <Node pos="r" depth="6" NCoef="0"                     IVar="met" Cut="     6.893435E-01" cType="1"                     res="     0.000000E+00" rms="0.0"                     purity="0.00000000E+00" nType="0">
                            <Node pos="l" depth="7" NCoef="0"                     IVar="-1" Cut="     0.000000E+00" cType="1"                     res="    -2.525472E-01" rms="0.0e-00"                     purity="0.00000000E+00" nType="-99">
                            </Node>
                            <Node pos="r" depth="7" NCoef="0"                     IVar="-1" Cut="     0.000000E+00" cType="1"                     res="     7.262032E-02" rms="0.0e-00"                     purity="0.00000000E+00" nType="-99">
                            </Node>
                        </Node>
                    </Node>
                    <Node pos="r" depth="5" NCoef="0"                     IVar="Smin_lltautau" Cut="     7.486398E-01" cType="1"                     res="     0.000000E+00" rms="0.0"                     purity="0.00000000E+00" nType="0">
                        <Node pos="l" depth="6" NCoef="0"                     IVar="met" Cut="     1.577397E-01" cType="1"                     res="     0.000000E+00" rms="0.0"                     purity="0.00000000E+00" nType="0">
                            <Node pos="l" depth="7" NCoef="0"                     IVar="-1" Cut="     0.000000E+00" cType="1"                     res="    -5.671995E-01" rms="0.0e-00"                     purity="0.00000000E+00" nType="-99">
                            </Node>
                            <Node pos="r" depth="7" NCoef="0"                     IVar="-1" Cut="     0.000000E+00" cType="1"                     res="     2.396058E-01" rms="0.0e-00"                     purity="0.00000000E+00" nType="-99">
                            </Node>
                        </Node>
                        <Node pos="r" depth="6" NCoef="0"                     IVar="gen_mHH" Cut="     3.250000E+02" cType="1"                     res="     0.000000E+00" rms="0.0"                     purity="0.00000000E+00" nType="0">
                            <Node pos="l" depth="7" NCoef="0"                     IVar="-1" Cut="     0.000000E+00" cType="1"                     res="    -5.555663E-01" rms="0.0e-00"                     purity="0.00000000E+00" nType="-99">
                            </Node>
                            <Node pos="r" depth="7" NCoef="0"                     IVar="-1" Cut="     0.000000E+00" cType="1"                     res="    -3.069548E-01" rms="0.0e-00"                     purity="0.00000000E+00" nType="-99">
                            </Node>
                        </Node>
                    </Node>
                </Node>
            </Node>
            <Node pos="r" depth="3" NCoef="0"                     IVar="Smin_lltautau" Cut="     9.136962E-01" cType="1"                     res="     0.000000E+00" rms="0.0"                     purity="0.00000000E+00" nType="0">
                <Node pos="l" depth="4" NCoef="0"                     IVar="ptTauTauVis" Cut="     9.170414E-01" cType="1"                     res="     0.000000E+00" rms="0.0"                     purity="0.00000000E+00" nType="0">
                    <Node pos="l" depth="5" NCoef="0"                     IVar="dr_lep_tau_min_OS" Cut="     4.799141E-01" cType="1"                     res="     0.000000E+00" rms="0.0"                     purity="0.00000000E+00" nType="0">
                        <Node pos="l" depth="6" NCoef="0"                     IVar="Smin_lltautau" Cut="     6.867227E-01" cType="1"                     res="     0.000000E+00" rms="0.0"                     purity="0.00000000E+00" nType="0">
                            <Node pos="l" depth="7" NCoef="0"                     IVar="-1" Cut="     0.000000E+00" cType="1"                     res="     7.296551E-02" rms="0.0e-00"                     purity="0.00000000E+00" nType="-99">
                            </Node>
                            <Node pos="r" depth="7" NCoef="0"                     IVar="-1" Cut="     0.000000E+00" cType="1"                     res="     5.144019E-01" rms="0.0e-00"                     purity="0.00000000E+00" nType="-99">
                            </Node>
                        </Node>
                        <Node pos="r" depth="6" NCoef="0"                     IVar="met" Cut="     1.250149E+00" cType="1"                     res="     0.000000E+00" rms="0.0"                     purity="0.00000000E+00" nType="0">
                            <Node pos="l" depth="7" NCoef="0"                     IVar="-1" Cut="     0.000000E+00" cType="1"                     res="    -3.557837E-01" rms="0.0e-00"                     purity="0.00000000E+00" nType="-99">
                            </Node>
                            <Node pos="r" depth="7" NCoef="0"                     IVar="-1" Cut="     0.000000E+00" cType="1"                     res="     1.995265E-01" rms="0.0e-00"                     purity="0.00000000E+00" nType="-99">
                            </Node>
                        </Node>
                    </Node>
                    <Node pos="r" depth="5" NCoef="0"                     IVar="mTauTauVis" Cut="     2.435451E-01" cType="1"                     res="     0.000000E+00" rms="0.0"                     purity="0.00000000E+00" nType="0">
                        <Node pos="l" depth="6" NCoef="0"                     IVar="dr_lep_tau_min_OS" Cut="    -4.784863E-01" cType="1"                     res="     0.000000E+00" rms="0.0"                     purity="0.00000000E+00" nType="0">
                            <Node pos="l" depth="7" NCoef="0"                     IVar="-1" Cut="     0.000000E+00" cType="1"                     res="     4.503051E-01" rms="0.0e-00"                     purity="0.00000000E+00" nType="-99">
                            </Node>
                            <Node pos="r" depth="7" NCoef="0"                     IVar="-1" Cut="     0.000000E+00" cType="1"                     res="    -5.840580E-01" rms="0.0e-00"                     purity="0.00000000E+00" nType="-99">
                            </Node>
                        </Node>
                        <Node pos="r" depth="6" NCoef="0"                     IVar="dr_leps" Cut="     4.126729E+00" cType="1"                     res="     0.000000E+00" rms="0.0"                     purity="0.00000000E+00" nType="0">
                            <Node pos="l" depth="7" NCoef="0"                     IVar="-1" Cut="     0.000000E+00" cType="1"                     res="     4.543802E-01" rms="0.0e-00"                     purity="0.00000000E+00" nType="-99">
                            </Node>
                            <Node pos="r" depth="7" NCoef="0"                     IVar="-1" Cut="     0.000000E+00" cType="1"                     res="     1.563271E-01" rms="0.0e-00"                     purity="0.00000000E+00" nType="-99">
                            </Node>
                        </Node>
                    </Node>
                </Node>
                <Node pos="r" depth="4" NCoef="0"                     IVar="met" Cut="     6.062860E-01" cType="1"                     res="     0.000000E+00" rms="0.0"                     purity="0.00000000E+00" nType="0">
                    <Node pos="l" depth="5" NCoef="0"                     IVar="ptTauTauVis" Cut="     1.409499E+00" cType="1"                     res="     0.000000E+00" rms="0.0"                     purity="0.00000000E+00" nType="0">
                        <Node pos="l" depth="6" NCoef="0"                     IVar="dr_lep1_tau1_tau2_min" Cut="     2.272995E+00" cType="1"                     res="     0.000000E+00" rms="0.0"                     purity="0.00000000E+00" nType="0">
                            <Node pos="l" depth="7" NCoef="0"                     IVar="-1" Cut="     0.000000E+00" cType="1"                     res="     5.026064E-01" rms="0.0e-00"                     purity="0.00000000E+00" nType="-99">
                            </Node>
                            <Node pos="r" depth="7" NCoef="0"                     IVar="-1" Cut="     0.000000E+00" cType="1"                     res="    -2.523983E-01" rms="0.0e-00"                     purity="0.00000000E+00" nType="-99">
                            </Node>
                        </Node>
                        <Node pos="r" depth="6" NCoef="0"                     IVar="dr_lep1_tau1_tau2_min" Cut="     5.131478E+00" cType="1"                     res="     0.000000E+00" rms="0.0"                     purity="0.00000000E+00" nType="0">
                            <Node pos="l" depth="7" NCoef="0"                     IVar="-1" Cut="     0.000000E+00" cType="1"                     res="     5.153911E-01" rms="0.0e-00"                     purity="0.00000000E+00" nType="-99">
                            </Node>
                            <Node pos="r" depth="7" NCoef="0"                     IVar="-1" Cut="     0.000000E+00" cType="1"                     res="    -5.915295E-01" rms="0.0e-00"                     purity="0.00000000E+00" nType="-99">
                            </Node>
                        </Node>
                    </Node>
                    <Node pos="r" depth="5" NCoef="0"                     IVar="dr_lep1_tau1_tau2_min" Cut="     4.842584E+00" cType="1"                     res="     0.000000E+00" rms="0.0"                     purity="0.00000000E+00" nType="0">
                        <Node pos="l" depth="6" NCoef="0"                     IVar="mTauTauVis" Cut="     6.274383E-01" cType="1"                     res="     0.000000E+00" rms="0.0"                     purity="0.00000000E+00" nType="0">
                            <Node pos="l" depth="7" NCoef="0"                     IVar="-1" Cut="     0.000000E+00" cType="1"                     res="     4.487264E-01" rms="0.0e-00"                     purity="0.00000000E+00" nType="-99">
                            </Node>
                            <Node pos="r" depth="7" NCoef="0"                     IVar="-1" Cut="     0.000000E+00" cType="1"                     res="     5.616872E-01" rms="0.0e-00"                     purity="0.00000000E+00" nType="-99">
                            </Node>
                        </Node>
                        <Node pos="r" depth="6" NCoef="0"                     IVar="dr_leps" Cut="     2.497295E+00" cType="1"                     res="     0.000000E+00" rms="0.0"                     purity="0.00000000E+00" nType="0">
                            <Node pos="l" depth="7" NCoef="0"                     IVar="-1" Cut="     0.000000E+00" cType="1"                     res="     5.408254E-01" rms="0.0e-00"                     purity="0.00000000E+00" nType="-99">
                            </Node>
                            <Node pos="r" depth="7" NCoef="0"                     IVar="-1" Cut="     0.000000E+00" cType="1"                     res="    -5.251357E-01" rms="0.0e-00"                     purity="0.00000000E+00" nType="-99">
                            </Node>
                        </Node>
                    </Node>
                </Node>
            </Node>
        </Node>
    </Node>
</BinaryTree>
<BinaryTree type="DecisionTree" boostWeight="0.0"                 itree="1">
    <Node pos="c" depth="1" NCoef="0"                     IVar="diHiggsMass" Cut="     1.117323E+00" cType="1"                     res="     0.000000E+00" rms="0.0"                     purity="0.00000000E+00" nType="0">
        <Node pos="l" depth="2" NCoef="0"                     IVar="dr_leps" Cut="     1.972791E+00" cType="1"                     res="     0.000000E+00" rms="0.0"                     purity="0.00000000E+00" nType="0">
            <Node pos="l" depth="3" NCoef="0"                     IVar="gen_mHH" Cut="     4.750000E+02" cType="1"                     res="     0.000000E+00" rms="0.0"                     purity="0.00000000E+00" nType="0">
                <Node pos="l" depth="4" NCoef="0"                     IVar="diHiggsMass" Cut="     6.084954E-01" cType="1"                     res="     0.000000E+00" rms="0.0"                     purity="0.00000000E+00" nType="0">
                    <Node pos="l" depth="5" NCoef="0"                     IVar="met" Cut="     2.181570E+00" cType="1"                     res="     0.000000E+00" rms="0.0"                     purity="0.00000000E+00" nType="0">
                        <Node pos="l" depth="6" NCoef="0"                     IVar="Smin_lltautau" Cut="     1.189271E+00" cType="1"                     res="     0.000000E+00" rms="0.0"                     purity="0.00000000E+00" nType="0">
                            <Node pos="l" depth="7" NCoef="0"                     IVar="-1" Cut="     0.000000E+00" cType="1"                     res="    -6.346388E-02" rms="0.0e-00"                     purity="0.00000000E+00" nType="-99">
                            </Node>
                            <Node pos="r" depth="7" NCoef="0"                     IVar="-1" Cut="     0.000000E+00" cType="1"                     res="    -4.411955E-01" rms="0.0e-00"                     purity="0.00000000E+00" nType="-99">
                            </Node>
                        </Node>
                        <Node pos="r" depth="6" NCoef="0"                     IVar="Smin_llMEt" Cut="     1.274246E+00" cType="1"                     res="     0.000000E+00" rms="0.0"                     purity="0.00000000E+00" nType="0">
                            <Node pos="l" depth="7" NCoef="0"                     IVar="-1" Cut="     0.000000E+00" cType="1"                     res="     3.399501E-01" rms="0.0e-00"                     purity="0.00000000E+00" nType="-99">
                            </Node>
                            <Node pos="r" depth="7" NCoef="0"                     IVar="-1" Cut="     0.000000E+00" cType="1"                     res="    -4.854138E-01" rms="0.0e-00"                     purity="0.00000000E+00" nType="-99">
                            </Node>
                        </Node>
                    </Node>
                    <Node pos="r" depth="5" NCoef="0"                     IVar="mTauTauVis" Cut="     4.193698E-01" cType="1"                     res="     0.000000E+00" rms="0.0"                     purity="0.00000000E+00" nType="0">
                        <Node pos="l" depth="6" NCoef="0"                     IVar="dr_leps" Cut="     1.775698E+00" cType="1"                     res="     0.000000E+00" rms="0.0"                     purity="0.00000000E+00" nType="0">
                            <Node pos="l" depth="7" NCoef="0"                     IVar="-1" Cut="     0.000000E+00" cType="1"                     res="     1.862866E-01" rms="0.0e-00"                     purity="0.00000000E+00" nType="-99">
                            </Node>
                            <Node pos="r" depth="7" NCoef="0"                     IVar="-1" Cut="     0.000000E+00" cType="1"                     res="    -3.689650E-01" rms="0.0e-00"                     purity="0.00000000E+00" nType="-99">
                            </Node>
                        </Node>
                        <Node pos="r" depth="6" NCoef="0"                     IVar="Smin_llMEt" Cut="     1.300271E+00" cType="1"                     res="     0.000000E+00" rms="0.0"                     purity="0.00000000E+00" nType="0">
                            <Node pos="l" depth="7" NCoef="0"                     IVar="-1" Cut="     0.000000E+00" cType="1"                     res="     3.862194E-01" rms="0.0e-00"                     purity="0.00000000E+00" nType="-99">
                            </Node>
                            <Node pos="r" depth="7" NCoef="0"                     IVar="-1" Cut="     0.000000E+00" cType="1"                     res="    -1.250820E-01" rms="0.0e-00"                     purity="0.00000000E+00" nType="-99">
                            </Node>
                        </Node>
                    </Node>
                </Node>
                <Node pos="r" depth="4" NCoef="0"                     IVar="ptTauTauVis" Cut="     1.284990E+00" cType="1"                     res="     0.000000E+00" rms="0.0"                     purity="0.00000000E+00" nType="0">
                    <Node pos="l" depth="5" NCoef="0"                     IVar="met" Cut="     1.850368E+00" cType="1"                     res="     0.000000E+00" rms="0.0"                     purity="0.00000000E+00" nType="0">
                        <Node pos="l" depth="6" NCoef="0"                     IVar="gen_mHH" Cut="     5.750000E+02" cType="1"                     res="     0.000000E+00" rms="0.0"                     purity="0.00000000E+00" nType="0">
                            <Node pos="l" depth="7" NCoef="0"                     IVar="-1" Cut="     0.000000E+00" cType="1"                     res="    -1.107556E-01" rms="0.0e-00"                     purity="0.00000000E+00" nType="-99">
                            </Node>
                            <Node pos="r" depth="7" NCoef="0"                     IVar="-1" Cut="     0.000000E+00" cType="1"                     res="    -4.189096E-01" rms="0.0e-00"                     purity="0.00000000E+00" nType="-99">
                            </Node>
                        </Node>
                        <Node pos="r" depth="6" NCoef="0"                     IVar="Smin_lltautau" Cut="     8.859314E-01" cType="1"                     res="     0.000000E+00" rms="0.0"                     purity="0.00000000E+00" nType="0">
                            <Node pos="l" depth="7" NCoef="0"                     IVar="-1" Cut="     0.000000E+00" cType="1"                     res="    -1.339363E-01" rms="0.0e-00"                     purity="0.00000000E+00" nType="-99">
                            </Node>
                            <Node pos="r" depth="7" NCoef="0"                     IVar="-1" Cut="     0.000000E+00" cType="1"                     res="     3.385454E-01" rms="0.0e-00"                     purity="0.00000000E+00" nType="-99">
                            </Node>
                        </Node>
                    </Node>
                    <Node pos="r" depth="5" NCoef="0"                     IVar="mTauTauVis" Cut="     1.321913E+00" cType="1"                     res="     0.000000E+00" rms="0.0"                     purity="0.00000000E+00" nType="0">
                        <Node pos="l" depth="6" NCoef="0"                     IVar="dr_leps" Cut="     1.731243E+00" cType="1"                     res="     0.000000E+00" rms="0.0"                     purity="0.00000000E+00" nType="0">
                            <Node pos="l" depth="7" NCoef="0"                     IVar="-1" Cut="     0.000000E+00" cType="1"                     res="     3.915196E-01" rms="0.0e-00"                     purity="0.00000000E+00" nType="-99">
                            </Node>
                            <Node pos="r" depth="7" NCoef="0"                     IVar="-1" Cut="     0.000000E+00" cType="1"                     res="    -3.502449E-03" rms="0.0e-00"                     purity="0.00000000E+00" nType="-99">
                            </Node>
                        </Node>
                        <Node pos="r" depth="6" NCoef="0"                     IVar="met" Cut="     1.535007E+00" cType="1"                     res="     0.000000E+00" rms="0.0"                     purity="0.00000000E+00" nType="0">
                            <Node pos="l" depth="7" NCoef="0"                     IVar="-1" Cut="     0.000000E+00" cType="1"                     res="    -4.591900E-01" rms="0.0e-00"                     purity="0.00000000E+00" nType="-99">
                            </Node>
                            <Node pos="r" depth="7" NCoef="0"                     IVar="-1" Cut="     0.000000E+00" cType="1"                     res="     1.907102E-01" rms="0.0e-00"                     purity="0.00000000E+00" nType="-99">
                            </Node>
                        </Node>
                    </Node>
                </Node>
            </Node>
            <Node pos="r" depth="3" NCoef="0"                     IVar="gen_mHH" Cut="     4.750000E+02" cType="1"                     res="     0.000000E+00" rms="0.0"                     purity="0.00000000E+00" nType="0">
                <Node pos="l" depth="4" NCoef="0"                     IVar="dr_lep_tau_min_OS" Cut="     6.357770E-01" cType="1"                     res="     0.000000E+00" rms="0.0"                     purity="0.00000000E+00" nType="0">
                    <Node pos="l" depth="5" NCoef="0"                     IVar="dr_lep_tau_min_OS" Cut="     4.691834E-01" cType="1"                     res="     0.000000E+00" rms="0.0"                     purity="0.00000000E+00" nType="0">
                        <Node pos="l" depth="6" NCoef="0"                     IVar="dr_lep1_tau1_tau2_min" Cut="     4.016862E+00" cType="1"                     res="     0.000000E+00" rms="0.0"                     purity="0.00000000E+00" nType="0">
                            <Node pos="l" depth="7" NCoef="0"                     IVar="-1" Cut="     0.000000E+00" cType="1"                     res="     3.690739E-01" rms="0.0e-00"                     purity="0.00000000E+00" nType="-99">
                            </Node>
                            <Node pos="r" depth="7" NCoef="0"                     IVar="-1" Cut="     0.000000E+00" cType="1"                     res="    -1.866732E-01" rms="0.0e-00"                     purity="0.00000000E+00" nType="-99">
                            </Node>
                        </Node>
                        <Node pos="r" depth="6" NCoef="0"                     IVar="Smin_lltautau" Cut="     9.505473E-01" cType="1"                     res="     0.000000E+00" rms="0.0"                     purity="0.00000000E+00" nType="0">
                            <Node pos="l" depth="7" NCoef="0"                     IVar="-1" Cut="     0.000000E+00" cType="1"                     res="     2.873182E-01" rms="0.0e-00"                     purity="0.00000000E+00" nType="-99">
                            </Node>
                            <Node pos="r" depth="7" NCoef="0"                     IVar="-1" Cut="     0.000000E+00" cType="1"                     res="    -5.025777E-01" rms="0.0e-00"                     purity="0.00000000E+00" nType="-99">
                            </Node>
                        </Node>
                    </Node>
                    <Node pos="r" depth="5" NCoef="0"                     IVar="dr_lep_tau_min_OS" Cut="     7.767524E-01" cType="1"                     res="     0.000000E+00" rms="0.0"                     purity="0.00000000E+00" nType="0">
                        <Node pos="l" depth="6" NCoef="0"                     IVar="tau1_eta" Cut="     6.167505E-01" cType="1"                     res="     0.000000E+00" rms="0.0"                     purity="0.00000000E+00" nType="0">
                            <Node pos="l" depth="7" NCoef="0"                     IVar="-1" Cut="     0.000000E+00" cType="1"                     res="     2.593326E-01" rms="0.0e-00"                     purity="0.00000000E+00" nType="-99">
                            </Node>
                            <Node pos="r" depth="7" NCoef="0"                     IVar="-1" Cut="     0.000000E+00" cType="1"                     res="    -4.655721E-01" rms="0.0e-00"                     purity="0.00000000E+00" nType="-99">
                            </Node>
                        </Node>
                        <Node pos="r" depth="6" NCoef="0"                     IVar="dr_lep1_tau1_tau2_min" Cut="     3.072680E+00" cType="1"                     res="     0.000000E+00" rms="0.0"                     purity="0.00000000E+00" nType="0">
                            <Node pos="l" depth="7" NCoef="0"                     IVar="-1" Cut="     0.000000E+00" cType="1"                     res="     1.145633E-02" rms="0.0e-00"                     purity="0.00000000E+00" nType="-99">
                            </Node>
                            <Node pos="r" depth="7" NCoef="0"                     IVar="-1" Cut="     0.000000E+00" cType="1"                     res="    -3.425399E-01" rms="0.0e-00"                     purity="0.00000000E+00" nType="-99">
                            </Node>
                        </Node>
                    </Node>
                </Node>
                <Node pos="r" depth="4" NCoef="0"                     IVar="met" Cut="     1.436385E+00" cType="1"                     res="     0.000000E+00" rms="0.0"                     purity="0.00000000E+00" nType="0">
                    <Node pos="l" depth="5" NCoef="0"                     IVar="dr_lep_tau_min_OS" Cut="     5.241393E-01" cType="1"                     res="     0.000000E+00" rms="0.0"                     purity="0.00000000E+00" nType="0">
                        <Node pos="l" depth="6" NCoef="0"                     IVar="dr_lep1_tau1_tau2_min" Cut="     1.692590E+00" cType="1"                     res="     0.000000E+00" rms="0.0"                     purity="0.00000000E+00" nType="0">
                            <Node pos="l" depth="7" NCoef="0"                     IVar="-1" Cut="     0.000000E+00" cType="1"                     res="     1.628525E-01" rms="0.0e-00"                     purity="0.00000000E+00" nType="-99">
                            </Node>
                            <Node pos="r" depth="7" NCoef="0"                     IVar="-1" Cut="     0.000000E+00" cType="1"                     res="    -3.994716E-01" rms="0.0e-00"                     purity="0.00000000E+00" nType="-99">
                            </Node>
                        </Node>
                        <Node pos="r" depth="6" NCoef="0"                     IVar="diHiggsMass" Cut="     9.945682E-01" cType="1"                     res="     0.000000E+00" rms="0.0"                     purity="0.00000000E+00" nType="0">
                            <Node pos="l" depth="7" NCoef="0"                     IVar="-1" Cut="     0.000000E+00" cType="1"                     res="    -4.538935E-01" rms="0.0e-00"                     purity="0.00000000E+00" nType="-99">
                            </Node>
                            <Node pos="r" depth="7" NCoef="0"                     IVar="-1" Cut="     0.000000E+00" cType="1"                     res="    -3.358712E-01" rms="0.0e-00"                     purity="0.00000000E+00" nType="-99">
                            </Node>
                        </Node>
                    </Node>
                    <Node pos="r" depth="5" NCoef="0"                     IVar="dr_lep_tau_min_OS" Cut="     1.043962E+00" cType="1"                     res="     0.000000E+00" rms="0.0"                     purity="0.00000000E+00" nType="0">
                        <Node pos="l" depth="6" NCoef="0"                     IVar="Smin_lltautau" Cut="     8.942412E-01" cType="1"                     res="     0.000000E+00" rms="0.0"                     purity="0.00000000E+00" nType="0">
                            <Node pos="l" depth="7" NCoef="0"                     IVar="-1" Cut="     0.000000E+00" cType="1"                     res="    -1.684831E-02" rms="0.0e-00"                     purity="0.00000000E+00" nType="-99">
                            </Node>
                            <Node pos="r" depth="7" NCoef="0"                     IVar="-1" Cut="     0.000000E+00" cType="1"                     res="     4.126414E-01" rms="0.0e-00"                     purity="0.00000000E+00" nType="-99">
                            </Node>
                        </Node>
                        <Node pos="r" depth="6" NCoef="0"                     IVar="ptTauTauVis" Cut="     1.842997E+00" cType="1"                     res="     0.000000E+00" rms="0.0"                     purity="0.00000000E+00" nType="0">
                            <Node pos="l" depth="7" NCoef="0"                     IVar="-1" Cut="     0.000000E+00" cType="1"                     res="    -3.071794E-01" rms="0.0e-00"                     purity="0.00000000E+00" nType="-99">
                            </Node>
                            <Node pos="r" depth="7" NCoef="0"                     IVar="-1" Cut="     0.000000E+00" cType="1"                     res="     2.944237E-01" rms="0.0e-00"                     purity="0.00000000E+00" nType="-99">
                            </Node>
                        </Node>
                    </Node>
                </Node>
            </Node>
        </Node>
        <Node pos="r" depth="2" NCoef="0"                     IVar="gen_mHH" Cut="     3.750000E+02" cType="1"                     res="     0.000000E+00" rms="0.0"                     purity="0.00000000E+00" nType="0">
            <Node pos="l" depth="3" NCoef="0"                     IVar="Smin_lltautau" Cut="     9.710617E-01" cType="1"                     res="     0.000000E+00" rms="0.0"                     purity="0.00000000E+00" nType="0">
                <Node pos="l" depth="4" NCoef="0"                     IVar="dr_leps" Cut="     2.777808E+00" cType="1"                     res="     0.000000E+00" rms="0.0"                     purity="0.00000000E+00" nType="0">
                    <Node pos="l" depth="5" NCoef="0"                     IVar="mTauTauVis" Cut="     1.688742E-01" cType="1"                     res="     0.000000E+00" rms="0.0"                     purity="0.00000000E+00" nType="0">
                        <Node pos="l" depth="6" NCoef="0"                     IVar="-1" Cut="     0.000000E+00" cType="1"                     res="    -5.296537E-01" rms="0.0e-00"                     purity="0.00000000E+00" nType="-99">
                        </Node>
                        <Node pos="r" depth="6" NCoef="0"                     IVar="dr_lep_tau_min_OS" Cut="     1.565171E+00" cType="1"                     res="     0.000000E+00" rms="0.0"                     purity="0.00000000E+00" nType="0">
                            <Node pos="l" depth="7" NCoef="0"                     IVar="-1" Cut="     0.000000E+00" cType="1"                     res="     4.661363E-01" rms="0.0e-00"                     purity="0.00000000E+00" nType="-99">
                            </Node>
                            <Node pos="r" depth="7" NCoef="0"                     IVar="-1" Cut="     0.000000E+00" cType="1"                     res="     2.663779E-01" rms="0.0e-00"                     purity="0.00000000E+00" nType="-99">
                            </Node>
                        </Node>
                    </Node>
                    <Node pos="r" depth="5" NCoef="0"                     IVar="mTauTauVis" Cut="     8.573744E-01" cType="1"                     res="     0.000000E+00" rms="0.0"                     purity="0.00000000E+00" nType="0">
                        <Node pos="l" depth="6" NCoef="0"                     IVar="dr_lep_tau_min_OS" Cut="     6.140973E-01" cType="1"                     res="     0.000000E+00" rms="0.0"                     purity="0.00000000E+00" nType="0">
                            <Node pos="l" depth="7" NCoef="0"                     IVar="-1" Cut="     0.000000E+00" cType="1"                     res="     3.608023E-01" rms="0.0e-00"                     purity="0.00000000E+00" nType="-99">
                            </Node>
                            <Node pos="r" depth="7" NCoef="0"                     IVar="-1" Cut="     0.000000E+00" cType="1"                     res="    -3.118759E-01" rms="0.0e-00"                     purity="0.00000000E+00" nType="-99">
                            </Node>
                        </Node>
                        <Node pos="r" depth="6" NCoef="0"                     IVar="Smin_lltautau" Cut="     8.324654E-01" cType="1"                     res="     0.000000E+00" rms="0.0"                     purity="0.00000000E+00" nType="0">
                            <Node pos="l" depth="7" NCoef="0"                     IVar="-1" Cut="     0.000000E+00" cType="1"                     res="     3.534014E-01" rms="0.0e-00"                     purity="0.00000000E+00" nType="-99">
                            </Node>
                            <Node pos="r" depth="7" NCoef="0"                     IVar="-1" Cut="     0.000000E+00" cType="1"                     res="    -1.452082E-01" rms="0.0e-00"                     purity="0.00000000E+00" nType="-99">
                            </Node>
                        </Node>
                    </Node>
                </Node>
                <Node pos="r" depth="4" NCoef="0"                     IVar="gen_mHH" Cut="     3.250000E+02" cType="1"                     res="     0.000000E+00" rms="0.0"                     purity="0.00000000E+00" nType="0">
                    <Node pos="l" depth="5" NCoef="0"                     IVar="dr_lep_tau_min_OS" Cut="     7.240052E-01" cType="1"                     res="     0.000000E+00" rms="0.0"                     purity="0.00000000E+00" nType="0">
                        <Node pos="l" depth="6" NCoef="0"                     IVar="dr_leps" Cut="     2.407821E+00" cType="1"                     res="     0.000000E+00" rms="0.0"                     purity="0.00000000E+00" nType="0">
                            <Node pos="l" depth="7" NCoef="0"                     IVar="-1" Cut="     0.000000E+00" cType="1"                     res="     4.010003E-01" rms="0.0e-00"                     purity="0.00000000E+00" nType="-99">
                            </Node>
                            <Node pos="r" depth="7" NCoef="0"                     IVar="-1" Cut="     0.000000E+00" cType="1"                     res="    -4.683636E-01" rms="0.0e-00"                     purity="0.00000000E+00" nType="-99">
                            </Node>
                        </Node>
                        <Node pos="r" depth="6" NCoef="0"                     IVar="ptTauTauVis" Cut="     6.418876E+00" cType="1"                     res="     0.000000E+00" rms="0.0"                     purity="0.00000000E+00" nType="0">
                            <Node pos="l" depth="7" NCoef="0"                     IVar="-1" Cut="     0.000000E+00" cType="1"                     res="    -4.763824E-01" rms="0.0e-00"                     purity="0.00000000E+00" nType="-99">
                            </Node>
                            <Node pos="r" depth="7" NCoef="0"                     IVar="-1" Cut="     0.000000E+00" cType="1"                     res="     1.970500E-01" rms="0.0e-00"                     purity="0.00000000E+00" nType="-99">
                            </Node>
                        </Node>
                    </Node>
                    <Node pos="r" depth="5" NCoef="0"                     IVar="dr_leps" Cut="     1.618629E+00" cType="1"                     res="     0.000000E+00" rms="0.0"                     purity="0.00000000E+00" nType="0">
                        <Node pos="l" depth="6" NCoef="0"                     IVar="Smin_lltautau" Cut="     1.286278E+00" cType="1"                     res="     0.000000E+00" rms="0.0"                     purity="0.00000000E+00" nType="0">
                            <Node pos="l" depth="7" NCoef="0"                     IVar="-1" Cut="     0.000000E+00" cType="1"                     res="     4.051215E-01" rms="0.0e-00"                     purity="0.00000000E+00" nType="-99">
                            </Node>
                            <Node pos="r" depth="7" NCoef="0"                     IVar="-1" Cut="     0.000000E+00" cType="1"                     res="    -4.553496E-01" rms="0.0e-00"                     purity="0.00000000E+00" nType="-99">
                            </Node>
                        </Node>
                        <Node pos="r" depth="6" NCoef="0"                     IVar="tau1_eta" Cut="     2.372289E+00" cType="1"                     res="     0.000000E+00" rms="0.0"                     purity="0.00000000E+00" nType="0">
                            <Node pos="l" depth="7" NCoef="0"                     IVar="-1" Cut="     0.000000E+00" cType="1"                     res="    -4.349822E-01" rms="0.0e-00"                     purity="0.00000000E+00" nType="-99">
                            </Node>
                            <Node pos="r" depth="7" NCoef="0"                     IVar="-1" Cut="     0.000000E+00" cType="1"                     res="     1.966912E-01" rms="0.0e-00"                     purity="0.00000000E+00" nType="-99">
                            </Node>
                        </Node>
                    </Node>
                </Node>
            </Node>
            <Node pos="r" depth="3" NCoef="0"                     IVar="Smin_lltautau" Cut="     8.544736E-01" cType="1"                     res="     0.000000E+00" rms="0.0"                     purity="0.00000000E+00" nType="0">
                <Node pos="l" depth="4" NCoef="0"                     IVar="dr_leps" Cut="     2.609212E+00" cType="1"                     res="     0.000000E+00" rms="0.0"                     purity="0.00000000E+00" nType="0">
                    <Node pos="l" depth="5" NCoef="0"                     IVar="ptTauTauVis" Cut="     6.374962E-01" cType="1"                     res="     0.000000E+00" rms="0.0"                     purity="0.00000000E+00" nType="0">
                        <Node pos="l" depth="6" NCoef="0"                     IVar="dr_lep_tau_min_OS" Cut="    -1.463871E+00" cType="1"                     res="     0.000000E+00" rms="0.0"                     purity="0.00000000E+00" nType="0">
                            <Node pos="l" depth="7" NCoef="0"                     IVar="-1" Cut="     0.000000E+00" cType="1"                     res="     4.192244E-01" rms="0.0e-00"                     purity="0.00000000E+00" nType="-99">
                            </Node>
                            <Node pos="r" depth="7" NCoef="0"                     IVar="-1" Cut="     0.000000E+00" cType="1"                     res="    -3.598875E-01" rms="0.0e-00"                     purity="0.00000000E+00" nType="-99">
                            </Node>
                        </Node>
                        <Node pos="r" depth="6" NCoef="0"                     IVar="gen_mHH" Cut="     9.500000E+02" cType="1"                     res="     0.000000E+00" rms="0.0"                     purity="0.00000000E+00" nType="0">
                            <Node pos="l" depth="7" NCoef="0"                     IVar="-1" Cut="     0.000000E+00" cType="1"                     res="     3.489916E-01" rms="0.0e-00"                     purity="0.00000000E+00" nType="-99">
                            </Node>
                            <Node pos="r" depth="7" NCoef="0"                     IVar="-1" Cut="     0.000000E+00" cType="1"                     res="    -6.474484E-01" rms="0.0e-00"                     purity="0.00000000E+00" nType="-99">
                            </Node>
                        </Node>
                    </Node>
                    <Node pos="r" depth="5" NCoef="0"                     IVar="dr_lep_tau_min_OS" Cut="    -4.910241E-01" cType="1"                     res="     0.000000E+00" rms="0.0"                     purity="0.00000000E+00" nType="0">
                        <Node pos="l" depth="6" NCoef="0"                     IVar="Smin_lltautau" Cut="     7.175971E-01" cType="1"                     res="     0.000000E+00" rms="0.0"                     purity="0.00000000E+00" nType="0">
                            <Node pos="l" depth="7" NCoef="0"                     IVar="-1" Cut="     0.000000E+00" cType="1"                     res="     1.891579E-01" rms="0.0e-00"                     purity="0.00000000E+00" nType="-99">
                            </Node>
                            <Node pos="r" depth="7" NCoef="0"                     IVar="-1" Cut="     0.000000E+00" cType="1"                     res="     3.812480E-01" rms="0.0e-00"                     purity="0.00000000E+00" nType="-99">
                            </Node>
                        </Node>
                        <Node pos="r" depth="6" NCoef="0"                     IVar="mTauTauVis" Cut="     7.682316E-01" cType="1"                     res="     0.000000E+00" rms="0.0"                     purity="0.00000000E+00" nType="0">
                            <Node pos="l" depth="7" NCoef="0"                     IVar="-1" Cut="     0.000000E+00" cType="1"                     res="    -4.096130E-01" rms="0.0e-00"                     purity="0.00000000E+00" nType="-99">
                            </Node>
                            <Node pos="r" depth="7" NCoef="0"                     IVar="-1" Cut="     0.000000E+00" cType="1"                     res="    -9.307469E-02" rms="0.0e-00"                     purity="0.00000000E+00" nType="-99">
                            </Node>
                        </Node>
                    </Node>
                </Node>
                <Node pos="r" depth="4" NCoef="0"                     IVar="met" Cut="     8.482964E-01" cType="1"                     res="     0.000000E+00" rms="0.0"                     purity="0.00000000E+00" nType="0">
                    <Node pos="l" depth="5" NCoef="0"                     IVar="ptTauTauVis" Cut="     1.353707E+00" cType="1"                     res="     0.000000E+00" rms="0.0"                     purity="0.00000000E+00" nType="0">
                        <Node pos="l" depth="6" NCoef="0"                     IVar="dr_lep1_tau1_tau2_min" Cut="     2.272990E+00" cType="1"                     res="     0.000000E+00" rms="0.0"                     purity="0.00000000E+00" nType="0">
                            <Node pos="l" depth="7" NCoef="0"                     IVar="-1" Cut="     0.000000E+00" cType="1"                     res="     3.681433E-01" rms="0.0e-00"                     purity="0.00000000E+00" nType="-99">
                            </Node>
                            <Node pos="r" depth="7" NCoef="0"                     IVar="-1" Cut="     0.000000E+00" cType="1"                     res="    -2.136075E-01" rms="0.0e-00"                     purity="0.00000000E+00" nType="-99">
                            </Node>
                        </Node>
                        <Node pos="r" depth="6" NCoef="0"                     IVar="dr_leps" Cut="     1.461111E+00" cType="1"                     res="     0.000000E+00" rms="0.0"                     purity="0.00000000E+00" nType="0">
                            <Node pos="l" depth="7" NCoef="0"                     IVar="-1" Cut="     0.000000E+00" cType="1"                     res="     4.345884E-01" rms="0.0e-00"                     purity="0.00000000E+00" nType="-99">
                            </Node>
                            <Node pos="r" depth="7" NCoef="0"                     IVar="-1" Cut="     0.000000E+00" cType="1"                     res="     2.826586E-01" rms="0.0e-00"                     purity="0.00000000E+00" nType="-99">
                            </Node>
                        </Node>
                    </Node>
                    <Node pos="r" depth="5" NCoef="0"                     IVar="mTauTauVis" Cut="     6.945314E-01" cType="1"                     res="     0.000000E+00" rms="0.0"                     purity="0.00000000E+00" nType="0">
                        <Node pos="l" depth="6" NCoef="0"                     IVar="dr_leps" Cut="     1.591583E+00" cType="1"                     res="     0.000000E+00" rms="0.0"                     purity="0.00000000E+00" nType="0">
                            <Node pos="l" depth="7" NCoef="0"                     IVar="-1" Cut="     0.000000E+00" cType="1"                     res="     4.334944E-01" rms="0.0e-00"                     purity="0.00000000E+00" nType="-99">
                            </Node>
                            <Node pos="r" depth="7" NCoef="0"                     IVar="-1" Cut="     0.000000E+00" cType="1"                     res="     1.006139E-01" rms="0.0e-00"                     purity="0.00000000E+00" nType="-99">
                            </Node>
                        </Node>
                        <Node pos="r" depth="6" NCoef="0"                     IVar="tau1_eta" Cut="     1.943172E+00" cType="1"                     res="     0.000000E+00" rms="0.0"                     purity="0.00000000E+00" nType="0">
                            <Node pos="l" depth="7" NCoef="0"                     IVar="-1" Cut="     0.000000E+00" cType="1"                     res="     4.457073E-01" rms="0.0e-00"                     purity="0.00000000E+00" nType="-99">
                            </Node>
                            <Node pos="r" depth="7" NCoef="0"                     IVar="-1" Cut="     0.000000E+00" cType="1"                     res="     3.143972E-01" rms="0.0e-00"                     purity="0.00000000E+00" nType="-99">
                            </Node>
                        </Node>
                    </Node>
                </Node>
            </Node>
        </Node>
    </Node>
</BinaryTree>
<BinaryTree type="DecisionTree" boostWeight="0.0"                 itree="2">
    <Node pos="c" depth="1" NCoef="0"                     IVar="met" Cut="     1.170357E+00" cType="1"                     res="     0.000000E+00" rms="0.0"                     purity="0.00000000E+00" nType="0">
        <Node pos="l" depth="2" NCoef="0"                     IVar="dr_leps" Cut="     1.688749E+00" cType="1"                     res="     0.000000E+00" rms="0.0"                     purity="0.00000000E+00" nType="0">
            <Node pos="l" depth="3" NCoef="0"                     IVar="diHiggsMass" Cut="     6.399713E-01" cType="1"                     res="     0.000000E+00" rms="0.0"                     purity="0.00000000E+00" nType="0">
                <Node pos="l" depth="4" NCoef="0"                     IVar="dr_leps" Cut="     3.172547E-01" cType="1"                     res="     0.000000E+00" rms="0.0"                     purity="0.00000000E+00" nType="0">
                    <Node pos="l" depth="5" NCoef="0"                     IVar="diHiggsMass" Cut="    -2.411426E-03" cType="1"                     res="     0.000000E+00" rms="0.0"                     purity="0.00000000E+00" nType="0">
                        <Node pos="l" depth="6" NCoef="0"                     IVar="-1" Cut="     0.000000E+00" cType="1"                     res="    -4.663847E-01" rms="0.0e-00"                     purity="0.00000000E+00" nType="-99">
                        </Node>
                        <Node pos="r" depth="6" NCoef="0"                     IVar="dr_lep_tau_min_OS" Cut="     2.348369E+00" cType="1"                     res="     0.000000E+00" rms="0.0"                     purity="0.00000000E+00" nType="0">
                            <Node pos="l" depth="7" NCoef="0"                     IVar="-1" Cut="     0.000000E+00" cType="1"                     res="    -6.009555E-01" rms="0.0e-00"                     purity="0.00000000E+00" nType="-99">
                            </Node>
                            <Node pos="r" depth="7" NCoef="0"                     IVar="-1" Cut="     0.000000E+00" cType="1"                     res="     4.413374E-01" rms="0.0e-00"                     purity="0.00000000E+00" nType="-99">
                            </Node>
                        </Node>
                    </Node>
                    <Node pos="r" depth="5" NCoef="0"                     IVar="mTauTauVis" Cut="     7.922328E-01" cType="1"                     res="     0.000000E+00" rms="0.0"                     purity="0.00000000E+00" nType="0">
                        <Node pos="l" depth="6" NCoef="0"                     IVar="ptTauTauVis" Cut="     1.151196E+00" cType="1"                     res="     0.000000E+00" rms="0.0"                     purity="0.00000000E+00" nType="0">
                            <Node pos="l" depth="7" NCoef="0"                     IVar="-1" Cut="     0.000000E+00" cType="1"                     res="    -2.511324E-01" rms="0.0e-00"                     purity="0.00000000E+00" nType="-99">
                            </Node>
                            <Node pos="r" depth="7" NCoef="0"                     IVar="-1" Cut="     0.000000E+00" cType="1"                     res="     2.148411E-01" rms="0.0e-00"                     purity="0.00000000E+00" nType="-99">
                            </Node>
                        </Node>
                        <Node pos="r" depth="6" NCoef="0"                     IVar="Smin_llMEt" Cut="     3.148546E-01" cType="1"                     res="     0.000000E+00" rms="0.0"                     purity="0.00000000E+00" nType="0">
                            <Node pos="l" depth="7" NCoef="0"                     IVar="-1" Cut="     0.000000E+00" cType="1"                     res="     8.062233E-02" rms="0.0e-00"                     purity="0.00000000E+00" nType="-99">
                            </Node>
                            <Node pos="r" depth="7" NCoef="0"                     IVar="-1" Cut="     0.000000E+00" cType="1"                     res="    -3.951875E-01" rms="0.0e-00"                     purity="0.00000000E+00" nType="-99">
                            </Node>
                        </Node>
                    </Node>
                </Node>
                <Node pos="r" depth="4" NCoef="0"                     IVar="dr_leps" Cut="     1.285039E+00" cType="1"                     res="     0.000000E+00" rms="0.0"                     purity="0.00000000E+00" nType="0">
                    <Node pos="l" depth="5" NCoef="0"                     IVar="ptTauTauVis" Cut="     1.321646E+00" cType="1"                     res="     0.000000E+00" rms="0.0"                     purity="0.00000000E+00" nType="0">
                        <Node pos="l" depth="6" NCoef="0"                     IVar="met" Cut="     4.506808E-01" cType="1"                     res="     0.000000E+00" rms="0.0"                     purity="0.00000000E+00" nType="0">
                            <Node pos="l" depth="7" NCoef="0"                     IVar="-1" Cut="     0.000000E+00" cType="1"                     res="     4.462292E-02" rms="0.0e-00"                     purity="0.00000000E+00" nType="-99">
                            </Node>
                            <Node pos="r" depth="7" NCoef="0"                     IVar="-1" Cut="     0.000000E+00" cType="1"                     res="     2.847845E-01" rms="0.0e-00"                     purity="0.00000000E+00" nType="-99">
                            </Node>
                        </Node>
                        <Node pos="r" depth="6" NCoef="0"                     IVar="Smin_lltautau" Cut="     2.588138E+00" cType="1"                     res="     0.000000E+00" rms="0.0"                     purity="0.00000000E+00" nType="0">
                            <Node pos="l" depth="7" NCoef="0"                     IVar="-1" Cut="     0.000000E+00" cType="1"                     res="     3.640139E-01" rms="0.0e-00"                     purity="0.00000000E+00" nType="-99">
                            </Node>
                            <Node pos="r" depth="7" NCoef="0"                     IVar="-1" Cut="     0.000000E+00" cType="1"                     res="    -7.573892E-01" rms="0.0e-00"                     purity="0.00000000E+00" nType="-99">
                            </Node>
                        </Node>
                    </Node>
                    <Node pos="r" depth="5" NCoef="0"                     IVar="Smin_llMEt" Cut="     1.010290E+00" cType="1"                     res="     0.000000E+00" rms="0.0"                     purity="0.00000000E+00" nType="0">
                        <Node pos="l" depth="6" NCoef="0"                     IVar="met" Cut="     4.036745E-01" cType="1"                     res="     0.000000E+00" rms="0.0"                     purity="0.00000000E+00" nType="0">
                            <Node pos="l" depth="7" NCoef="0"                     IVar="-1" Cut="     0.000000E+00" cType="1"                     res="     1.543271E-02" rms="0.0e-00"                     purity="0.00000000E+00" nType="-99">
                            </Node>
                            <Node pos="r" depth="7" NCoef="0"                     IVar="-1" Cut="     0.000000E+00" cType="1"                     res="     2.704749E-01" rms="0.0e-00"                     purity="0.00000000E+00" nType="-99">
                            </Node>
                        </Node>
                        <Node pos="r" depth="6" NCoef="0"                     IVar="diHiggsMass" Cut="     1.317608E+00" cType="1"                     res="     0.000000E+00" rms="0.0"                     purity="0.00000000E+00" nType="0">
                            <Node pos="l" depth="7" NCoef="0"                     IVar="-1" Cut="     0.000000E+00" cType="1"                     res="    -4.622528E-01" rms="0.0e-00"                     purity="0.00000000E+00" nType="-99">
                            </Node>
                            <Node pos="r" depth="7" NCoef="0"                     IVar="-1" Cut="     0.000000E+00" cType="1"                     res="     7.531812E-02" rms="0.0e-00"                     purity="0.00000000E+00" nType="-99">
                            </Node>
                        </Node>
                    </Node>
                </Node>
            </Node>
            <Node pos="r" depth="3" NCoef="0"                     IVar="dr_lep_tau_min_OS" Cut="     5.269764E-01" cType="1"                     res="     0.000000E+00" rms="0.0"                     purity="0.00000000E+00" nType="0">
                <Node pos="l" depth="4" NCoef="0"                     IVar="dr_lep1_tau1_tau2_min" Cut="     1.916972E+00" cType="1"                     res="     0.000000E+00" rms="0.0"                     purity="0.00000000E+00" nType="0">
                    <Node pos="l" depth="5" NCoef="0"                     IVar="Smin_lltautau" Cut="     8.977391E-01" cType="1"                     res="     0.000000E+00" rms="0.0"                     purity="0.00000000E+00" nType="0">
                        <Node pos="l" depth="6" NCoef="0"                     IVar="gen_mHH" Cut="     7.250000E+02" cType="1"                     res="     0.000000E+00" rms="0.0"                     purity="0.00000000E+00" nType="0">
                            <Node pos="l" depth="7" NCoef="0"                     IVar="-1" Cut="     0.000000E+00" cType="1"                     res="     3.121628E-01" rms="0.0e-00"                     purity="0.00000000E+00" nType="-99">
                            </Node>
                            <Node pos="r" depth="7" NCoef="0"                     IVar="-1" Cut="     0.000000E+00" cType="1"                     res="     1.002175E-03" rms="0.0e-00"                     purity="0.00000000E+00" nType="-99">
                            </Node>
                        </Node>
                        <Node pos="r" depth="6" NCoef="0"                     IVar="gen_mHH" Cut="     3.750000E+02" cType="1"                     res="     0.000000E+00" rms="0.0"                     purity="0.00000000E+00" nType="0">
                            <Node pos="l" depth="7" NCoef="0"                     IVar="-1" Cut="     0.000000E+00" cType="1"                     res="     9.986134E-02" rms="0.0e-00"                     purity="0.00000000E+00" nType="-99">
                            </Node>
                            <Node pos="r" depth="7" NCoef="0"                     IVar="-1" Cut="     0.000000E+00" cType="1"                     res="     3.924407E-01" rms="0.0e-00"                     purity="0.00000000E+00" nType="-99">
                            </Node>
                        </Node>
                    </Node>
                    <Node pos="r" depth="5" NCoef="0"                     IVar="gen_mHH" Cut="     5.750000E+02" cType="1"                     res="     0.000000E+00" rms="0.0"                     purity="0.00000000E+00" nType="0">
                        <Node pos="l" depth="6" NCoef="0"                     IVar="dr_lep1_tau1_tau2_min" Cut="     3.589858E+00" cType="1"                     res="     0.000000E+00" rms="0.0"                     purity="0.00000000E+00" nType="0">
                            <Node pos="l" depth="7" NCoef="0"                     IVar="-1" Cut="     0.000000E+00" cType="1"                     res="     2.235271E-01" rms="0.0e-00"                     purity="0.00000000E+00" nType="-99">
                            </Node>
                            <Node pos="r" depth="7" NCoef="0"                     IVar="-1" Cut="     0.000000E+00" cType="1"                     res="    -2.139218E-02" rms="0.0e-00"                     purity="0.00000000E+00" nType="-99">
                            </Node>
                        </Node>
                        <Node pos="r" depth="6" NCoef="0"                     IVar="diHiggsMass" Cut="     1.232155E+00" cType="1"                     res="     0.000000E+00" rms="0.0"                     purity="0.00000000E+00" nType="0">
                            <Node pos="l" depth="7" NCoef="0"                     IVar="-1" Cut="     0.000000E+00" cType="1"                     res="    -4.013746E-01" rms="0.0e-00"                     purity="0.00000000E+00" nType="-99">
                            </Node>
                            <Node pos="r" depth="7" NCoef="0"                     IVar="-1" Cut="     0.000000E+00" cType="1"                     res="     3.422136E-01" rms="0.0e-00"                     purity="0.00000000E+00" nType="-99">
                            </Node>
                        </Node>
                    </Node>
                </Node>
                <Node pos="r" depth="4" NCoef="0"                     IVar="dr_lep1_tau1_tau2_min" Cut="     1.628217E+00" cType="1"                     res="     0.000000E+00" rms="0.0"                     purity="0.00000000E+00" nType="0">
                    <Node pos="l" depth="5" NCoef="0"                     IVar="mTauTauVis" Cut="     8.816173E-01" cType="1"                     res="     0.000000E+00" rms="0.0"                     purity="0.00000000E+00" nType="0">
                        <Node pos="l" depth="6" NCoef="0"                     IVar="gen_mHH" Cut="     2.900000E+02" cType="1"                     res="     0.000000E+00" rms="0.0"                     purity="0.00000000E+00" nType="0">
                            <Node pos="l" depth="7" NCoef="0"                     IVar="-1" Cut="     0.000000E+00" cType="1"                     res="    -6.035936E-02" rms="0.0e-00"                     purity="0.00000000E+00" nType="-99">
                            </Node>
                            <Node pos="r" depth="7" NCoef="0"                     IVar="-1" Cut="     0.000000E+00" cType="1"                     res="    -3.082244E-01" rms="0.0e-00"                     purity="0.00000000E+00" nType="-99">
                            </Node>
                        </Node>
                        <Node pos="r" depth="6" NCoef="0"                     IVar="diHiggsMass" Cut="     6.315622E-01" cType="1"                     res="     0.000000E+00" rms="0.0"                     purity="0.00000000E+00" nType="0">
                            <Node pos="l" depth="7" NCoef="0"                     IVar="-1" Cut="     0.000000E+00" cType="1"                     res="    -3.667398E-01" rms="0.0e-00"                     purity="0.00000000E+00" nType="-99">
                            </Node>
                            <Node pos="r" depth="7" NCoef="0"                     IVar="-1" Cut="     0.000000E+00" cType="1"                     res="     1.790301E-01" rms="0.0e-00"                     purity="0.00000000E+00" nType="-99">
                            </Node>
                        </Node>
                    </Node>
                    <Node pos="r" depth="5" NCoef="0"                     IVar="ptTauTauVis" Cut="     1.578782E+00" cType="1"                     res="     0.000000E+00" rms="0.0"                     purity="0.00000000E+00" nType="0">
                        <Node pos="l" depth="6" NCoef="0"                     IVar="gen_mHH" Cut="     3.750000E+02" cType="1"                     res="     0.000000E+00" rms="0.0"                     purity="0.00000000E+00" nType="0">
                            <Node pos="l" depth="7" NCoef="0"                     IVar="-1" Cut="     0.000000E+00" cType="1"                     res="    -2.216621E-01" rms="0.0e-00"                     purity="0.00000000E+00" nType="-99">
                            </Node>
                            <Node pos="r" depth="7" NCoef="0"                     IVar="-1" Cut="     0.000000E+00" cType="1"                     res="    -3.695753E-01" rms="0.0e-00"                     purity="0.00000000E+00" nType="-99">
                            </Node>
                        </Node>
                        <Node pos="r" depth="6" NCoef="0"                     IVar="diHiggsMass" Cut="     6.389260E-01" cType="1"                     res="     0.000000E+00" rms="0.0"                     purity="0.00000000E+00" nType="0">
                            <Node pos="l" depth="7" NCoef="0"                     IVar="-1" Cut="     0.000000E+00" cType="1"                     res="    -3.482776E-01" rms="0.0e-00"                     purity="0.00000000E+00" nType="-99">
                            </Node>
                            <Node pos="r" depth="7" NCoef="0"                     IVar="-1" Cut="     0.000000E+00" cType="1"                     res="     1.687777E-01" rms="0.0e-00"                     purity="0.00000000E+00" nType="-99">
                            </Node>
                        </Node>
                    </Node>
                </Node>
            </Node>
        </Node>
        <Node pos="r" depth="2" NCoef="0"                     IVar="tau1_eta" Cut="     2.201765E+00" cType="1"                     res="     0.000000E+00" rms="0.0"                     purity="0.00000000E+00" nType="0">
            <Node pos="l" depth="3" NCoef="0"                     IVar="diHiggsMass" Cut="    -2.219205E-03" cType="1"                     res="     0.000000E+00" rms="0.0"                     purity="0.00000000E+00" nType="0">
                <Node pos="l" depth="4" NCoef="0"                     IVar="Smin_llMEt" Cut="     1.523794E+00" cType="1"                     res="     0.000000E+00" rms="0.0"                     purity="0.00000000E+00" nType="0">
                    <Node pos="l" depth="5" NCoef="0"                     IVar="dr_leps" Cut="     1.802836E+00" cType="1"                     res="     0.000000E+00" rms="0.0"                     purity="0.00000000E+00" nType="0">
                        <Node pos="l" depth="6" NCoef="0"                     IVar="Smin_lltautau" Cut="     2.474652E+00" cType="1"                     res="     0.000000E+00" rms="0.0"                     purity="0.00000000E+00" nType="0">
                            <Node pos="l" depth="7" NCoef="0"                     IVar="-1" Cut="     0.000000E+00" cType="1"                     res="     3.528902E-01" rms="0.0e-00"                     purity="0.00000000E+00" nType="-99">
                            </Node>
                            <Node pos="r" depth="7" NCoef="0"                     IVar="-1" Cut="     0.000000E+00" cType="1"                     res="    -3.238530E-01" rms="0.0e-00"                     purity="0.00000000E+00" nType="-99">
                            </Node>
                        </Node>
                        <Node pos="r" depth="6" NCoef="0"                     IVar="dr_lep_tau_min_OS" Cut="     9.548144E-01" cType="1"                     res="     0.000000E+00" rms="0.0"                     purity="0.00000000E+00" nType="0">
                            <Node pos="l" depth="7" NCoef="0"                     IVar="-1" Cut="     0.000000E+00" cType="1"                     res="     3.296302E-01" rms="0.0e-00"                     purity="0.00000000E+00" nType="-99">
                            </Node>
                            <Node pos="r" depth="7" NCoef="0"                     IVar="-1" Cut="     0.000000E+00" cType="1"                     res="    -3.205484E-01" rms="0.0e-00"                     purity="0.00000000E+00" nType="-99">
                            </Node>
                        </Node>
                    </Node>
                    <Node pos="r" depth="5" NCoef="0"                     IVar="dr_lep1_tau1_tau2_min" Cut="     9.857880E-01" cType="1"                     res="     0.000000E+00" rms="0.0"                     purity="0.00000000E+00" nType="0">
                        <Node pos="l" depth="6" NCoef="0"                     IVar="tau1_eta" Cut="     6.905016E-01" cType="1"                     res="     0.000000E+00" rms="0.0"                     purity="0.00000000E+00" nType="0">
                            <Node pos="l" depth="7" NCoef="0"                     IVar="-1" Cut="     0.000000E+00" cType="1"                     res="     4.768283E-01" rms="0.0e-00"                     purity="0.00000000E+00" nType="-99">
                            </Node>
                            <Node pos="r" depth="7" NCoef="0"                     IVar="-1" Cut="     0.000000E+00" cType="1"                     res="    -4.991603E-01" rms="0.0e-00"                     purity="0.00000000E+00" nType="-99">
                            </Node>
                        </Node>
                        <Node pos="r" depth="6" NCoef="0"                     IVar="dr_leps" Cut="     4.721201E-01" cType="1"                     res="     0.000000E+00" rms="0.0"                     purity="0.00000000E+00" nType="0">
                            <Node pos="l" depth="7" NCoef="0"                     IVar="-1" Cut="     0.000000E+00" cType="1"                     res="     1.103886E-01" rms="0.0e-00"                     purity="0.00000000E+00" nType="-99">
                            </Node>
                            <Node pos="r" depth="7" NCoef="0"                     IVar="-1" Cut="     0.000000E+00" cType="1"                     res="    -4.985634E-01" rms="0.0e-00"                     purity="0.00000000E+00" nType="-99">
                            </Node>
                        </Node>
                    </Node>
                </Node>
                <Node pos="r" depth="4" NCoef="0"                     IVar="ptTauTauVis" Cut="     9.477590E-01" cType="1"                     res="     0.000000E+00" rms="0.0"                     purity="0.00000000E+00" nType="0">
                    <Node pos="l" depth="5" NCoef="0"                     IVar="mTauTauVis" Cut="     8.447001E-01" cType="1"                     res="     0.000000E+00" rms="0.0"                     purity="0.00000000E+00" nType="0">
                        <Node pos="l" depth="6" NCoef="0"                     IVar="dr_lep_tau_min_OS" Cut="     6.355072E-01" cType="1"                     res="     0.000000E+00" rms="0.0"                     purity="0.00000000E+00" nType="0">
                            <Node pos="l" depth="7" NCoef="0"                     IVar="-1" Cut="     0.000000E+00" cType="1"                     res="     3.692955E-01" rms="0.0e-00"                     purity="0.00000000E+00" nType="-99">
                            </Node>
                            <Node pos="r" depth="7" NCoef="0"                     IVar="-1" Cut="     0.000000E+00" cType="1"                     res="    -2.925735E-02" rms="0.0e-00"                     purity="0.00000000E+00" nType="-99">
                            </Node>
                        </Node>
                        <Node pos="r" depth="6" NCoef="0"                     IVar="dr_lep1_tau1_tau2_min" Cut="     2.942103E+00" cType="1"                     res="     0.000000E+00" rms="0.0"                     purity="0.00000000E+00" nType="0">
                            <Node pos="l" depth="7" NCoef="0"                     IVar="-1" Cut="     0.000000E+00" cType="1"                     res="     3.247625E-01" rms="0.0e-00"                     purity="0.00000000E+00" nType="-99">
                            </Node>
                            <Node pos="r" depth="7" NCoef="0"                     IVar="-1" Cut="     0.000000E+00" cType="1"                     res="    -3.647804E-02" rms="0.0e-00"                     purity="0.00000000E+00" nType="-99">
                            </Node>
                        </Node>
                    </Node>
                    <Node pos="r" depth="5" NCoef="0"                     IVar="Smin_llMEt" Cut="     9.820096E-01" cType="1"                     res="     0.000000E+00" rms="0.0"                     purity="0.00000000E+00" nType="0">
                        <Node pos="l" depth="6" NCoef="0"                     IVar="mTauTauVis" Cut="     3.354545E-01" cType="1"                     res="     0.000000E+00" rms="0.0"                     purity="0.00000000E+00" nType="0">
                            <Node pos="l" depth="7" NCoef="0"                     IVar="-1" Cut="     0.000000E+00" cType="1"                     res="     1.877008E-01" rms="0.0e-00"                     purity="0.00000000E+00" nType="-99">
                            </Node>
                            <Node pos="r" depth="7" NCoef="0"                     IVar="-1" Cut="     0.000000E+00" cType="1"                     res="     4.005705E-01" rms="0.0e-00"                     purity="0.00000000E+00" nType="-99">
                            </Node>
                        </Node>
                        <Node pos="r" depth="6" NCoef="0"                     IVar="gen_mHH" Cut="     3.250000E+02" cType="1"                     res="     0.000000E+00" rms="0.0"                     purity="0.00000000E+00" nType="0">
                            <Node pos="l" depth="7" NCoef="0"                     IVar="-1" Cut="     0.000000E+00" cType="1"                     res="    -6.126580E-03" rms="0.0e-00"                     purity="0.00000000E+00" nType="-99">
                            </Node>
                            <Node pos="r" depth="7" NCoef="0"                     IVar="-1" Cut="     0.000000E+00" cType="1"                     res="     3.342330E-01" rms="0.0e-00"                     purity="0.00000000E+00" nType="-99">
                            </Node>
                        </Node>
                    </Node>
                </Node>
            </Node>
            <Node pos="r" depth="3" NCoef="0"                     IVar="dr_leps" Cut="     2.596861E+00" cType="1"                     res="     0.000000E+00" rms="0.0"                     purity="0.00000000E+00" nType="0">
                <Node pos="l" depth="4" NCoef="0"                     IVar="Smin_llMEt" Cut="     1.239733E+00" cType="1"                     res="     0.000000E+00" rms="0.0"                     purity="0.00000000E+00" nType="0">
                    <Node pos="l" depth="5" NCoef="0"                     IVar="mTauTauVis" Cut="     1.644398E+00" cType="1"                     res="     0.000000E+00" rms="0.0"                     purity="0.00000000E+00" nType="0">
                        <Node pos="l" depth="6" NCoef="0"                     IVar="Smin_lltautau" Cut="     7.005429E-01" cType="1"                     res="     0.000000E+00" rms="0.0"                     purity="0.00000000E+00" nType="0">
                            <Node pos="l" depth="7" NCoef="0"                     IVar="-1" Cut="     0.000000E+00" cType="1"                     res="     3.060353E-02" rms="0.0e-00"                     purity="0.00000000E+00" nType="-99">
                            </Node>
